tree
num_class=1
num_tree_per_iteration=1
label_index=0
max_feature_idx=69
objective=binary sigmoid:1
feature_names=Column_0 Column_1 Column_2 Column_3 Column_4 Column_5 Column_6 Column_7 Column_8 Column_9 Column_10 Column_11 Column_12 Column_13 Column_14 Column_15 Column_16 Column_17 Column_18 Column_19 Column_20 Column_21 Column_22 Column_23 Column_24 Column_25 Column_26 Column_27 Column_28 Column_29 Column_30 Column_31 Column_32 Column_33 Column_34 Column_35 Column_36 Column_37 Column_38 Column_39 Column_40 Column_41 Column_42 Column_43 Column_44 Column_45 Column_46 Column_47 Column_48 Column_49 Column_50 Column_51 Column_52 Column_53 Column_54 Column_55 Column_56 Column_57 Column_58 Column_59 Column_60 Column_61 Column_62 Column_63 Column_64 Column_65 Column_66 Column_67 Column_68 Column_69
feature_infos=[0:0.68047618865966797] [0:0.45687437057495117] [0:0.31094247102737427] [0:0.35920384526252747] [0:0.42181271314620972] [0:0.34489688277244568] [0:0.30430039763450623] [0:0.28729689121246338] [0:0.20151172578334808] [0:0.32232406735420227] [0:0.6212390661239624] [0:0.35646861791610718] [0:0.35842317342758179] [0:0.27584251761436462] [0:0.50520813465118408] [0:0.34489688277244568] [0:0.290570467710495] [0:0.31566360592842102] [0:0.20716391503810883] [0:0.23339070379734039] [0:0.68047618865966797] [0:0.38092485070228577] [0:0.3188299834728241] [0:0.27584251761436462] [0:0.42540848255157471] [0:0.34489688277244568] [0:0.29326042532920837] [0:0.3064345121383667] [0:0.20148323476314545] [0:0.24326726794242859] [0:0.61667859554290771] [0:0.51828449964523315] [0:0.34305912256240845] [0:0.23551112413406372] [0:0.41574123501777649] [0:0.30125582218170166] [0:0.39994135499000549] [0:0.35889306664466858] [0:0.29599824547767639] [0:0.28857696056365967] [0:0.59131348133087158] [0:0.43932011723518372] [0:0.34305912256240845] [0:0.31120756268501282] [0:0.36466634273529053] [0:0.29591819643974304] [0:0.31359454989433289] [0:0.32423391938209534] [0:0.2985745370388031] [0:0.37251761555671692] [0:0.59266793727874756] [0:0.37096932530403137] [0:0.25899907946586609] [0:0.21715831756591797] [0:0.36284089088439941] [0:0.31238189339637756] [0:0.29994374513626099] [0:0.32887399196624756] [0:0.27394199371337891] [0:0.24013292789459229] [0:0.47301018238067627] [0:0.22122013568878174] [0:0.17580629885196686] [0:0.20333057641983032] [0:0.19913364946842194] [0:0.1455327570438385] [0:0.18285384774208069] [0:0.19770993292331696] [0:0.14813096821308136] [0:0.19818516075611115]

Tree=0
num_leaves=31
num_cat=0
split_feature=27 9 13 48 29 36 40 10 18 3 45 47 10 24 15 42 2 0 24 50 69 5 47 69 33 13 9 38 41 44
split_gain=4614283.1440521376 905678.52807814581 418910.74427468114 293363.82173720701 283214.45410789177 418942.47860336665 190744.56794568044 113383.53920973231 100391.19209619076 89755.36093014013 80889.554021103773 194187.67840417605 96922.386314106407 45747.765070554859 30092.65904958389 29629.848429755773 65845.329694048822 23541.656900776434 19457.859374401276 18691.020400804235 16350.313358867075 13287.412144952279 12717.820433119778 11044.972715729382 9638.800379864464 7896.2678444416233 7394.6931276887772 7124.9691001507454 85288.27790311721 16337.07166930713
threshold=0.066306386142969145 0.031613696366548545 0.023068540729582313 0.038527013733983047 0.033056138083338744 0.14552025496959689 0.0048842558171600112 0.23189395666122439 0.02349017467349768 1.0000000000000001e+300 0.02799587789922953 0.052254909649491317 0.041860841214656837 0.13011220097541812 0.047726394608616836 0.020917988382279876 0.050312863662838943 0.063146751374006285 0.013941945973783733 0.47746355831623083 0.029638578183948997 0.048938704654574401 0.060122385621070869 0.11822607740759851 0.099976867437362685 0.0063186511397361764 0.10113452002406122 0.032362524420022971 0.066491451114416136 0.083751663565635695
decision_type=2 10 8 10 10 10 10 10 8 8 8 10 10 8 10 8 10 10 10 8 8 8 8 10 8 10 10 8 10 8
left_child=1 3 -3 -1 5 -2 8 -5 -4 10 11 12 -6 17 18 16 -12 19 -14 -10 -17 26 -22 27 -20 -9 -21 28 -24 -30
right_child=4 2 6 7 9 -7 -8 25 13 -11 15 -13 14 -15 -16 20 -18 -19 24 21 22 -23 23 -25 -26 -27 -28 -29 29 -31
leaf_value=-0.10000000000000001 -0.10000000000000001 -0.10000000000000001 -0.10000000000000001 -0.10000000000000001 -0.10000000000000001 0.097385002852973454 -0.10000000000000001 -0.10000000000000001 -0.10000000000000001 -0.10000000000000001 -0.10000000000000001 -0.10000000000000001 -0.10000000000000001 -0.10000000000000001 -0.10000000000000001 -0.10000000000000001 0.094966545477713923 -0.10000000000000001 -0.10000000000000001 0.093251482040961897 -0.10000000000000001 -0.10000000000000001 -0.10000000000000001 -0.10000000000000001 0.096904049009634508 0.097583726268546958 -0.10000000000000001 0.098060078042723806 -0.10000000000000001 0.098605705177040273
leaf_count=45452 2864 3094 428 561 395 43 953 28 70 348 342 993 70 181 112 58 20 90 34 267 45 49 323 39 88 20 27 394 57 37
internal_value=0 -1.4116272447647766 0.35343796334022998 -1.8761313166386839 1.54747805738528 0.013954599860137959 1.1268775547740557 0.83207320576803567 1.4790513834868211 1.7307540890863595 1.7574825288498999 1.0141357389627497 1.5263227133246178 1.6644047640330109 1.7819639785280166 1.8792443544900699 0.68362122455757657 1.748869374236419 1.8613359969576793 1.792334598616228 1.9115162495773763 1.8268440385860949 1.9171065766856066 1.9214549200331861 1.9126578017314624 1.8787796872827995 1.8513767362097826 1.9252313008906772 1.6593940713825286 1.92184190669924
internal_count=57482 51220 5159 46061 6262 2907 2065 609 1112 3355 3007 1692 699 684 304 1315 362 503 192 413 953 343 895 850 122 48 294 811 417 94
shrinkage=0.05


Tree=1
num_leaves=31
num_cat=0
split_feature=28 9 29 31 36 17 23 42 30 40 24 15 0 43 0 56 11 19 69 42 21 66 51 47 1 5 8 69 58 28
split_gain=4032882.1864846912 578652.10176540213 436799.27561989636 374660.42868441809 268898.36160882143 267467.42716514831 177672.69518264057 156647.08318022685 197965.11117140547 126575.7343599927 103768.6815111613 62851.614848104131 57351.931052055792 46899.73582956614 76563.257059630894 42302.74630062026 28958.477793845523 21323.059675293451 18239.551242828835 15953.861292991787 14514.599716855795 11364.992557451595 10354.112689758826 9789.7532590427436 39393.865855652191 9703.4153560948907 7660.6583227356896 6825.4980262392201 6463.5912387119606 6107.2607712924364
threshold=0.030768660828471187 0.032370191067457206 0.033056138083338744 0.19088915735483172 0.14552025496959689 0.03017386328428984 1.0000000000000001e+300 0.020917988382279876 1.0000000000000001e+300 0.0048842558171600112 0.013941945973783733 0.048307627439498908 0.029530612751841549 0.018821693025529388 0.43283951282501226 0.1039518676698208 0.044166164472699172 0.042708046734333045 0.029638578183948997 0.0031566002871841197 0.0099967946298420447 0.086531039327383055 0.048416314646601684 0.060122385621070869 0.055082885548472411 0.04176530800759793 0.045234955847263343 0.11822607740759851 0.0045239846222102651 0.011522270739078523
decision_type=10 10 10 10 10 8 8 8 8 10 10 8 10 8 8 8 8 10 8 10 10 10 8 8 10 8 10 10 8 10
left_child=1 3 4 -1 -2 -3 7 8 -4 12 -10 16 15 14 -9 -7 17 -12 -15 22 25 23 -19 24 -20 29 -24 28 -25 -17
right_child=2 5 6 -5 -6 9 -8 13 10 -11 11 -13 -14 18 -16 20 -18 19 21 -21 -22 -23 26 27 -26 -27 -28 -29 -30 -31
leaf_value=-0.095251847405427428 -0.095270091190377451 -0.095275163018397155 -0.095327050320462736 0.092778961842225449 0.091867984692389867 -0.095241864813609273 -0.095265512259642637 -0.096160582585834195 -0.095380124151166146 -0.095336811237935665 -0.09567000840956992 -0.095533799884428477 -0.095517524124279274 -0.095377268696593354 0.090494557199267522 0.05720874427310612 -0.097256227328603145 -0.095241864813609273 -0.095494741362764313 -0.095826787375151531 -0.09762279409686446 -0.096122793909176996 0.087420581531037891 -0.097225130054517342 0.090585378771672512 -0.095477184057918413 -0.096512467967187598 -0.095241864813609273 0.090493763161330704 0.090288260586496805
leaf_count=44331 3460 2318 1379 22 29 191 816 496 562 728 92 300 280 73 20 178 127 43 195 67 61 45 263 25 20 41 31 27 1134 128
internal_value=0 -1.4453864633460622 1.3241211364382053 -1.7825840919320479 -0.77399882111357365 0.25796152929254879 1.5134282997250403 1.5649496463985304 0.6602732670180832 1.000558589698493 1.1408408883953096 1.3926554834989158 1.3518346560753578 1.7391935443263138 0.32979494432790624 1.5108227921217392 1.5450350633580199 1.6145500102734593 1.7791292333068158 1.6661963846943804 1.62828161952285 1.7852349787392652 1.7048042572858235 1.7890241449897073 1.0478463882343245 1.6680472554284189 1.7299421096710128 1.8053686209510891 1.807695270485655 1.6949505667188132
internal_count=57482 48278 9204 44353 3489 3925 5715 4899 2864 1607 1485 923 879 2035 516 599 623 496 1519 404 408 1446 337 1401 215 347 294 1186 1159 306
shrinkage=0.05


Tree=2
num_leaves=31
num_cat=0
split_feature=27 9 17 48 29 36 23 47 10 3 45 47 10 4 15 42 17 27 21 11 69 0 7 47 66 23 6 54 27 3
split_gain=3798947.4531624694 744617.19348408934 336158.18239353603 241709.34474347252 232774.57773670088 345053.75614167057 135503.58587711857 123138.15369799093 94130.592388062621 73821.410812682938 67749.644126817584 165035.2513733223 81339.706681483891 39080.165696260345 24832.230112032557 24235.506203205325 54833.468742897094 18335.687810880307 17343.994675287337 13704.016140609572 13453.255653350614 11690.927853447676 11682.544218216448 10535.967713696882 9188.503352205269 6797.771804951175 6619.5482003455982 6570.5997810098343 6430.912493025593 34684.562131131359
threshold=0.066306386142969145 0.031613696366548545 0.049806004390120513 0.038527013733983047 0.033056138083338744 0.14552025496959689 0.047391597181558616 0.062171712517738349 0.23189395666122439 1.0000000000000001e+300 0.02799587789922953 0.052254909649491317 0.041860841214656837 0.049477672204375274 0.047726394608616836 0.020917988382279876 0.16130374372005465 0.057653676718473441 0.018239794299006466 0.044166164472699172 0.029638578183948997 0.063146751374006285 0.017340771853923801 0.060122385621070869 0.086531039327383055 0.024645606055855755 1.0000000000000001e+300 0.11357426270842554 0.020567614585161213 0.021269703283905986
decision_type=2 10 8 10 10 10 10 8 10 8 8 10 10 8 10 8 10 2 10 10 8 10 2 8 10 8 8 10 2 8
left_child=1 3 6 -1 5 -2 -3 -4 -5 10 11 12 -6 17 18 16 -12 21 -14 -20 -17 28 -8 -22 26 -10 27 -25 29 -9
right_child=4 2 7 8 9 -7 22 13 25 -11 15 -13 14 -15 -16 20 -18 -19 19 -21 23 -23 -24 24 -26 -27 -28 -29 -30 -31
leaf_value=-0.091165461624197155 -0.091164015856826361 -0.091479016644734429 -0.091875999364118777 -0.091672677151569126 -0.092525188906035033 0.08879671043245764 0.087021921351249296 -0.10692957889423012 0.089215937456419411 -0.091130811855259383 -0.091644842944471935 -0.093485300330511431 -0.096652078867664942 -0.094813403439477875 -0.091194421133296677 -0.091123988079748475 0.087055046569255015 -0.094945648493299062 0.089412867805727742 -0.095960310692114026 -0.091678783900260949 -0.09177341554426445 -0.092712091076741429 0.0879855851976626 -0.092026650006687957 -0.094762690310642106 -0.10639034891623289 -0.10541110519671243 0.0888571785669625 0.087628238448129767
leaf_count=45452 2864 3864 647 561 395 43 20 150 20 348 342 993 71 177 112 58 20 80 66 55 45 52 53 763 39 28 24 24 94 22
internal_value=0 -1.2869518299017433 0.32007649911970021 -1.7102970482393689 1.410117743230936 0.013408093791452554 -1.2526096308302697 1.2567064677786735 0.75861556016817477 1.5769650311109109 1.6013013124882645 0.91823247920211437 1.3927260356859661 1.5349469248843413 1.6279707924037601 1.71325482488401 0.62731678288967241 1.6217397456920206 1.7003425021367424 1.7493717565509754 1.7425743605852364 1.6624307327840369 1.5044792714249151 1.7476658101258664 1.7516408436667108 1.7163389207460655 1.7551007886043548 1.7574089763788157 1.6888460979118887 1.1088746595854528
internal_count=57482 51220 5159 46061 6262 2907 3937 1222 609 3355 3007 1692 699 575 304 1315 362 398 192 121 953 318 73 895 850 48 811 787 266 172
shrinkage=0.05


Tree=3
num_leaves=31
num_cat=0
split_feature=27 9 13 48 29 36 40 10 17 3 45 47 10 4 15 50 47 69 21 0 11 69 43 5 5 6 3 45 21 48
split_gain=3466018.4774045739 680042.82555057947 315998.69500851509 220704.33478709077 212200.34861357929 314887.92844406026 143997.01155808425 85866.05650591942 77263.499497101147 67334.178101982689 61834.28914677049 150458.91251936299 74181.299687285064 41153.174210668483 22649.25016895571 19732.24816725502 19342.57530909474 17148.191492825281 15813.513061218837 12907.536765498749 12496.28968087968 11630.745078339707 10464.682381979423 37137.985774450157 8783.324228299025 6865.1968150327448 6361.9299436057045 6313.8876954261941 6006.1922309229849 5793.7351401369087
threshold=0.066306386142969145 0.031613696366548545 0.023068540729582313 0.038527013733983047 0.033056138083338744 0.14552025496959689 0.0048842558171600112 0.23189395666122439 0.036372769623994834 1.0000000000000001e+300 0.02799587789922953 0.052254909649491317 0.041860841214656837 0.049477672204375274 0.047726394608616836 0.47746355831623083 0.060122385621070869 0.029638578183948997 0.018239794299006466 0.063146751374006285 0.044166164472699172 0.11822607740759851 0.018821693025529388 0.16587343811988833 0.048938704654574401 1.0000000000000001e+300 1.0000000000000001e+300 0.01460483204573393 0.055617984384298332 0.02033253759145737
decision_type=2 10 8 10 10 10 10 10 8 8 8 10 10 8 10 8 8 8 10 10 10 10 8 8 8 8 8 10 10 8
left_child=1 3 -3 -1 5 -2 8 -5 -4 10 11 12 -6 15 18 -10 -12 -18 -14 24 -20 22 23 -19 28 29 -7 -9 -17 -24
right_child=4 2 6 7 9 26 -8 27 13 -11 16 -13 14 -15 -16 19 17 21 20 -21 -22 -23 25 -25 -26 -27 -28 -29 -30 -31
leaf_value=-0.087578837739745841 -0.087577574021799512 -0.087880148311804518 -0.088459115732152538 -0.088026249219353592 -0.088776100261379692 0.086773051717633276 -0.087967653788041958 -0.092167682502609247 -0.087902995715509247 -0.087548255138944639 -0.088219097452649498 -0.089617693969421652 -0.092406383113531096 -0.090140918048964194 -0.087604479998781237 0.082255990312260441 -0.087537702447166951 -0.093738290205874916 0.085825191556595126 -0.088369181391756257 -0.091773362542267145 -0.090750056196308035 -0.10208512108403243 0.083320955846646505 -0.090606194681247323 -0.098890739733737812 -0.10863760801517817 0.08567135894880952 -0.099371880522686321 0.084302670274115893
leaf_count=45452 2864 3094 433 561 395 20 953 28 99 348 92 993 71 208 112 243 82 208 66 63 55 53 23 20 41 28 23 20 25 809
internal_value=0 -1.2360196627829241 0.30714750413646619 -1.6429599712601817 1.3535283803190241 0.012863244020434924 0.98440367965076869 0.72823310989953871 1.2928247641712967 1.5135933659606708 1.5369421333536455 0.88116935368998661 1.3367234154162091 1.4577809477256329 1.5625415925843793 1.5447358663731299 1.6444459636171871 1.6519758034529206 1.6319764713889504 1.5869942890871083 1.6791174733539342 1.6586781308446366 1.6631399009725458 0.89699851125660446 1.6145601305560853 1.6813647511914087 1.7049871484652368 1.6474400013585371 1.6330732293733572 1.6839276182669876
internal_count=57482 51220 5159 46061 6262 2907 2065 609 1112 3355 3007 1692 699 679 304 471 1315 1223 192 372 121 1141 1088 228 309 860 43 48 268 832
shrinkage=0.05


Tree=4
num_leaves=31
num_cat=0
split_feature=27 9 13 10 29 36 40 44 17 3 45 47 10 4 42 12 15 54 21 11 69 5 47 69 21 27 29 38 21 44
split_gain=3173073.5714181401 623364.89287022362 289214.66112762835 198099.41946231015 194024.81540380116 288391.82758408185 131721.1622810901 87393.85535867518 70656.373517621774 61619.957704763161 56562.476200885838 137665.07583465712 67891.157492045138 37624.803483631113 21246.29376642243 48019.511953172609 20730.259242027882 18043.62793658243 14469.11302679978 11435.083522797591 11233.58665542677 10337.046748390305 8796.2099695270881 8042.7967783636414 6584.5759126790217 6695.1569964956143 31600.05675632468 6464.3439156203531 76556.757159274712 13965.877877174527
threshold=0.066306386142969145 0.031613696366548545 0.023068540729582313 0.23189395666122439 0.033056138083338744 0.14552025496959689 0.0048842558171600112 0.04741328954696656 0.036372769623994834 1.0000000000000001e+300 0.02799587789922953 0.052254909649491317 0.041860841214656837 0.049477672204375274 0.020917988382279876 0.035683218389749534 0.047726394608616836 0.084653168916702284 0.018239794299006466 0.044166164472699172 0.029638578183948997 0.048938704654574401 0.060122385621070869 0.11822607740759851 0.054326372221112258 0.020567614585161213 0.034081125631928451 0.032362524420022971 0.0745552033185959 0.083751663565635695
decision_type=2 10 8 10 10 10 10 10 8 8 8 10 10 8 8 10 10 8 10 10 8 8 8 10 10 2 10 8 10 8
left_child=1 3 -3 -1 5 -2 8 -5 -4 10 11 12 -6 17 15 -12 18 -10 -14 -20 -16 24 -22 27 25 26 -19 28 -24 -30
right_child=4 2 6 7 9 -7 -8 -9 13 -11 14 -13 16 -15 20 -17 -18 21 19 -21 22 -23 23 -25 -26 -27 -28 -29 29 -31
leaf_value=-0.084432487269294809 -0.084426837176886205 -0.084695877557594085 -0.085211196047303192 -0.085018015056884236 -0.085489981500600234 0.082129739479574887 -0.08477372973028223 0.081710182610497117 -0.084716087892180492 -0.084400760452472454 -0.087952834402273264 -0.086233365072753976 -0.088708983239884201 -0.086697106359036463 -0.084395648500544318 0.080681233041754175 -0.084450828267161687 0.079572488161364224 0.082659612679701733 -0.088126240835027639 -0.084823979005632683 -0.086574587398247582 -0.10440557889319335 -0.088102649750986695 -0.093224073403642846 0.082306211081090486 -0.10504567747257398 0.082885186499324665 -0.10579361405018094 0.083483823155986403
leaf_count=45406 2864 3094 433 626 395 43 953 29 99 348 342 993 71 208 58 20 112 28 66 55 45 54 327 39 31 106 153 394 54 36
internal_value=0 -1.1911883924867155 0.29565895124620689 -1.5837937445759431 1.3033995517635943 0.012390447770129192 0.94731000621967676 0.65253264368451269 1.2439258903777231 1.4574069081367544 1.47987672024984 0.84852497409402394 1.2873479152367857 1.4025610340650323 1.5833683986872342 0.55648575629263164 1.5048321581590338 1.4862345016048901 1.5716721225999721 1.6171369999728895 1.6111869300381514 1.5268614312256208 1.6158891551730499 1.619561605394817 1.5498707566373553 1.56395654325522 0.96635825233821537 1.6228543893090062 1.3657953890441552 1.6230882634114203
internal_count=57482 51220 5159 46061 6262 2907 2065 655 1112 3355 3007 1692 699 679 1315 362 304 471 192 121 953 372 895 850 318 287 181 811 417 90
shrinkage=0.05


Tree=5
num_leaves=31
num_cat=0
split_feature=27 9 18 48 40 42 19 32 45 3 10 4 25 50 48 24 28 1 38 21 40 11 27 26 23 8 6 48 42 3
split_gain=2914138.8918527197 573212.10868722992 258374.62206302502 186203.02310007485 139789.8060873099 123430.4301433682 156792.53195322357 85991.37854858127 83628.18295790744 72830.644985834369 72277.140814073427 42894.206896548829 38927.826725889812 33767.566731038794 30985.640878703445 24760.467035540059 20682.811957491562 72770.602109034749 19101.126654736465 116175.59871289757 19410.635055056191 15221.992870216054 11255.759650330408 7627.0246675955132 41451.822859637352 15577.332269414743 7411.9117690718267 6978.2033701325709 6509.4708350801666 6004.8814395232766
threshold=0.066306386142969145 0.031613696366548545 0.02349017467349768 0.038527013733983047 0.0048842558171600112 0.020917988382279876 0.042708046734333045 0.11865711584687234 0.010522947646677496 1.0000000000000001e+300 0.23189395666122439 0.049477672204375274 0.053885478526353843 0.47746355831623083 0.020857245661318306 0.013941945973783733 0.022529285401105884 0.15872402489185336 0.032362524420022971 0.0745552033185959 0.17067921906709674 0.044166164472699172 0.057653676718473441 0.021849375218153003 0.02156880218535662 0.002107682754285634 1.0000000000000001e+300 0.063089150935411467 0.0031566002871841197 0.1645537614822388
decision_type=2 10 8 10 10 8 10 8 8 8 10 8 8 8 8 10 10 10 8 10 10 8 2 10 8 10 8 10 10 8
left_child=1 3 -3 -1 11 6 -2 -8 -7 14 -5 13 15 -4 -10 -9 17 -16 19 -18 -21 28 23 24 -15 -26 -20 -22 -17 -25
right_child=5 2 4 10 -6 8 7 12 9 -11 -12 -13 -14 22 16 21 18 -19 26 20 27 -23 -24 29 25 -27 -28 -29 -30 -31
leaf_value=-0.081643299972255529 -0.08195121010412082 -0.08177174436789364 -0.081778811703831736 -0.082008841924203282 -0.082053733677957597 -0.083078078048744161 -0.083117127941292099 -0.082663396711621623 -0.085789153268069351 -0.082982698322727477 0.076717069200576748 -0.083480509832509597 -0.083401790518743441 -0.097166912133214836 -0.082335292579049202 0.075624821129841188 -0.091310380892630008 0.079905274847534652 0.079063958074634996 -0.09380555733739894 -0.10171098837776907 -0.08339503173250995 -0.089441690481640912 0.079039372407883945 0.080684021524655855 -0.098657548437235468 -0.092576031552436239 0.081062034275677347 -0.083481060567173346 -0.08650084287985732
leaf_count=45452 1702 3038 214 561 1096 499 652 152 172 428 48 280 253 229 538 208 662 20 666 92 29 88 61 119 20 71 35 29 37 31
internal_value=0 -1.1514850765798186 0.28548662993736229 -1.5314204647426983 0.89812728718814938 1.2590782508191445 0.40687477213401857 0.93762334308100603 1.409934015927877 1.4433126853515112 0.67903059370640062 1.2288513425973686 1.2260967179424336 1.329334224828147 1.4723995843349806 1.3564301434960857 1.484556677211476 0.73833526938442229 1.5193589186520207 1.0916438541279645 1.5253001417559058 1.4397369051785345 1.4093452883984448 1.4347373761821718 1.0041928570874161 1.4482577522660924 1.5780492084660258 1.596692471294417 1.4907102550273432 1.5635617236101302
internal_count=57482 51220 5159 46061 2121 6262 3092 1390 3170 2671 609 1025 738 745 2243 485 2071 558 1513 812 150 333 531 470 320 91 701 58 245 150
shrinkage=0.05


Tree=6
num_leaves=31
num_cat=0
split_feature=27 25 47 22 47 10 8 13 16 8 45 35 1 13 25 23 16 24 11 10 7 40 48 3 3 5 27 3 48 8
split_gain=2682771.9406319987 418344.98775810353 114923.71276879606 114612.77343927906 200624.34853468341 102681.05965731433 154913.18242848592 88081.454028857872 80373.023987642024 60613.473246995403 52506.710713025881 132035.41387478251 50703.812202592846 47600.246567490278 45062.175598895003 44039.718681238854 41063.825722548521 36983.600529655465 30813.429056843255 28652.927938788183 22370.677167037065 57408.343549511716 22620.271244904143 18870.850010696129 16413.65210828057 13126.676094186812 12283.689428816593 12174.437733824812 10733.064826353395 10310.159099483164
threshold=0.066306386142969145 0.048428760841488845 0.06140482239425183 0.021270424127578739 0.0092607801780104654 0.23189395666122439 0.010349221993237736 0.061092203482985503 0.08172293379902841 0.015394002199172975 0.04201744124293328 0.03195267170667649 0.15517353266477588 1.0000000000000001e+300 9.9999996826552254e-21 0.022511405870318416 0.083165615797042861 0.0090538263320922869 0.096038259565830245 0.034950092434883125 0.04880627058446408 0.1086237318813801 0.010095784906297924 0.011998139321804048 0.10429622605443002 0.048938704654574401 0.020567614585161213 0.10429622605443002 0.013019743841141464 0.091315340250730528
decision_type=2 10 8 10 10 8 10 10 10 10 8 8 8 8 8 10 10 8 8 8 2 10 8 10 8 10 2 8 8 8
left_child=1 5 -3 4 19 7 12 8 -1 26 11 -5 -7 29 27 -4 -10 -13 -9 -2 21 -19 -23 -22 -21 -17 -8 -14 -25 -12
right_child=3 2 15 10 -6 6 9 18 16 -11 13 17 14 -15 -16 25 -18 20 -20 24 23 22 -24 28 -26 -27 -28 -29 -30 -31
leaf_value=-0.079218390225497148 -0.082724657280107694 -0.079318605438032486 -0.079583259869456024 -0.083380500367980448 -0.080886825628643841 -0.079805496074367932 -0.081589960823724481 -0.079958268103536678 0.074034564752944912 -0.083918370742334658 0.075983077311571001 -0.08161602727276468 -0.081282816137996414 -0.083430420726672117 -0.079426309462172953 0.076684281143659494 -0.079545607567326287 -0.083442211155638879 0.075891143261740415 0.073097415334435187 -0.082978727149093226 0.076373008255530922 -0.083576461434555424 -0.082266051799219669 -0.080424116644353158 -0.079991584529309018 0.074008284194445204 0.069368289256851012 0.076475269853371469 0.036759223619494179
leaf_count=42561 188 965 289 1062 2181 5190 76 244 29 445 772 268 86 278 619 94 379 509 20 151 111 33 139 62 104 79 85 59 137 267
internal_value=0 -1.1160443339190045 0.82296662733345138 1.2187861677204346 0.25171174845768807 -1.3255873989817575 -0.60595150931989827 -1.4791418919867962 -1.5305550283657556 0.89373350213814884 1.3445058964650989 0.86506215395848918 -1.2381009253802489 1.4757820768715617 -0.0060419121597043331 1.2979777268089234 0.46458745428409015 1.1557831408533212 0.75798957934737721 1.2412564639166077 1.2382458461801669 0.56028120069074849 1.2542648285949873 1.4494430035426875 1.3807881601718768 1.4796724855888721 1.3800805821842963 1.0941776152348039 1.5003946268824058 1.4988966530716099
internal_count=57482 51220 1427 6262 2624 49793 6560 43233 42969 606 3638 2321 5954 1317 764 462 408 1259 264 443 991 681 172 310 255 173 161 145 199 1039
shrinkage=0.05


Tree=7
num_leaves=31
num_cat=0
split_feature=27 9 13 48 29 36 40 10 18 3 45 33 24 4 19 0 69 40 50 66 19 40 9 48 5 48 8 7 41 49
split_gain=2474676.230278674 489914.45720328111 226746.79523932439 159096.02815436432 153992.25872587203 231272.91464912894 102986.51313061141 61561.26069268406 54353.258771256107 47954.025131489383 44931.920882013394 129867.11742479971 36019.165406805667 30013.199796570902 13392.174915998883 12235.008481477125 10438.214426244609 9575.8042076462298 9404.3103230582492 9306.5820984302554 7384.0158105730952 41749.469519283084 14329.196291182656 8054.2905275482699 6410.3659390800749 6135.0105770966038 5847.4315345877258 5784.8734837151133 5400.157551323442 5268.144140514567
threshold=0.066306386142969145 0.031613696366548545 0.023068540729582313 0.038527013733983047 0.033056138083338744 0.14552025496959689 0.0048842558171600112 0.23189395666122439 0.02349017467349768 1.0000000000000001e+300 0.04201744124293328 0.065438598394393935 0.0090538263320922869 0.049477672204375274 0.042708046734333045 0.063146751374006285 0.029638578183948997 0.24305536597967151 0.47746355831623083 0.071531470865011229 0.082062069326639189 0.1086237318813801 0.031931826844811446 0.011003717780113222 0.048938704654574401 0.020857245661318306 0.010667272843420507 0.14618140459060672 0.07001537457108499 0.041534541174769408
decision_type=2 10 8 10 10 10 10 10 8 8 8 8 10 8 10 10 8 10 8 10 10 10 10 10 8 8 10 2 8 10
left_child=1 3 -3 -1 5 -2 8 -5 -4 10 11 -6 -13 15 -14 18 -12 20 -10 25 21 -16 -22 -23 -20 -18 -24 -27 -7 -9
right_child=4 2 6 7 9 28 -8 29 13 -11 16 12 14 -15 17 -17 19 -19 24 -21 22 23 26 -25 -26 27 -28 -29 -30 -31
leaf_value=-0.076960813565873698 -0.078013997231700827 -0.07724634460103498 -0.077487059460764549 -0.077325348042508249 -0.081515835910383763 -0.10383174262986186 -0.077261860447573619 -0.091192701599328629 -0.077201092416982864 -0.076852894224938878 -0.080436585955064435 -0.080038695627578343 -0.081987137208881539 -0.078818270614811434 -0.084807833010179745 -0.080242536072626561 -0.088877076113318826 -0.089695075440641245 0.071045616593875455 -0.089018223769733382 -0.082682966845065348 0.075547369711992662 -0.084840468335586339 -0.083054609463837401 -0.080315075355224419 0.073944467314946291 0.074852725554205621 -0.11568955977301013 0.076559394445508758 0.075271815979386245
leaf_count=45452 2864 3094 428 561 1068 23 953 27 65 348 64 265 92 212 300 81 33 57 285 50 86 20 33 48 41 752 116 23 20 21
internal_value=0 -1.084115566220152 0.26970564783831352 -1.443281934060328 1.1817258758621092 0.0014997829056294105 0.86119609838476774 0.63936130009990011 1.1298115103141184 1.3229170026382753 1.3432317452289866 0.88897381007982001 1.1886124085078436 1.2713405478542015 1.2725985621138767 1.3487604807109226 1.4639227439141063 1.3034073644969906 1.3800166680661983 1.469169147043105 1.3243401419989993 0.89231902856120326 1.4408463356791696 1.4099466916761441 1.4045411945299249 1.4735997134475156 1.4809224122332383 1.4765229319951561 1.5012235607289222 1.4425398312827422
internal_count=57482 51220 5159 46061 6262 2907 2065 609 1112 3355 3007 2085 1017 684 752 472 922 660 391 858 603 368 235 68 326 808 149 775 43 48
shrinkage=0.05


Tree=8
num_leaves=31
num_cat=0
split_feature=27 9 13 48 29 36 40 10 17 3 45 33 4 29 40 8 48 50 49 0 66 9 42 7 54 5 11 41 9 27
split_gain=2288276.9417920308 454082.47890822217 209584.26708090774 147388.40502833924 142144.06397632649 213898.16181910041 95089.123154142158 56916.724967110553 51435.512544397177 44313.46146957553 41555.333073264454 119926.73872750971 27249.012793005124 15628.770017768897 47749.389381488967 18687.718112759932 17448.501478413753 13043.029021382215 9166.8838003707933 9108.2779089745309 8562.856355216587 7307.3534686130588 7248.2041495116428 25737.006426411805 6085.2352732643485 5929.2183297528827 5156.7297469587938 4994.1376858051881 4924.424144308141 4657.3047960185795
threshold=0.066306386142969145 0.031613696366548545 0.023068540729582313 0.038527013733983047 0.033056138083338744 0.14552025496959689 0.0048842558171600112 0.23189395666122439 0.036372769623994834 1.0000000000000001e+300 0.04201744124293328 0.065438598394393935 0.049477672204375274 0.079680826514959349 0.1086237318813801 0.010667272843420507 0.010209657717496158 0.47746355831623083 0.098942846059799208 0.063146751374006285 0.071531470865011229 0.031931826844811446 0.020917988382279876 0.094914581626653685 0.11357426270842554 0.048938704654574401 0.071866065263748183 0.042298860847949989 0.11228723078966142 0.020567614585161213
decision_type=2 10 8 10 10 10 10 10 8 8 8 8 8 10 10 10 10 8 10 10 10 10 8 2 10 8 10 8 10 2
left_child=1 3 -3 -1 5 -2 8 -5 -4 10 11 -6 17 14 -13 -15 -16 -10 21 25 22 -17 23 -12 -24 29 -7 -9 -23 -19
right_child=4 2 6 7 9 26 -8 27 12 -11 20 13 -14 15 16 18 -18 19 -20 -21 -22 28 24 -25 -26 -27 -28 -29 -30 -31
leaf_value=-0.074963992201849253 -0.075918813277065289 -0.075223430777749026 -0.076010341400790743 -0.075295105479029539 -0.079119499528452028 -0.10547534475352618 -0.075237403958041377 0.073227476572012548 -0.075314266663109392 -0.07486669128837764 -0.08291403286116994 -0.080283916656752261 -0.076705498301243152 -0.081170891589298882 0.071514260206828537 -0.078120790909453869 -0.080326722487965463 0.043383754123326457 -0.08916867284031349 -0.0785343365053809 -0.085859254682645575 0.072389163554483049 0.07235713820870085 0.071408083841300457 -0.11187832024360389 -0.077904049632825434 0.074485377034693975 -0.089976114680666228 -0.087368983748701279 0.072865689835193245
leaf_count=45452 2864 3094 433 561 1068 22 953 21 99 348 198 466 208 124 38 49 122 160 53 63 50 137 628 21 25 41 21 27 28 108
internal_value=0 -1.0553935753422026 0.26197264965789607 -1.405743294409816 1.1487108309686336 0.0014613296229456902 0.83602742959550569 0.62180441982118628 1.0964470183251294 1.2858193278955765 1.3055444775220657 0.86385984331638366 1.2364807075321356 1.1551760852406856 0.56726505702924623 1.3319533781615591 1.1993721648897042 1.3102941408080186 1.3866462051847916 1.3459747598753831 1.422926976024105 1.412120935964968 1.4272333729142428 0.76191975580734417 1.4444615662708391 1.3703412677266102 1.4603599494963495 1.4023420801136346 1.4339365133817776 1.3862714197503614
internal_count=57482 51220 5159 46061 6262 2907 2065 609 1112 3355 3007 2085 679 1017 626 391 160 471 267 372 922 214 872 219 653 309 43 48 165 268
shrinkage=0.05


Tree=9
num_leaves=31
num_cat=0
split_feature=27 9 13 48 29 36 40 10 17 3 45 35 24 4 50 19 40 8 48 69 0 66 47 54 9 5 20 45 7 9
split_gain=2120105.0342096402 421705.71622617135 194121.27905786227 136818.85842604446 131459.46153191011 198224.21130983927 87980.828531900028 52723.895896340618 47563.618755453324 41029.472592893289 38588.710214246996 111462.05580468434 30330.478700222477 25190.617979082715 12057.780473733059 11515.141137274972 39857.044033194419 12981.287564017461 12547.068374370843 9582.7105161501095 8417.970273494604 7948.6672407363076 6049.7226901014801 5722.5068961761426 5665.9123864917201 5480.0436121415696 5037.0685213556426 4859.9836091493125 4849.6270105061121 4759.6297709581268
threshold=0.066306386142969145 0.031613696366548545 0.023068540729582313 0.038527013733983047 0.033056138083338744 0.14552025496959689 0.0048842558171600112 0.23189395666122439 0.036372769623994834 1.0000000000000001e+300 0.04201744124293328 0.055579982697963722 0.0090538263320922869 0.049477672204375274 0.47746355831623083 0.082062069326639189 0.1086237318813801 0.010667272843420507 0.010209657717496158 0.029638578183948997 0.063146751374006285 0.071531470865011229 0.060122385621070869 0.11357426270842554 0.031931826844811446 0.048938704654574401 0.061721667647361762 0.032315958291292197 0.14618140459060672 0.11228723078966142
decision_type=2 10 8 10 10 10 10 10 8 8 8 8 10 8 8 10 10 10 10 8 10 10 8 10 10 8 10 8 2 10
left_child=1 3 -3 -1 5 -2 8 -5 -4 10 11 -6 -13 14 -10 16 -14 -17 -18 -12 25 22 -21 28 -19 -16 -7 -9 -24 -26
right_child=4 2 6 7 9 26 -8 27 13 -11 19 12 15 -15 20 17 18 24 -20 21 -22 -23 23 -25 29 -27 -28 -29 -30 -31
leaf_value=-0.073161261478877582 -0.074030352318414358 -0.073397908560889361 -0.074120740769888671 -0.073463179411366028 -0.077136549041383895 -0.1012495042074445 -0.073410531548297825 -0.09109722337038606 -0.073480538704847206 -0.073073172283139962 -0.079143990509608408 -0.076261758026774637 -0.07935681562917847 -0.074743944720337241 0.067388086262107502 -0.079212905706342485 0.069960021553173227 -0.076611142317498132 -0.078875155140358783 -0.082046322219001766 -0.076403859602295718 -0.083056044761669182 0.070166135314463141 -0.10468117475544472 0.071365444062619396 -0.075832943295455341 0.072683574174683283 0.071402717682078704 -0.11577959915107039 -0.089160196013551976
leaf_count=45452 2864 3094 433 561 1069 23 953 26 99 348 64 258 378 208 268 89 34 40 91 38 63 50 724 26 99 41 20 22 20 27
internal_value=0 -1.0294411589217931 0.25498754339973934 -1.3718442175992502 1.1187480494984769 0.0014248762257692907 0.81325807817317064 0.60585749459940619 1.066252851837806 1.2521409566590125 1.2713298099077848 0.84070616539820442 1.1252050076559046 1.2022629707371728 1.2739636932187506 1.2031323956950597 0.67494101651297256 1.3559564399264519 1.2253387417711015 1.3858605995581277 1.3086001610099254 1.3910833308931942 1.395304430742818 1.3985384736259989 1.3958605948964695 1.3322827341065002 1.4232455702039988 1.365757998847585 1.4012010335325105 1.4135869856214471
internal_count=57482 51220 5159 46061 6262 2907 2065 609 1112 3355 3007 2085 1016 679 471 758 503 255 125 922 372 858 808 770 166 309 43 48 744 126
shrinkage=0.05


Tree=10
num_leaves=31
num_cat=0
split_feature=27 9 13 48 29 36 40 10 17 38 21 35 40 3 5 45 10 47 55 15 48 48 27 1 11 21 21 15 13 7
split_gain=1967564.4481916784 392391.43215634546 180082.2486392885 127244.71190744219 121740.60637545877 184039.46356034238 81518.5714591461 48919.868139088197 44041.977036367898 38445.238357173046 138977.36009634443 23757.882034464274 21974.198161891429 20960.708147459896 15693.855487780209 13844.213590606581 51195.882740990288 27215.23391790934 12514.245767516259 12243.050178926787 8032.7849294182379 7715.3221653090732 7701.4709081671026 31420.87435807546 7465.30314684115 6797.2773255434004 5749.8537135013612 4686.4802630698978 4630.008590974423 4619.6229812821839
threshold=0.066306386142969145 0.031613696366548545 0.023068540729582313 0.038527013733983047 0.033056138083338744 0.14552025496959689 0.0048842558171600112 0.23189395666122439 0.036372769623994834 0.032362524420022971 0.0745552033185959 0.014968799427151682 0.17067921906709674 1.0000000000000001e+300 0.048938704654574401 0.02799587789922953 0.041860841214656837 0.052254909649491317 0.11033012717962266 0.047726394608616836 0.020857245661318306 0.063089150935411467 0.020567614585161213 0.046571718528866775 0.044166164472699172 0.053051238879561431 0.018239794299006466 0.081070117652416243 0.024376010522246364 0.14618140459060672
decision_type=2 10 8 10 10 10 10 10 8 8 10 8 10 8 8 8 10 10 8 10 8 10 2 8 8 10 10 8 8 2
left_child=1 3 -3 -1 5 -2 8 -5 -4 10 -6 -11 -12 15 18 16 -13 19 -10 24 -17 -14 23 -20 26 -24 -18 -7 -9 -22
right_child=4 2 6 7 9 27 -8 28 14 11 12 13 21 -15 -16 20 17 -19 22 -21 29 -23 25 -25 -26 -27 -28 -29 -30 -31
leaf_value=-0.071527473771511918 -0.072321351787602087 -0.071744076936905252 -0.07241031638533392 -0.071803729594928464 -0.080590394432834389 0.070981186963233522 -0.071755525647410195 0.06979548799781797 -0.071738710858030769 -0.086535441616006861 -0.08417492367290158 -0.07522621773050342 -0.094027506297387764 -0.071477531407316997 -0.072338964527274716 -0.08389419583980412 -0.08296290701348813 -0.074952933536068078 -0.095458879107142597 -0.074553157305336945 0.069672925780253178 0.070971903897987201 0.068625974311446208 0.069379428280484018 -0.079485266075283806 -0.086632657121712489 0.070580472366240751 -0.09715691521742148 -0.085564808144324989 -0.10658766447144681
leaf_count=45452 2864 3094 433 561 1315 20 953 20 113 159 147 476 42 179 144 51 36 224 215 96 480 30 144 22 51 41 48 23 28 21
internal_value=0 -1.0058185585203328 0.24851544979355439 -1.3411067610845848 1.0912690835501924 0.0013905104342863692 0.79210608043622655 0.59125062397342831 1.0381501871117045 1.2212155981974542 0.622287129910152 1.3047940529659312 1.2837140662060131 1.3164068253100074 1.1703800988022219 1.3277760088219708 0.97573613351367239 1.19138626882454 1.2175244095431932 1.306256673835243 1.386590991632745 1.3857678385359156 1.2552873347798224 0.6085866344440175 1.3580799989630135 1.3519577344685436 1.3886222829639081 1.3895435173239414 1.3321304643726195 1.3911662769231974
internal_count=57482 51220 5159 46061 6262 2907 2065 609 1112 3355 1534 1821 219 1662 679 1483 931 455 535 231 552 72 422 237 135 185 84 43 48 501
shrinkage=0.05


Tree=11
num_leaves=31
num_cat=0
split_feature=27 29 47 29 36 18 13 38 21 15 35 44 3 24 45 21 11 47 50 15 47 21 25 1 11 27 29 17 24 23
split_gain=1829402.7811576142 320520.41825125471 294439.11281047913 113011.27044082095 171154.77322390376 91252.169664299669 76642.884259365237 35780.142557583284 128958.09975894565 25057.492981107323 22052.038003189955 21431.687833317599 19478.143723433837 19377.40345716197 12856.737673651194 36629.266723767374 28123.743560365212 13637.173499639277 12376.740031274647 7743.0544369264389 7612.2492938846117 5729.9035424078465 5087.1022645377379 4725.002747482009 4568.6256701928214 4538.3760121270025 23516.238697753412 4673.4835333575902 4431.8270688500488 3911.8429836997202
threshold=0.066306386142969145 0.032378910109400756 0.06140482239425183 0.033056138083338744 0.14552025496959689 0.026800882071256641 0.061092203482985503 0.032362524420022971 0.0745552033185959 0.016969580203294757 0.014968799427151682 0.083751663565635695 1.0000000000000001e+300 0.13011220097541812 0.02799587789922953 0.018239794299006466 0.044166164472699172 0.052254909649491317 1.0000000000000001e+300 0.047726394608616836 0.060122385621070869 0.052007593214511878 0.08956471830606462 0.019329826347529892 0.071866065263748183 0.020567614585161213 0.034353446215391166 0.064140755683183684 0.013941945973783733 0.067288279533386244
decision_type=2 10 8 10 10 8 10 8 10 8 8 8 8 8 8 10 10 10 8 10 8 10 8 10 10 2 10 10 10 10
left_child=1 -1 6 4 -2 -4 -3 8 -5 -7 -9 -10 14 18 15 -12 17 19 -11 28 -16 22 25 -13 -6 26 -20 -27 -17 -8
right_child=3 2 5 7 24 9 29 10 11 13 12 23 -14 -15 20 16 -18 -19 21 -21 -22 -23 -24 -25 -26 27 -28 -29 -30 -31
leaf_value=-0.07004974404747337 -0.070769136556912443 -0.070290469277405884 -0.070540078859899741 -0.078415503983429849 -0.10003113074933259 -0.075685750350920705 0.067451601566430139 -0.084046413200129788 -0.083072239491625011 -0.071249808616276986 -0.074229626438910054 0.068972389212885343 -0.069996237818744575 -0.071835541102645353 -0.07836891346212907 -0.079245453530202931 -0.073448253751695128 -0.072430260708739258 0.067021683963267145 -0.073256166846558321 0.067992355570322613 -0.079841184169444079 -0.072328399081038303 -0.10401543799053754 0.069436028611815248 0.067015242731019872 -0.095636567672006956 -0.073774933153839609 0.067692335212882912 -0.072325352807580442
leaf_count=40454 2864 8598 1097 1315 22 232 20 159 149 116 365 46 179 185 54 32 257 119 22 64 498 43 45 24 21 184 152 38 94 34
internal_value=0 -0.98435778881303959 -0.13559837368969782 1.0665641247559405 0.0013570981227402894 0.8080891433763302 -1.1810954570885632 1.1934496978014149 0.60783589396565096 1.0702785155525465 1.2752267104608557 1.2551425398430089 1.2866053656134979 1.1394072912175184 1.2977071734157193 0.95371566109609307 1.1150758122777078 1.2397164782475745 1.1944637568191632 1.3006123302457264 1.355173295032372 1.2297867030603646 1.2451456351349981 1.3592839214926553 1.3587987445381002 1.25954272483084 0.7358201250002524 1.3259092320111732 1.3349818998815077 1.2279459308702265
internal_count=57482 51220 10766 6262 2907 2114 8652 3355 1534 1017 1821 219 1662 785 1483 931 566 309 600 190 552 484 441 70 43 396 174 222 126 54
shrinkage=0.05


Tree=12
num_leaves=31
num_cat=0
split_feature=27 9 18 48 29 36 40 10 38 21 4 35 44 54 3 48 10 21 21 0 17 40 25 17 6 26 20 44 27 3
split_gain=1703172.3345304264 341591.51498575334 151349.23583787843 110705.04662963655 105016.19837571401 159404.66703537165 81494.572296703234 42547.386393366614 33341.669201554614 119823.68502634473 25497.454867788954 20496.955033345148 19922.471356704948 19619.853511899535 18122.922658566968 11402.158851305488 37633.357701463254 18029.631197827955 12592.536525065065 9897.1508092729491 7040.0200738713902 6978.1509630717774 6597.2181235928583 6132.0767364111671 4857.0557273003506 4683.3234425957198 4398.8614569362981 4323.3712616742268 4152.8749216819706 21651.965750249758
threshold=0.066306386142969145 0.031613696366548545 0.02349017467349768 0.038527013733983047 0.033056138083338744 0.14552025496959689 0.0048842558171600112 0.23189395666122439 0.032362524420022971 0.0745552033185959 0.049477672204375274 0.014968799427151682 0.083751663565635695 0.092062976211309447 1.0000000000000001e+300 0.025181494653224949 0.041860841214656837 0.043160786852240569 0.018239794299006466 0.063146751374006285 0.056452903896570213 0.17067921906709674 0.057658005505800254 0.036372769623994834 1.0000000000000001e+300 0.13446625322103503 0.061721667647361762 0.023772926069796089 0.020567614585161213 0.021269703283905986
decision_type=2 10 8 10 10 10 10 10 8 10 8 8 8 8 8 8 10 8 10 10 10 10 10 8 8 8 10 8 2 8
left_child=1 3 -3 -1 5 -2 10 -5 9 -6 13 -10 -11 -4 15 16 -13 18 -18 20 23 -14 27 -15 -17 28 -7 -20 29 -25
right_child=4 2 6 7 8 26 -8 -9 11 12 -12 14 21 19 -16 24 17 -19 22 -21 -22 -23 -24 25 -26 -27 -28 -29 -30 -31
leaf_value=-0.068690941950037471 -0.069354681481151134 -0.068782705255675092 -0.068829656304573175 -0.069054869476074268 -0.076447449108757448 -0.095132211800798006 -0.068987128917334786 0.06378258725527898 -0.081797231415606977 -0.080704315490062781 -0.070460423314696624 -0.073386802634331325 -0.08734365389713844 -0.075367940616011375 -0.068644692287431933 0.066149019803996595 -0.074595018944361047 -0.076636741905767428 0.066496849624260126 -0.07299144490448449 -0.084645919380166454 0.068246718416479002 -0.088357473890655153 -0.094860810476748839 -0.094935014870510703 -0.086127042961144928 0.068066892252043668 -0.084549325017164445 0.065925401818979379 0.065966403187611253
leaf_count=45452 2864 3038 214 561 1315 23 1096 48 159 149 280 399 45 51 179 633 107 160 81 92 51 25 45 140 28 33 20 30 143 21
internal_value=0 -0.96464655681993516 0.23793393274211702 -1.2876588283071431 1.043687627764617 0.0013251582763297389 0.74170505118038688 0.56592504243742647 1.1677088116530399 0.5944197247490296 1.0124397581189704 1.2478202756446517 1.2284107229964611 1.0961146776866861 1.2589790455510355 1.269831486171394 0.91198555487486455 1.1146155873819663 1.2093094074602837 1.1613503561153649 1.1932132219764799 1.3306639530519877 1.2764467515410094 1.2140474090001567 1.3202560572116373 1.2334320066200224 1.3305071497880849 1.3084390387574067 1.2471591070010475 0.74052010268646307
internal_count=57482 51220 5159 46061 6262 2907 2121 609 3355 1534 1025 1821 219 745 1662 1483 822 423 263 531 439 70 156 388 661 337 43 111 304 161
shrinkage=0.05


Tree=13
num_leaves=31
num_cat=0
split_feature=28 9 29 31 36 17 42 32 24 3 37 15 0 43 1 11 11 46 69 26 19 48 45 7 33 19 42 66 28 9
split_gain=1536090.201827907 225775.48669535457 167035.04400878644 147499.2079012976 104880.00525556877 101470.33443466856 70561.716162031982 83228.674571578769 45777.217675841603 45762.859264072264 43864.131048233241 31600.731775981214 23352.093948273818 21205.3262596532 34387.845780643758 14483.876713910431 12241.155807177522 9541.1957469404733 8253.7204413373256 7771.8656733386451 7751.6004138871067 7085.1931316129776 6651.5608746645739 49575.889333342551 18823.488403568204 5726.4795134507585 5072.5976706531219 4927.1092239661375 4665.3673294853652 4588.8214062550687
threshold=0.030768660828471187 0.032370191067457206 0.033056138083338744 0.19088915735483172 0.14552025496959689 0.03017386328428984 0.020917988382279876 0.12397410348057748 0.013941945973783733 1.0000000000000001e+300 0.17029532045125964 0.048307627439498908 0.029530612751841549 0.018821693025529388 0.11389583349227907 0.0082200793549418467 0.044166164472699172 0.028154693543910984 0.029638578183948997 1.0000000000000001e+300 0.042708046734333045 0.01032005110755563 0.04201744124293328 0.04548217914998532 0.057573059573769576 0.033941507339477546 0.0031566002871841197 0.071531470865011229 0.027743882499635223 0.0441648866981268
decision_type=10 10 10 10 10 8 8 8 10 8 8 8 10 8 10 10 8 8 8 8 10 8 8 2 8 8 10 10 10 10
left_child=1 3 4 -1 -2 -3 7 -4 -9 13 -7 16 15 14 -8 21 17 20 -15 22 -10 -12 23 -20 -25 -24 -22 -27 -23 -26
right_child=2 5 6 -5 -6 10 9 8 11 -11 12 -13 -14 18 -16 -17 -18 -19 19 -21 26 28 25 24 29 27 -28 -29 -30 -31
leaf_value=-0.067488174358395631 -0.067916975113173142 -0.067427841525491777 -0.068759818921581742 0.065838140791099425 0.064677428433390388 -0.067898112817964998 -0.075841093049047473 -0.069777447848778137 -0.069178593450789971 -0.067711303011079568 -0.068713197880706955 -0.07326475246203118 -0.069712827851775114 -0.073279227424363325 0.064006633252692402 -0.071187536250296002 -0.070251241234332101 -0.073819592953257504 -0.075547108833210946 -0.083984555859113116 0.060923555530472739 0.057202277726722761 -0.11189798594593191 -0.075631940126105662 -0.078560801334428845 0.064817901196820377 -0.071167320923528635 -0.080352736715156275 -0.081160151009819992 0.066651127026742016
leaf_count=44331 3460 2318 1566 22 29 671 496 634 82 498 80 343 290 73 20 163 134 91 469 56 282 363 29 156 35 619 50 36 40 46
internal_value=0 -1.0189788812033329 0.91885993564973312 -1.2613535149481723 -0.55481052628641792 0.17812006153675453 1.0502906313722131 0.37985457439227971 0.74183218612692936 1.1832146279770446 0.68540143608762649 0.93903035098314402 0.90368232862444842 1.2105082856740581 0.14749687909640971 1.0180538511359754 1.0712104288131661 1.1236591847882138 1.2410222062163159 1.2458207171867324 1.1634175263170135 1.0881346719920719 1.2500084078983773 0.98940912268001924 1.2231470919244354 1.2903007714147026 1.1968957389344885 1.2932590316605219 1.1231056287284338 1.3118401129402739
internal_count=57482 48278 9204 44353 3489 3925 5715 3182 1616 2533 1607 982 936 2035 516 646 639 505 1519 1446 414 483 1390 706 237 684 332 655 403 81
shrinkage=0.05


Tree=14
num_leaves=31
num_cat=0
split_feature=27 9 13 48 29 36 40 10 17 38 11 44 4 35 3 45 10 47 15 54 47 40 0 11 27 3 3 7 11 49
split_gain=1482404.878844711 298425.15893328923 136295.25489190465 97065.396273045219 90939.783170307521 139006.15099429237 61322.835933304508 37121.085151730847 33055.292808763319 29591.932266612886 104832.30578870115 18667.00218401404 18642.672135313071 18130.596717266832 15762.860438482021 10922.016569280298 40445.578461814934 21670.820572122771 9363.3918244270171 8391.2544220818672 6550.3903697467176 6444.2985223065771 6328.0495891160099 5691.8101082270005 4624.0186797330389 21022.395500433955 4796.4513376765535 4309.7140973543283 4080.8069997807179 4048.1217314042988
threshold=0.066306386142969145 0.031613696366548545 0.023068540729582313 0.038527013733983047 0.033056138083338744 0.14552025496959689 0.0048842558171600112 0.23189395666122439 0.036372769623994834 0.032362524420022971 0.074058886617422118 0.083751663565635695 0.049477672204375274 0.014968799427151682 1.0000000000000001e+300 0.02799587789922953 0.041860841214656837 0.052254909649491317 0.047726394608616836 0.084653168916702284 0.060122385621070869 0.17067921906709674 0.063146751374006285 0.044166164472699172 0.020567614585161213 0.021269703283905986 0.1645537614822388 0.14618140459060672 0.071866065263748183 0.041534541174769408
decision_type=2 10 8 10 10 10 10 10 8 8 10 8 8 8 8 8 10 10 10 8 8 10 10 8 2 8 8 2 10 10
left_child=1 3 -3 -1 5 -2 8 -5 -4 10 -6 -12 19 -11 15 16 -15 18 23 -10 -17 -13 24 -18 25 -21 -26 -22 -7 -9
right_child=4 2 6 7 9 28 -8 29 12 13 11 21 -14 14 -16 20 17 -19 -20 22 27 -23 -24 -25 26 -27 -28 -29 -30 -31
leaf_value=-0.066320105843170302 -0.066899484300534107 -0.066638720418741096 -0.067080555307838158 -0.066725314910335468 -0.07421384196911833 -0.095425452343781067 -0.066597891734395606 -0.085011182677523514 -0.066652315934102827 -0.079081067738106567 -0.077748311305912768 -0.084242848381129262 -0.069276487165960979 -0.070743051297422394 -0.066303190353238547 -0.075482324322834249 0.064092662625872862 -0.070499343880035203 -0.069025709668021587 -0.092419293469457778 0.064154176263401086 0.06579779136283985 -0.071254935171333703 -0.072432829421485198 0.064197875641004348 0.062888449855225334 -0.076778977971949269 -0.11137233969442489 0.065597453579302759 0.064498401154632679
leaf_count=45452 2864 3094 433 561 1303 22 953 27 99 159 159 47 208 476 179 54 84 224 96 150 478 25 63 51 98 22 39 20 21 21
internal_value=0 -0.92995464064699684 0.22624890174487081 -1.2427719225337472 1.0026998934955313 0.0014949199922429154 0.7238197655579196 0.54447510077312322 0.94777896573772435 1.1214782224920232 0.56498434703614808 1.1751764719610771 1.0679922881226698 1.1992653581821566 1.2101357441976783 1.2205388282344718 0.88987244456315218 1.0950489150084837 1.2051967747372538 1.1345771276681393 1.2760526396591745 1.2810172592461011 1.1651850714601319 1.2533312364096243 1.1874469831502943 0.6460181869308611 1.2659406658216992 1.2806681655014316 1.2811028509340443 1.2250307126048461
internal_count=57482 51220 5159 46061 6262 2907 2065 609 1112 3355 1534 231 679 1821 1662 1483 931 455 231 471 552 72 372 135 309 172 137 498 43 48
shrinkage=0.05


Tree=15
num_leaves=31
num_cat=0
split_feature=27 9 13 48 29 36 17 10 38 41 4 37 44 3 45 10 47 27 15 0 10 47 11 26 9 8 3 41 45 48
split_gain=1385199.1767673076 279551.24949897244 127339.06390228015 90908.052395266015 84791.232987265685 129946.46184620172 49488.555277469328 34663.803385571875 27607.175543894875 97872.076907016482 27219.618825378901 20023.018787687848 17177.020688030301 16233.026316597126 11917.354093869217 38002.679097538086 25245.405612033879 10886.851088766605 8793.9286877957202 7081.4314426391211 6931.3357148996147 6319.2643090626225 5482.8246935731877 4817.3522824771062 15909.104976317451 7706.0938138639431 4088.1050976623374 4020.8058374270331 3883.8104736281457 3772.9531672054436
threshold=0.066306386142969145 0.031613696366548545 0.023068540729582313 0.038527013733983047 0.033056138083338744 0.14552025496959689 0.036372769623994834 0.23189395666122439 0.032362524420022971 0.066491451114416136 0.049477672204375274 0.061903666704893119 0.083751663565635695 1.0000000000000001e+300 0.02799587789922953 0.041860841214656837 0.052254909649491317 0.057653676718473441 0.047726394608616836 0.063146751374006285 0.14237505942583087 0.060122385621070869 0.044166164472699172 0.021849375218153003 0.046289434656500823 0.00091449188767001044 0.1645537614822388 0.07001537457108499 0.032315958291292197 0.020623062737286094
decision_type=2 10 8 10 10 10 8 10 8 10 8 8 8 8 8 10 10 2 10 10 10 8 8 10 10 10 8 8 8 8
left_child=1 3 -3 -1 5 -2 -4 -5 9 -6 11 -8 -11 14 15 -10 18 19 22 23 -14 -16 -17 24 25 -13 -25 -7 -9 -23
right_child=4 2 6 7 8 27 10 28 13 12 -12 17 20 -15 21 16 -18 -19 -20 -21 -22 29 -24 26 -26 -27 -28 -29 -30 -31
leaf_value=-0.065273135629817097 -0.065809417320209812 -0.065569104291838751 -0.065626540615814521 -0.065649854018228551 -0.072452658319136928 -0.09351615166619219 -0.066159304525090876 -0.084666950719864298 -0.069247663460243358 -0.077522972980520619 -0.066889341899345242 0.055867383645538941 -0.086220112182632369 -0.065167640227262319 -0.073700245329725078 0.062796687648441221 -0.068470671409717729 -0.073096799638926596 -0.067755127351590602 -0.068002277537331846 0.064836888752525121 -0.09167217928199041 -0.070786147881984077 0.064041059594322977 -0.094436140205926319 -0.095308368056613357 -0.072193735334886322 0.064542112170587723 0.06335426783998073 0.062754522265950269
leaf_count=45452 2864 3094 833 561 1311 23 268 26 495 150 380 90 50 200 56 88 291 116 97 82 23 23 53 79 125 54 38 20 22 518
internal_value=0 -0.91473285899863488 0.22209574405365964 -1.2230332210137151 0.98459066656356931 0.0014618303864557308 0.71010078872139826 0.53464323393373381 1.1010686924022173 0.55482942500012844 0.89964944600780039 1.002727879914451 1.156479893841905 1.1774117503631087 1.1886774536039233 0.84073366018882767 1.0437192428868953 1.0790293765232801 1.1794321298035677 1.1182504067384313 1.2581167811232405 1.247913064940797 1.2269729816567738 1.1448108722607986 0.75959106221077821 1.0010776459846022 1.2622998861635084 1.2588265197284287 1.2021231357251252 1.2526117931218181
internal_count=57482 51220 5159 46061 6262 2907 2065 609 3355 1534 1232 852 223 1821 1621 1024 529 584 238 468 73 597 141 386 269 144 117 43 48 541
shrinkage=0.05


Tree=16
num_leaves=31
num_cat=0
split_feature=27 9 13 48 29 31 40 10 17 38 21 35 44 3 24 48 10 21 21 54 43 40 5 40 26 23 23 26 41 24
split_gain=1295513.7533817221 262214.03827404778 119051.36413650592 85235.003828490502 79108.064411093132 120357.68114199143 53608.266687226729 32398.77377272931 28795.174380040684 25752.655708831619 92245.868981952153 16438.374736271566 15587.332625912153 13754.92433422152 12895.987806030069 9068.6255961075658 29247.684207859304 14106.549185324649 10560.84568875267 8028.1047333049792 6528.145139385364 6167.78671677682 5901.5876771442709 5500.111958440888 4483.9362238803587 23934.000699745156 8209.4442436967402 4160.9034914578078 3795.588035054443 3414.2495596297085
threshold=0.066306386142969145 0.031613696366548545 0.023068540729582313 0.038527013733983047 0.033056138083338744 0.1344486474990845 0.0048842558171600112 0.23189395666122439 0.036372769623994834 0.032362524420022971 0.0745552033185959 0.014968799427151682 0.083751663565635695 1.0000000000000001e+300 0.13011220097541812 0.025181494653224949 0.041860841214656837 0.043160786852240569 0.018239794299006466 0.084653168916702284 0.019143713638186458 0.17067921906709674 0.048938704654574401 0.17067921906709674 0.021849375218153003 0.02156880218535662 0.0229270039126277 1.0000000000000001e+300 0.042298860847949989 0.061911450698971755
decision_type=2 10 8 10 10 10 10 10 8 8 10 8 8 8 8 8 10 8 10 8 10 10 8 10 10 8 10 8 8 8
left_child=1 3 -3 -1 5 -2 8 -5 -4 10 -6 -11 -12 15 19 16 -13 18 -18 -10 29 -7 24 -14 25 -21 -27 -17 -9 -20
right_child=4 2 6 7 9 21 -8 28 14 11 12 13 23 -15 -16 27 17 -19 20 22 -22 -23 -24 -25 -26 26 -28 -29 -30 -31
leaf_value=-0.06430829096357514 -0.065013623540776819 -0.064583737063889049 -0.064973874464706219 -0.064659165916864741 -0.071157226650004457 -0.078057612045018931 -0.064613234464658151 0.062348962503096975 -0.06476184661813951 -0.077918747039849884 -0.074967989667177951 -0.068972538043550455 -0.080797102131511145 -0.064296005067710313 -0.066183779278838714 0.061419860189523362 -0.072475958555419995 -0.072391941500149756 0.062160802134834436 -0.089861911670070058 -0.08541155881751121 0.063913102847772782 -0.068622554025932564 0.063665368124578792 0.062476452196523341 0.063209515215393725 -0.10921139586672308 -0.091919145329806537 -0.084001823216672641 -0.084378733788446403
leaf_count=45452 2835 3094 433 561 1315 52 953 21 109 159 149 399 45 179 170 633 107 160 76 184 52 20 68 25 85 21 42 28 27 28
internal_value=0 -0.90055960655400091 0.21809528209267701 -1.204829045183609 0.96761717113159129 0.0014300635921963669 0.69677559719001869 0.52544638103281527 0.91225914981031575 1.0819091310164473 0.54546324271734381 1.1568480424080141 1.1422322584069351 1.1676189765583092 1.0276266444944859 1.1776324466004278 0.83868762591105195 1.0293750199548559 1.1188070681876645 1.078762523345099 1.185716424885737 1.2215960058078048 1.1109773451496057 1.240162439006441 1.1339226704430396 0.75596006154760786 1.1459631301270492 1.2256169160858057 1.1806054934899253 1.2233787166727241
internal_count=57482 51220 5159 46061 6262 2907 2065 609 1112 3355 1534 1821 219 1662 679 1483 822 423 263 509 156 72 400 70 332 247 63 661 48 104
shrinkage=0.05


Tree=17
num_leaves=31
num_cat=0
split_feature=27 9 13 48 29 31 40 10 18 3 35 21 8 24 42 25 24 48 42 0 40 11 27 48 26 23 8 46 6 49
split_gain=1212607.9636706477 246138.075442879 111449.30810419118 79993.610210611369 73811.504672522657 112748.90569668809 50131.195535535604 30310.575771520915 26585.129049903291 22879.269661642727 19988.368847175152 68625.192292951833 15006.278658823183 12754.902449029832 10316.620533730835 25510.353258800831 16319.929073328007 12958.243172270712 9299.3232179827028 7119.1503663641197 5769.0871960555014 5376.1501023323362 4975.7897288695094 4653.3465067637298 4540.5995139875013 20417.972778361414 9917.0443789994097 4377.8035153395031 3950.6103815973038 3624.0556317294795
threshold=0.066306386142969145 0.031613696366548545 0.023068540729582313 0.038527013733983047 0.033056138083338744 0.1344486474990845 0.0048842558171600112 0.23189395666122439 0.02349017467349768 1.0000000000000001e+300 0.015314783900976183 0.0745552033185959 0.0078752720728516596 0.13011220097541812 0.020917988382279876 0.053885478526353843 0.013941945973783733 0.020857245661318306 0.0031566002871841197 0.063146751374006285 0.17067921906709674 0.044166164472699172 0.057653676718473441 0.063089150935411467 0.021849375218153003 0.02156880218535662 0.0013774684630334379 0.028154693543910984 1.0000000000000001e+300 0.041534541174769408
decision_type=2 10 8 10 10 10 10 10 8 8 8 10 10 8 8 8 10 8 10 10 10 8 2 10 10 8 10 8 8 10
left_child=1 3 -3 -1 5 -2 8 -5 -4 10 11 -6 23 19 15 16 -12 -16 21 22 -7 27 24 -13 25 -10 -27 -18 -19 -9
right_child=4 2 6 7 9 20 -8 29 13 -11 14 12 -14 -15 17 -17 18 28 -20 -21 -22 -23 -24 -25 -26 26 -28 -29 -30 -31
leaf_value=-0.063417335757350535 -0.0640786097559011 -0.063674102740171129 -0.06421219550601974 -0.063744667968649818 -0.070449023517616199 -0.076235324296930057 -0.06370141473123718 -0.082495156952792081 -0.087973403022100438 -0.063074394048448196 -0.068731207897229293 -0.07626678073629066 -0.081898375787124111 -0.065044601663009113 -0.070893466639195421 -0.076283648997032216 0.057437560564558378 0.060460360778904432 -0.068434913065806208 -0.067456235202688009 0.062946067447992485 -0.06782402159968956 -0.079312255442763713 0.062621569206333688 0.061376316763103435 0.062065504053625188 -0.089693250212953268 -0.07429958617201772 -0.088579867182122629 0.061360790470483678
leaf_count=45452 2835 3094 428 561 1037 52 953 27 166 348 220 45 134 181 138 308 213 627 119 90 20 66 47 28 100 25 75 44 28 21
internal_value=0 -0.88752923262583827 0.21449985214038642 -1.1880117296168777 0.95145793485344066 0.0014005739545252778 0.68482742350583958 0.5168823907075224 0.89632724295689326 1.063612146673069 1.0794940692096289 0.54488985045046923 1.1041632784242192 1.0079624888319205 1.1402521371010841 0.80495823876825523 0.94404371788876951 1.1959347654762977 1.0388183654730643 1.061136185401613 1.2029224822163957 1.0929552076216393 1.090221174514332 1.2162470619512311 1.1087485697464858 0.72514013744572703 1.073932810080376 1.1244090601487995 1.2063965566186861 1.160527696190677
internal_count=57482 51220 5159 46061 6262 2907 2065 609 1112 3355 3007 1244 207 684 1763 970 662 793 442 503 72 323 413 73 366 266 100 257 655 48
shrinkage=0.05


Tree=18
num_leaves=31
num_cat=0
split_feature=27 9 13 48 29 36 17 44 38 21 4 32 44 3 45 10 47 27 15 47 0 21 44 10 26 23 7 7 11 3
split_gain=1135693.0990864565 231269.97736618493 104413.53330483334 75143.737252534251 68857.55661129544 106935.04939052936 40509.866669429815 28487.018379331195 22808.498746709316 81591.344364159828 22313.370263116609 16492.732367716468 13886.879887042785 13255.936070585856 10402.665862472844 32621.051961006931 21926.490708806057 8695.3229806889431 7427.0062623225676 5621.2879121312872 5570.5714243564289 5007.8517430259672 4888.7890209589605 4711.4291368296545 4475.7653118944145 18355.61017860959 8905.7686568295248 4430.0143659503665 4238.8008478040138 3429.2200499595056
threshold=0.066306386142969145 0.031613696366548545 0.023068540729582313 0.038527013733983047 0.033056138083338744 0.14552025496959689 0.036372769623994834 0.04741328954696656 0.032362524420022971 0.0745552033185959 0.049477672204375274 0.031312847509980209 0.083751663565635695 1.0000000000000001e+300 0.02799587789922953 0.041860841214656837 0.052254909649491317 0.057653676718473441 0.047726394608616836 0.060122385621070869 0.063146751374006285 0.018239794299006466 0.06070875562727452 0.14237505942583087 0.021849375218153003 0.022511405870318416 0.0018733674660325053 0.14618140459060672 0.044166164472699172 0.1645537614822388
decision_type=2 10 8 10 10 10 8 10 8 10 8 8 8 8 8 10 10 2 10 8 10 10 10 10 10 8 2 2 10 8
left_child=1 3 -3 -1 5 -2 -4 -5 9 -6 11 -8 -11 14 15 -10 18 20 21 -16 24 -17 -9 -14 25 -13 -27 -21 -23 -26
right_child=4 2 6 7 8 -7 10 22 13 12 -12 17 23 -15 19 16 -18 -19 -20 27 -22 28 -24 -25 29 26 -28 -29 -30 -31
leaf_value=-0.062593060794959798 -0.063040740439452583 -0.062832787100809598 -0.062925691424917482 -0.064775022512483418 -0.069090728241890872 0.06012377294504434 -0.063754985590220858 0.061679674048554338 -0.067320731291115529 -0.072701231680580986 -0.064012184300684546 -0.085274701940732722 -0.080626820184058659 -0.062497285736216983 -0.072604619161717704 -0.076718432411907664 -0.06688627971402282 -0.07003352581903903 -0.065487215618454483 0.059775052953768761 -0.065595369368608422 0.061184574152559471 -0.069453977222563551 0.061730239831297357 0.061052973414025359 0.059499475001922833 -0.086167572091727332 -0.11200774984924361 -0.067634144860502274 -0.070458776679576229
leaf_count=45452 2864 3094 833 531 1315 43 266 20 495 149 380 162 41 200 56 44 291 111 97 519 77 49 58 29 80 42 77 22 48 37
internal_value=0 -0.87541060105869906 0.21109769184399785 -1.1724423331115483 0.9359084875018524 0.0013713639004819369 0.67348851082665739 0.50885426684999713 1.04594495371253 0.52369858404065162 0.85271217160776003 0.95042521951233405 1.1071931801437014 1.1188479435160821 1.1294932404081628 0.78882168626255023 0.98845734241439187 1.0228158983767173 1.1231452122206989 1.1878418782574418 1.0590042866860878 1.1692917975997217 1.1308190626053227 1.2037042572757422 1.0830559761398124 0.69799206003770808 1.0299667705444071 1.1926075449341613 1.1978222034300814 1.2032489823898229
internal_count=57482 51220 5159 46061 6262 2907 2065 609 3355 1534 1232 852 219 1821 1621 1024 529 586 238 597 475 141 78 70 398 281 119 541 97 117
shrinkage=0.05


Tree=19
num_leaves=31
num_cat=0
split_feature=27 9 13 44 29 36 40 20 17 38 41 35 40 24 42 15 24 45 44 54 0 44 11 2 5 8 41 27 29 1
split_gain=1064867.5112115876 217477.98725708009 97906.243115523102 69471.314023863757 64422.734039400937 100273.42460383257 44154.693541757813 31320.758484208141 23668.963553155132 21315.522071012529 75769.933059643954 14007.100689444109 13738.247254584232 10554.73791629351 8905.7118185219588 27536.924387988773 12641.018219870013 9111.4217179501429 6980.9754878735985 6776.2883076941216 5156.4759931100416 5121.9214728740335 5103.5582908415527 4755.4567021992989 4107.3242723071744 3494.9670177631924 3474.8110433596667 3423.5640865330788 14704.608017499842 3574.0488556042692
threshold=0.066306386142969145 0.031613696366548545 0.023068540729582313 0.04741328954696656 0.033056138083338744 0.14552025496959689 0.0048842558171600112 0.2325050160288811 0.036372769623994834 0.032362524420022971 0.066491451114416136 0.014968799427151682 0.17067921906709674 0.13011220097541812 0.020788552239537243 0.048307627439498908 0.013941945973783733 0.0098549188114702719 0.023057258687913421 0.084653168916702284 0.063146751374006285 0.083751663565635695 0.044166164472699172 1.0000000000000001e+300 0.048938704654574401 0.045234955847263343 0.07001537457108499 0.020567614585161213 0.034081125631928451 0.056250803172588355
decision_type=2 10 8 10 10 10 10 10 8 8 10 8 10 8 8 8 10 8 10 8 10 8 8 8 8 10 8 2 10 10
left_child=1 3 -3 -1 5 -2 8 -5 -4 10 -6 -11 -12 19 15 16 -13 -16 22 -10 24 -14 25 -19 27 -18 -7 28 -21 -29
right_child=4 2 6 7 9 26 -8 -9 13 11 12 14 21 -15 17 -17 18 23 -20 20 -22 -23 -24 -25 -26 -27 -28 29 -30 -31
leaf_value=-0.061851080613381695 -0.062246613324191992 -0.062053290487843638 -0.062463406930765755 -0.062121611215037134 -0.067892445390833889 -0.08841923932716933 -0.062171356513457399 0.059723456572033706 -0.062789649228593133 -0.075561057586568378 -0.072975518943211706 -0.068147249911958183 -0.076090585476176392 -0.063334975472782204 -0.066872464699506903 -0.072535457940867062 0.056608080576722064 0.058988283455161543 -0.080147245768355913 0.057388386938918082 -0.066189458714830771 0.061139698832242628 -0.064085125235675042 -0.068032116545564181 -0.06835584839611307 -0.075820082386352128 0.060895853497747024 0.05937396400073456 -0.082637077292666061 -0.089962181731357505
leaf_count=45380 2864 3094 433 654 1311 23 953 27 109 159 152 181 47 170 110 383 181 567 67 23 70 24 75 64 51 34 20 95 137 24
internal_value=0 -0.86416911560369392 0.20792502387636022 -1.1580228335470213 0.92187716995232405 0.0013124406832064279 0.66290940277357258 0.46503928741940614 0.86784844127436678 1.0301417725525805 0.51614756829280939 1.101843302688351 1.0871821931686869 0.97740218165501547 1.112404244239958 0.78972833133889098 0.95773813332783986 1.1669999274099487 1.0377809837699159 1.0258761762529625 1.057145914174074 1.186586392961386 1.0779670846116907 1.1754142216370025 1.0802613438569688 1.111345383498008 1.1841933900374972 1.0983476736128233 0.59705028024807605 1.172491201573459
internal_count=57482 51220 5159 46061 6262 2907 2065 681 1112 3355 1534 1821 223 679 1662 921 538 741 357 509 400 71 290 631 330 215 43 279 160 119
shrinkage=0.05


Tree=20
num_leaves=31
num_cat=0
split_feature=28 9 22 1 47 17 28 9 21 49 26 40 11 21 26 25 16 56 23 0 20 69 10 69 28 1 3 24 43 15
split_gain=967339.72056919348 145673.41978111834 98100.924906285887 94556.305415270617 76552.386022304359 63701.52787902308 40231.080597015796 35642.157951946487 31726.252740169759 77167.680445946418 40659.595425311942 30388.053719604406 19396.215754804463 15270.420647068138 14584.325307517654 13892.688866307144 9185.6960543193418 8362.065881052491 6233.96221278554 6069.451107131521 5915.9363975946617 5617.0441009729402 5286.3009507386305 3833.0139709094074 3387.365943719662 15533.420334517281 3357.6329225157388 3310.7083267696544 3156.4835491526173 25996.628676477289
threshold=0.030768660828471187 0.032370191067457206 0.021270424127578739 0.19412051886320117 0.0092607801780104654 0.03017386328428984 0.031058331020176414 0.031613696366548545 0.033739708364009864 0.094518531113863005 0.13446625322103503 0.0048842558171600112 0.018524263054132465 0.0087319682352244871 0.012781415600329639 0.0097315288148820418 0.086519572883844389 0.1039518676698208 0.032458363100886352 0.0348234809935093 0.09537967294454576 0.02972484286874533 0.033234765753149993 0.11822607740759851 0.011522270739078523 9.9999996826552254e-21 0.1645537614822388 0.01835609041154385 0.014017786830663683 0.011659800540655853
decision_type=10 10 10 10 10 8 10 10 10 8 10 10 8 10 10 8 8 8 10 10 10 8 8 10 10 8 8 10 8 10
left_child=1 3 4 -1 7 -3 27 -2 9 10 -4 13 16 17 -9 -10 18 -7 -11 24 22 -17 -16 26 25 -19 28 -6 29 -23
right_child=2 5 8 -5 6 11 -8 14 15 12 -12 -13 -14 -15 20 21 -18 19 -20 -21 -22 23 -24 -25 -26 -27 -28 -29 -30 -31
leaf_value=-0.061171019823698908 -0.062404340335712016 -0.061088669734881432 -0.068451641296188137 0.05926654097357216 -0.061228143862663204 -0.061353755065167354 -0.064185210976205873 -0.083387413038541455 -0.067653611950227358 -0.076251893850541208 0.056679684297205914 -0.061875535418935257 -0.094970828843914196 -0.066680744469372319 -0.070543014725012593 -0.068015726149801906 -0.13942238219205963 -0.078316159588257883 0.060031646952250189 -0.063915175085930129 -0.07137459497391252 0.060816066865755428 0.060448797812789883 -0.074864942153036296 0.056046937441592386 0.057605894823732656 -0.069211225856774611 0.058800803432011689 0.05765854344205508 -0.067911425088450661
leaf_count=44327 698 2318 2184 26 56 161 3944 151 198 69 26 728 165 271 62 73 45 174 67 100 75 20 38 42 150 23 47 20 836 388
internal_value=0 -0.91955761652605239 0.81643572574054402 -1.1425612833684211 -0.021071608215316246 0.15781678807514279 -0.89268859096740627 0.73566306374851875 0.98816981657925418 0.51625616642117533 -0.73600525143784945 0.60189117924118529 1.0576892371673718 0.8119191321270135 1.0248709825672084 1.1069474646221555 1.1402375017950352 0.91273360051758901 1.1704843376847049 0.97068816296847327 1.1247671801987886 1.1194363660787501 1.1691032239513999 1.124471088365127 1.0117952334619105 0.53041805558059474 1.1277272235994111 1.0148912905757455 1.1307079188457179 0.81698415089993992
internal_count=57482 48278 9204 44353 5044 3925 4020 1024 4160 2556 2210 1607 346 879 326 1604 181 608 136 447 175 1406 100 1333 347 197 1291 76 1244 408
shrinkage=0.05


Tree=21
num_leaves=31
num_cat=0
split_feature=27 9 13 48 29 36 40 10 17 38 21 35 40 3 24 42 15 24 48 50 50 48 0 11 26 23 8 11 3 8
split_gain=937067.64428883465 192848.8193400717 86453.039668180907 62753.261165113305 56375.371750786609 88769.731526224467 38873.986626324106 23546.312543281972 20859.393873329172 19328.562021606253 68509.248263679256 12704.404844809091 11570.626023492929 10142.75917391316 9300.1795648799598 7507.800325260614 22593.34274137477 10975.756771882421 10787.882355818467 5934.2373077611555 5099.6882089711944 4955.5884675421185 4548.0147941605246 4390.7455209299078 3643.455506285929 16694.588054252185 7318.3159577314291 3236.1763709881416 3202.0474819157826 3200.0475313425413
threshold=0.066306386142969145 0.031613696366548545 0.023068540729582313 0.038527013733983047 0.033056138083338744 0.14552025496959689 0.0048842558171600112 0.23189395666122439 0.036372769623994834 0.032362524420022971 0.0745552033185959 0.014968799427151682 0.17067921906709674 1.0000000000000001e+300 0.13011220097541812 0.020788552239537243 0.048307627439498908 0.013941945973783733 0.020857245661318306 0.47746355831623083 0.49864652752876287 0.063089150935411467 0.063146751374006285 0.044166164472699172 0.021849375218153003 0.02156880218535662 0.0025690975598990922 0.071866065263748183 0.1645537614822388 0.045234955847263343
decision_type=2 10 8 10 10 10 10 10 8 8 10 8 10 8 8 8 8 10 8 8 8 10 10 8 10 8 10 10 8 10
left_child=1 3 -3 -1 5 -2 8 -5 -4 10 -6 -11 -12 15 19 16 17 -13 -17 -10 -19 -14 24 29 25 -21 -27 -7 -26 -22
right_child=4 2 6 7 9 27 -8 -9 14 11 12 13 21 -15 -16 18 -18 20 -20 22 23 -23 -24 -25 28 26 -28 -29 -30 -31
leaf_value=-0.060461349818236282 -0.060880081606536365 -0.060700500181689002 -0.06108826013062349 -0.060767322318946965 -0.066658957849619047 -0.086612707759696969 -0.06078760789436552 0.05482307595986699 -0.061274183244607219 -0.074262970282602161 -0.070473564892891305 -0.066500570466669226 -0.085117352502672175 -0.060794822968791788 -0.061875761797587518 -0.069788972487669285 -0.071424809813360121 -0.073834502647347339 0.057641537470958439 -0.080229759922912924 0.054803203786605081 0.059476135484580396 -0.06436075784944606 -0.062586388281098998 0.059045056021274356 0.058732706222160813 -0.095522541365858429 0.059467973134718535 -0.071404312960078917 -0.071996799497140024
leaf_count=45452 2864 3094 433 561 1315 22 953 48 109 159 147 176 42 179 170 132 337 57 491 170 180 30 70 73 57 20 48 21 35 37
internal_value=0 -0.8435796264113703 0.20199100578663598 -1.1320315638753609 0.89482608827457477 0.00079979874824792261 0.6435779999562774 0.4900188523208987 0.84195347119455455 0.99957203627301727 0.49288504683303486 1.0703623875440753 1.0608327066622578 1.0808763691240788 0.94808962044749712 1.0902548088266544 0.78227781390082118 0.93317990957347741 1.1422372539881211 0.9950695116652073 1.0096775997328353 1.1537917969582903 1.0252087559202641 1.0431240675476268 1.0476909148683573 0.68039588068921086 1.0352501147399344 1.1547892502781869 1.162185243099858 1.0747438412270791
internal_count=57482 51220 5159 46061 6262 2907 2065 609 1112 3355 1534 1821 219 1662 679 1483 860 523 623 509 347 72 400 290 330 238 68 43 92 217
shrinkage=0.05


Tree=22
num_leaves=31
num_cat=0
split_feature=27 29 36 9 13 42 24 2 48 44 17 3 44 27 45 5 33 24 15 23 5 54 17 26 29 68 66 6 47 42
split_gain=880618.91126154421 135099.87144293642 110681.14652666013 80365.314218616171 63125.634082836674 42332.95711340406 38238.911690404719 33729.254142744692 29658.648516985471 23265.85133266147 22616.636751054644 18160.657372311223 12991.116417453826 11610.559129883295 10494.633596735541 49429.913236482185 12416.729116972725 8725.0286836490304 7253.2531296378074 5387.2845802988013 5193.1821938310968 4491.5204686950892 4466.171251314001 4410.4776134073254 15768.015084037401 3716.4396671146387 3583.0164202736923 3541.7547149430029 2834.117528518429 2690.4607754357785
threshold=0.050970507785677917 0.033056138083338744 0.14552025496959689 0.032370191067457206 0.059371082112193115 0.020917988382279876 0.036002626642584808 0.10310357064008714 0.038527013733983047 0.021402897313237194 0.036372769623994834 1.0000000000000001e+300 0.04741328954696656 0.069746419787406935 0.04201744124293328 0.027050534263253215 0.058192837983369834 0.049183994531631477 0.048307627439498908 0.037126809358596809 0.057211028411984451 0.11357426270842554 0.036679396405816085 0.021849375218153003 0.034081125631928451 0.016200066544115547 0.071531470865011229 1.0000000000000001e+300 0.060122385621070869 0.0033990963129326706
decision_type=2 10 10 10 8 8 10 10 10 10 8 8 10 2 8 10 8 8 8 10 8 10 10 10 10 8 10 8 8 10
left_child=3 2 -2 8 -5 6 7 -3 -1 13 -6 14 -10 -8 15 -7 -17 22 29 -18 -4 25 23 24 -12 -16 27 28 -27 -15
right_child=1 5 20 4 10 11 9 -9 12 -11 17 -13 -14 18 21 16 19 -19 -20 -21 -22 -23 -24 -25 -26 26 -28 -29 -30 -31
leaf_value=-0.059839393486998432 -0.06011630414653029 -0.063604827804389336 0.059139402204342773 -0.060858613598079141 -0.059881162215468534 -0.066582053346870521 -0.064332289047646971 0.055858790844638607 -0.06182856578666527 -0.067147308009557413 0.055918645717593946 -0.060039101007172725 0.056439195858777151 0.057140536003648656 -0.07867452532022097 -0.073175314840006583 -0.086525479661285987 -0.062032198875585157 -0.063719478690035677 0.058474468596659904 -0.082714580932111814 -0.11380853270109266 -0.063571705828109004 0.057978800159504268 -0.078956968671702155 -0.0684118404275421 -0.077800182435501089 -0.092853246882085308 0.056301029014939975 -0.06517609556859498
leaf_count=41919 5733 2041 20 2991 618 894 202 29 310 412 21 357 25 95 39 156 46 177 120 57 43 25 83 36 192 37 38 25 702 39
internal_value=0 0.7502623418098181 -0.39025006724023453 -0.98198349280501818 -0.080841774467144439 0.92522413361623757 0.28101470635872255 -0.63061347537418044 -1.1541429477531375 0.76368362417550906 0.58772862365816969 1.0371736309122153 0.44492850088638636 0.95805390482273689 1.0534005739752665 0.68720996541971113 1.0493725597661452 0.82988669617613198 1.0574850480499938 1.1355733564750941 1.1233264442780826 1.111124294837545 0.92136521311528774 0.96753376677813019 0.43597947512989993 1.1142160529085336 1.1174431095796147 1.1205746624500839 1.1233571757798357 1.1199273324415249
internal_count=57482 11110 5796 46372 4118 5314 2938 2070 42254 868 1127 2376 335 456 2019 1153 259 509 254 103 63 866 332 249 213 841 802 764 739 134
shrinkage=0.05


Tree=23
num_leaves=31
num_cat=0
split_feature=27 42 9 11 19 3 26 48 47 25 48 21 25 27 44 48 11 15 6 4 35 8 21 26 3 42 9 41 20 40
split_gain=827877.997167252 106368.47300346557 75873.242943262449 67756.184726544045 65913.360187214988 40410.824229839724 36655.012757815297 27985.812597229378 22510.296539804607 58296.141856956143 21200.483893087989 18868.091069564085 17596.843437384705 14698.302027098747 12183.27010717108 10398.175164101995 9252.87942619573 8779.3086793015536 7479.8596517340047 6398.6516597234986 5392.8113370085484 31383.277621627924 9202.8127252712948 4526.0847420305436 15148.695894176606 4218.0142194688815 3821.8047538059764 38996.917847693323 7080.0072579342523 3779.9994193822349
threshold=0.050970507785677917 0.020917988382279876 0.032370191067457206 1.0000000000000001e+300 0.067288164049386992 1.0000000000000001e+300 0.14712041616439822 0.038527013733983047 0.082232501357793822 0.049498232081532485 0.031533872708678252 0.040535720065236099 0.048903856426477439 0.066306386142969145 0.04741328954696656 0.029871187172830108 0.048665992915630348 0.048307627439498908 1.0000000000000001e+300 0.049477672204375274 0.015314783900976183 0.0078752720728516596 0.0745552033185959 0.021849375218153003 0.041072782129049308 0.0031566002871841197 0.01624877750873566 0.068694710731506362 0.34875100851058966 0.17067921906709674
decision_type=2 8 10 8 10 8 10 10 8 10 10 10 8 2 10 8 10 8 8 8 8 8 10 10 8 10 10 10 10 10
left_child=2 4 7 -4 6 8 -2 -1 9 -3 13 -11 19 -6 -9 -10 -13 25 20 23 21 22 -17 24 -5 -15 27 -22 -28 -29
right_child=1 5 3 12 10 -7 -8 14 15 11 -12 16 -14 17 -16 18 -18 -19 -20 -21 26 -23 -24 -25 -26 -27 28 29 -30 -31
leaf_value=-0.059268114006464416 -0.06060096561927273 -0.064183376200414088 -0.060277704388850856 -0.074290624793921928 -0.060584658309120666 -0.060284666357136397 0.056471810647481205 -0.061164551540030102 -0.075044411810850239 -0.070478704579445314 -0.065691747145079929 0.058750329179767247 -0.060192831047250206 0.052749439816686505 0.055573405759097944 -0.07274111322150538 -0.086875520312027235 -0.062626279179938557 -0.068573066627176202 -0.061635807526442647 -0.07118268026296766 -0.071926544388192334 0.057281336006853902 0.056903948000614657 0.05534708619243052 -0.064440251365567358 0.056800801791866862 -0.074844861458339046 -0.13054297250603394 0.058604379515715427
leaf_count=41919 4967 1483 3240 224 334 884 21 310 145 285 473 37 456 208 25 107 94 167 114 131 616 473 52 46 21 73 453 47 39 38
internal_value=0 0.74037328732745789 -0.97211274162487638 -0.079888856785272175 -0.128590918812691 0.92800501049835471 -0.89450773501350966 -1.1429960349534565 0.96330438137305818 0.41137010634839838 0.6142396087289641 0.94196084918111211 0.67260323501928587 0.80120221819342752 0.43863783060181361 1.0405763900098006 1.1044966487772643 0.93740091520824254 1.0494134356168237 0.86820846247681971 1.0561101634360337 0.72559642852804562 1.0508652441737834 0.9383583660356799 0.39895559637011735 1.0172356696857767 1.0915724670364884 0.85652990169334287 1.1307039535504897 1.1449097148266583
internal_count=57482 11110 46372 4118 6243 4867 4988 42254 3983 1899 1255 416 878 782 335 2084 131 448 1939 422 1825 632 159 291 245 281 1193 701 492 85
shrinkage=0.05


Tree=24
num_leaves=31
num_cat=0
split_feature=28 9 29 1 36 17 42 32 40 24 3 15 43 6 21 50 11 25 48 15 13 19 5 54 42 66 69 9 23 6
split_gain=754233.26236223837 115396.71690214035 80255.515247865638 74494.844844895415 52440.497419711719 49643.799254420068 35741.753005209495 40650.167713949078 23661.450864391001 23311.005491958065 22429.596671184408 17068.920644086313 12593.941066389554 19900.913262488953 12199.266886492245 6461.543921793862 6333.1474860273665 5660.8422357082018 28170.184087367055 12941.184539074813 5296.5242075892747 4729.1708125941877 4327.0675221229467 3973.4737006702926 3776.0066663297403 3639.6577224371722 3367.2207210594206 3034.1764144903791 2913.4208520893953 19380.169793096691
threshold=0.030768660828471187 0.032370191067457206 0.033056138083338744 0.19412051886320117 0.14552025496959689 0.03017386328428984 0.020917988382279876 0.12397410348057748 0.0048842558171600112 0.013941945973783733 1.0000000000000001e+300 0.048307627439498908 0.018821693025529388 0.098922144621610655 0.0087319682352244871 0.19023182243108752 0.044166164472699172 0.041652938351035125 0.059843774884939201 0.024736478924751285 0.026020673103630546 0.042708046734333045 0.04176530800759793 0.11357426270842554 0.0031566002871841197 0.071531470865011229 0.029638578183948997 0.076519727706909194 0.022102049551904205 0.031769616529345519
decision_type=10 10 10 10 10 8 8 8 10 10 8 8 8 10 10 8 8 8 8 8 10 10 8 10 10 10 8 10 8 10
left_child=1 3 4 -1 -2 -3 7 -4 14 -9 12 16 13 -8 15 -7 21 18 -14 20 -20 -11 28 25 27 26 -19 -23 29 -17
right_child=2 5 6 -5 -6 8 10 9 -10 11 -12 -13 17 -15 -16 22 -18 23 19 -21 -22 24 -24 -25 -26 -27 -28 -29 -30 -31
leaf_value=-0.05879760109531125 -0.059030272447910294 -0.058704120699537433 -0.060045946661847732 0.056663225926237432 0.055508064953512827 -0.058906913578123402 -0.071764698129201596 -0.061738682450106476 -0.059542474212906017 -0.062478730282674005 -0.059225396551538037 -0.065155272493102975 -0.070947405775806577 0.054970053655960416 -0.064726645300105093 -0.072250161211326464 -0.0616591250397171 -0.068230574722816878 -0.078158651765878384 -0.11235546942936113 0.056197423331450308 0.050869165819327156 -0.064685133235931322 -0.10967704215256019 -0.064105736419850609 -0.076745155246002505 0.055053669970428189 -0.078816494193745743 0.055500699454340843 0.056694983597682852
leaf_count=44327 3460 2318 1566 26 29 161 495 634 728 96 498 343 480 21 271 269 134 46 64 91 76 308 79 24 68 41 697 33 79 20
internal_value=0 -0.88163977912408587 0.77349261115802381 -1.0978760315340554 -0.47932828770838315 0.15003366236007937 0.88232480791695866 0.30847679902956338 0.56831733077936442 0.6063344012445866 0.99733278274901305 0.77400121517170029 1.0201193531524404 0.039864150440540883 0.76578138222111958 0.86246565409567311 0.89273235319732935 1.048894342996511 0.73674365655702734 0.99180263503177712 1.0790150113493246 0.93823457093338725 0.9165970886324547 1.0907037917084628 0.971958003342556 1.0938666707657614 1.0974897161759423 0.99849576505818949 0.950951688658491 0.62453176077778638
internal_count=57482 48278 9204 44353 3489 3925 5715 3182 1607 1616 2533 982 2035 516 879 608 639 1519 711 231 140 505 447 808 409 784 743 341 368 289
shrinkage=0.05


Tree=25
num_leaves=31
num_cat=0
split_feature=27 29 31 9 11 42 32 48 27 15 25 3 44 43 21 11 4 38 38 21 48 13 51 26 9 6 8 51 42 44
split_gain=732814.8479452536 111064.35799452575 92233.218528062367 67630.187548044196 60162.268634598731 35411.997583143762 31325.863907130675 25140.561647053459 23511.287494313219 17487.961535241033 15553.914313359091 15017.198089746293 10805.519552067648 8057.784979026299 16321.632990936165 6180.5963586302896 5714.3933961553012 5338.3232498487923 31405.591825255964 13045.165405330583 8712.4574725563289 5073.4454496110629 4554.2933675857785 4085.7506831198589 13366.312079956619 3687.3367407554761 3615.9380835944467 3604.3880172476784 2639.2800875656831 2543.6500125428211
threshold=0.050970507785677917 0.033056138083338744 0.1344486474990845 0.032370191067457206 1.0000000000000001e+300 0.020917988382279876 0.11865711584687234 0.038527013733983047 0.066306386142969145 0.048307627439498908 0.048903856426477439 1.0000000000000001e+300 0.04741328954696656 0.015275230631232263 0.099048260599374785 0.044166164472699172 0.049477672204375274 0.032362524420022971 0.0074684645514935264 0.048470338806509979 0.020857245661318306 0.045979158952832229 0.048416314646601684 0.021849375218153003 0.034186743199825294 1.0000000000000001e+300 0.045234955847263343 1.0000000000000001e+300 0.0031566002871841197 0.021402897313237194
decision_type=2 10 10 10 8 8 8 10 2 8 8 8 10 8 10 8 8 8 10 10 8 10 8 10 10 8 10 8 10 8
left_child=3 2 -2 7 -5 6 -3 -1 -8 15 16 13 -9 14 -7 22 23 18 19 -15 -19 -4 -10 24 -6 -22 28 -21 29 -24
right_child=1 5 21 4 10 11 8 12 9 -11 -12 -13 -14 17 -16 -17 -18 20 -20 27 25 -23 26 -25 -26 -27 -28 -29 -30 -31
leaf_value=-0.058238047379683126 -0.058586480532184175 -0.059561555081674149 -0.068898959554099026 -0.059262384268745076 0.053350943024637068 -0.070950619631653541 -0.060002332933408356 -0.059968919476828433 -0.06670751820995352 -0.065417547206228485 -0.059112197593057081 -0.058407729105432793 0.054287582931325351 -0.066960439468799454 0.054459650765856751 -0.061111338896701665 -0.060529080155801607 -0.066785761436568988 -0.072203888829684745 -0.082298758149629267 0.054722042051290699 0.057608783434434555 0.052533906038781587 0.055581339419364578 -0.073050560038973741 -0.081554940164124887 -0.070193199532722614 0.055404287493975059 -0.065055884108571424 -0.087084179630434577
leaf_count=41919 5706 1355 70 3240 25 389 727 310 72 359 456 357 25 204 21 133 131 134 468 38 631 20 174 46 220 36 50 98 46 22
internal_value=0 0.72182694448886175 -0.37773682582837331 -0.95414597621297004 -0.079283166032011576 0.8887480042660717 0.26785341242511057 -1.1227029333712539 0.54244560997931035 0.74749515193384353 0.6549625708950978 0.99730778660967101 0.43179934576159523 1.0128157561536788 0.17549635906786207 0.89197849150375652 0.84509946677128678 1.0344898181391597 0.76906066501002412 0.98912824174294922 1.0809596113973379 1.0787833717814406 0.94512191416931146 0.91399140722211236 0.38447781975094963 1.0907477977842386 0.98235874586781557 1.0846564662377549 1.0110596605533242 1.0329394177011344
internal_count=57482 11110 5796 46372 4118 5314 2938 42254 1583 856 878 2376 335 2019 410 497 422 1609 808 340 801 90 364 291 245 667 292 136 242 196
shrinkage=0.05


Tree=26
num_leaves=31
num_cat=0
split_feature=27 42 26 19 23 8 12 13 10 8 48 43 1 7 25 27 45 5 33 12 1 7 27 5 2 46 28 56 42 69
split_gain=689848.31036765024 88402.233837338223 58793.957925828465 55180.821355793807 35485.187754534418 37084.732511486131 31380.592499113773 24494.590278195101 22888.30137604312 26805.337309712675 17696.125675545347 16413.705049865064 15634.296944491311 14923.31370930652 12645.923986152853 12332.471597824551 8959.452517627331 45970.77234695675 12199.728456976547 7182.1348908350046 7053.9834419955469 6520.9153654375114 5746.8287321637636 5738.2445180261857 4758.3791444923027 4430.3456635593175 4300.4663482997566 11188.25835193019 3791.388145971956 3691.6538322229753
threshold=0.050970507785677917 0.020917988382279876 0.10349705815315248 0.067288164049386992 0.014174023177474739 0.073300015181303038 0.076671585440635695 0.061092203482985503 0.23189395666122439 0.010349221993237736 0.031533872708678252 0.015275230631232263 0.15517353266477588 0.020755305886268619 9.9999996826552254e-21 0.066306386142969145 0.04201744124293328 0.022407415322959427 0.058707857504487045 0.03690947778522969 0.10902110114693643 0.04548217914998532 0.020567614585161213 0.16587343811988833 9.9999996826552254e-21 0.028154693543910984 0.022529285401105884 0.065835688263177886 0.031460860744118697 0.029638578183948997
decision_type=2 8 10 10 10 10 10 10 8 10 10 8 8 2 8 2 8 10 8 10 8 2 2 8 8 8 10 10 10 8
left_child=2 3 7 6 5 -3 -2 8 -1 12 15 -6 -10 22 -14 -5 17 -13 -19 25 -9 -20 -11 26 -7 -17 27 -18 -23 -28
right_child=1 4 -4 10 11 24 -8 20 9 13 -12 16 14 -15 -16 19 23 18 21 -21 -22 28 -24 -25 -26 -27 29 -29 -30 -31
leaf_value=-0.057841691258520539 -0.059171941980959764 -0.063902361164193053 0.054013155009550742 -0.0590963700784976 -0.063889936450620785 0.055549228615853354 0.055393100782912486 -0.058332242017260331 -0.058597919507687161 -0.063272289265303636 -0.063543521496709249 -0.062785674644866257 0.040334023235295058 -0.069941163567232997 -0.058395427578850162 0.050752578689353095 -0.061595317617782475 -0.067231805913278125 -0.074394498078290516 -0.066522772499954738 0.055459682553854063 -0.090079990156973627 0.055845215653992086 -0.097399849098307026 -0.075060048026330858 -0.063921057550151775 -0.068096438314240199 0.054912180099525879 0.056546641970275674 0.053517785959000398
leaf_count=39817 4965 1629 58 334 347 29 23 192 5058 114 473 1113 139 338 603 231 320 211 90 136 20 39 33 55 76 81 55 20 77 806
internal_value=0 0.71305767967012568 -0.94595689832238861 -0.12403963645492087 0.89435653653497038 -0.17403042172041755 -0.87034778164619764 -1.0119117808287912 -1.0463058327624983 -0.55028565891650738 0.58897664652018455 0.96372580497812133 -0.88252247485524693 0.51024832983933954 0.049941516190264837 0.76839385577775354 0.9800124772121972 0.66291507887388823 0.98549651986275033 0.89913232215720462 0.65956009684634642 1.067836290413438 0.94099905859982391 1.043312249686698 0.97663790680013629 0.97019912699172739 1.0484678078907008 0.393775264097324 1.1093810330444591 1.066151949396057
internal_count=57482 11110 46372 6243 4867 1734 4988 46314 46102 6285 1255 3133 5800 485 742 782 2786 1530 417 448 212 206 147 1256 105 312 1201 340 116 861
shrinkage=0.05


Tree=27
num_leaves=31
num_cat=0
split_feature=29 17 31 9 42 24 2 47 44 23 25 48 23 25 15 26 3 23 47 43 54 5 24 66 42 69 24 37 19 19
split_gain=619857.25716010225 152290.00921086984 117003.78616008931 49271.560889833745 31648.463540807366 30547.268975957399 26431.27683353212 25918.456778664055 17789.050373369264 16461.24985604846 11341.97802916955 42258.10939404917 13996.935740471876 9240.3807316273087 7544.9460749415593 6824.2100687529892 20987.530486311443 5402.2287056947935 4518.0010999737788 4190.0675640146364 3699.7242510500946 3500.884365552949 3424.2651932131266 3364.5615492985817 2878.3975531602773 2852.7188228258165 2498.3570722359436 2402.2215572767891 2401.7424615521777 1472.1519695816824
threshold=0.032378910109400756 0.049806004390120513 0.1344486474990845 0.078176956623792662 0.020917988382279876 0.036002626642584808 0.10310357064008714 0.075555831193923964 0.021402897313237194 0.023532683029770855 0.041652938351035125 0.059843774884939201 0.014174023177474739 0.024844848550856117 0.048307627439498908 0.041626004502177245 0.091398607939481749 0.048129705712199218 0.078046914190053954 0.014684453606605532 0.11357426270842554 9.9999996826552254e-21 0.030562077648937706 0.071531470865011229 0.0020661760354414587 0.029638578183948997 0.061911450698971755 0.099035300314426436 0.047312080860137946 0.042708046734333045
decision_type=10 8 10 10 8 10 10 10 10 10 10 8 10 10 8 10 8 10 10 8 10 8 10 10 10 8 10 8 10 10
left_child=2 3 -1 7 5 6 -3 -2 14 -5 11 -6 -12 15 24 16 -13 -4 -9 -14 23 -18 27 25 26 -21 29 -17 -11 -7
right_child=1 4 17 9 10 8 -8 18 -10 28 12 13 19 -15 -16 22 21 -19 -20 20 -22 -23 -24 -25 -26 -27 -28 -29 -30 -31
leaf_value=-0.05739800055680272 -0.05769288619146351 -0.061224498612805982 -0.065658114967080849 -0.057950009015712511 -0.065879694721156762 -0.064096013772788632 0.053956176943621197 0.054913001417556145 -0.063323053048821562 0.056938779753624928 -0.091591832798546394 -0.079253549274126298 -0.075294019406378532 -0.10369888543493672 -0.06006787282662699 -0.060812359926342485 0.053285551969672933 0.056575758308121428 -0.058474458865995164 -0.067285949101072037 -0.10767798636809532 -0.069707560404835098 -0.08792622154448132 -0.07645600596117233 -0.060365247981448128 0.053240638530687459 -0.076637480754863638 0.056113277517215565 -0.062246866959721349 0.053001722562646715
leaf_count=43220 7677 2142 89 469 1048 29 24 22 420 20 158 331 60 88 184 49 36 21 116 44 24 63 42 41 64 705 33 70 47 146
internal_value=0 0.63178448657050257 -0.99776589796168891 -0.52961300728513927 0.84987106410038271 0.24375752765128397 -0.62864566736166272 -0.94519944822857527 0.71938250670492587 0.71765881961051226 0.95302192616469672 0.63385033261619061 1.0351691633675302 0.87840665115891314 0.90740030620809831 0.91818238844704736 0.3888888049327569 1.0438575109699293 0.79698370031499022 1.0493596762605293 1.0541495856144212 0.96231022830528723 1.0842438888985673 1.0575249889116294 0.98960705848838493 1.0613356445833257 1.0208840380834969 1.1046259983384821 1.0868892335269127 1.0445716877530407
internal_count=57482 14152 43330 8351 5801 3042 2166 7815 876 536 2759 1727 1032 679 456 591 430 110 138 874 814 99 161 790 272 749 208 119 67 175
shrinkage=0.05


Tree=28
num_leaves=31
num_cat=0
split_feature=27 29 31 26 45 33 29 10 13 8 41 3 29 29 22 24 47 22 40 13 49 69 69 54 57 6 8 43 25 20
split_gain=611708.5006582546 91971.64210383661 77629.912122643873 52446.894624108158 26761.525834713422 42254.472008386641 24489.594858890981 41347.764503030587 27673.767707754974 15522.300937484375 20484.746440825569 15191.961682047753 9712.507695889075 6655.9733621683263 24340.46035817494 7027.5249752849777 4847.9465791292605 4759.6907499967292 4359.2105231827009 4285.3398146229702 4128.788806219367 3767.7331875395612 3609.6071527136955 3421.3562387406128 3141.0850188098266 3108.8063074667007 2573.8111341857093 2453.475641992467 9426.208367490126 2204.124867849765
threshold=0.050970507785677917 0.033056138083338744 0.1344486474990845 0.10349705815315248 0.04201744124293328 0.058192837983369834 0.032378910109400756 0.23189395666122439 0.061092203482985503 0.010667272843420507 0.080979242920875563 1.0000000000000001e+300 0.053971743211150176 0.079680826514959349 0.077730983495712294 0.0090538263320922869 0.060122385621070869 9.9999996826552254e-21 0.4656424224376679 0.045979158952832229 0.098942846059799208 0.029638578183948997 0.11822607740759851 0.11357426270842554 0.0064339528325945148 1.0000000000000001e+300 0.015394002199172975 0.014945483766496183 0.020656608976423744 0.21510385721921924
decision_type=2 10 10 10 8 8 10 8 10 10 10 8 10 10 10 10 8 8 10 10 10 8 10 10 8 8 10 8 10 10
left_child=3 2 -2 6 5 -3 -1 8 -8 10 -7 16 17 14 -11 -15 -6 26 21 -4 29 -18 23 24 -23 27 -9 28 -26 -17
right_child=1 4 19 -5 11 9 7 12 -10 13 -12 -13 -14 15 -16 20 18 -19 -20 -21 -22 22 -24 -25 25 -27 -28 -29 -30 -31
leaf_value=-0.0569433538559889 -0.057271236188122014 -0.059379784201642173 -0.066292398863033147 0.052843928552454289 -0.061402314880046438 -0.063554422894945756 -0.057245314295917518 0.044743731636507203 0.050116477346908134 -0.065224077715517706 0.053961709113415905 -0.057075724307461356 -0.067498794110370755 -0.064358657694069399 0.055383768716044494 0.05311058399786496 -0.064529088870831988 -0.073775430694780195 -0.13071478576425688 0.0561183068669786 -0.090391409987153282 -0.098739258565745461 -0.079620419657163918 -0.10108646720381598 0.052582478290986917 -0.086416868697215751 -0.08304475113523424 0.052597776507352416 -0.080252173615079608 -0.080021294836812959
leaf_count=37548 5706 1696 70 58 103 941 8167 189 48 649 21 424 236 142 20 192 71 91 21 20 43 26 42 25 20 27 35 689 136 26
internal_value=0 0.69603214424880966 -0.36917665445867326 -0.93070551722213657 0.85605860167745707 0.43448149976926187 -0.99595131942565374 -0.55834131360908168 -0.94594670164004657 0.66301473121180365 -0.26887889250738128 0.9913877015622572 0.54825538419621744 0.82973232829405441 0.30573754305320261 0.97961588276585698 1.0114465174700549 0.752866360470273 1.0176002094202568 1.0499751413999319 1.0266610698584993 1.0210215299914043 1.0256719810203749 1.0296136308114572 1.0328240497049714 1.0358174818032504 0.84748892363648798 1.0390442996808131 0.49320604715559596 1.0492238646784706
internal_count=57482 11110 5796 46372 5314 3730 46314 8766 8215 2034 962 1584 551 1072 669 403 1160 315 1057 90 261 1036 965 923 898 872 224 845 156 218
shrinkage=0.05


Tree=29
num_leaves=31
num_cat=0
split_feature=27 29 36 9 13 42 32 48 27 17 15 3 48 45 3 33 4 9 55 10 8 42 54 26 1 42 69 69 6 17
split_gain=576211.02377152792 86311.485551606398 73492.615235051679 54650.325025218714 41880.651614245588 28007.867577296682 24641.434162174904 20381.038521800365 18378.339021820415 14754.207575090737 14135.078073547673 11615.28943303728 8625.5134822497712 7191.0388915409567 30295.425564642392 10389.051818301756 5716.5712860576314 4610.7448907690778 4463.7329447832308 3747.0122223075559 3393.6756124904787 3366.4601642238631 3334.5512109035044 3183.4885966570619 11236.294598979392 2979.2670525654248 2960.4952480323263 2955.9742792650941 2724.0255696176901 2675.5998948593115
threshold=0.050970507785677917 0.033056138083338744 0.14552025496959689 0.032370191067457206 0.059371082112193115 0.020917988382279876 0.11865711584687234 0.038527013733983047 0.066306386142969145 0.036372769623994834 0.048307627439498908 1.0000000000000001e+300 0.039420017972588546 0.04201744124293328 0.019941608421504501 0.058192837983369834 0.049477672204375274 0.0441648866981268 0.071585018187761321 0.09006132930517198 0.045234955847263343 0.031460860744118697 0.11357426270842554 0.021849375218153003 0.099637895822525038 0.0031566002871841197 0.029638578183948997 0.11822607740759851 1.0000000000000001e+300 0.036679396405816085
decision_type=2 10 10 10 8 8 8 10 2 8 8 8 10 8 10 8 8 10 8 10 10 10 10 10 8 10 8 10 8 10
left_child=3 2 -2 7 -5 6 -3 -1 -8 -6 18 13 -9 14 -7 -16 23 -17 -10 -4 25 -19 26 24 -11 -20 -15 28 -28 -25
right_child=1 5 19 4 9 11 8 12 10 16 -12 -13 -14 22 15 17 -18 21 20 -21 -22 -23 -24 29 -26 -27 27 -29 -30 -31
leaf_value=-0.056548217995069205 -0.056773795681254194 -0.057790659258108314 -0.073549172235927163 -0.057481724568279984 -0.05663214407726868 -0.064051905397099207 -0.058098134426568665 0.052204134675342073 -0.063604745891350331 -0.071951410620219175 -0.063042426496534951 -0.05663685094877801 -0.058455281847581232 -0.065347375093827251 -0.065130817429448554 -0.070847287143440157 -0.05836886890831014 -0.097281001192627142 0.047602965068433131 0.055561569225461661 -0.066346674370262634 0.05502018742990953 -0.099348217239533743 0.05381725118855956 0.050651023751514437 -0.060906702853883291 0.051641600069179144 -0.082392190743933794 -0.085720283321102431 -0.060751813454837669
leaf_count=41919 5733 1355 42 2991 618 793 727 32 93 203 359 357 303 53 212 70 174 28 269 21 62 50 25 37 36 73 733 31 24 59
internal_value=0 0.68803011969045347 -0.3664081187349561 -0.92322040563460861 -0.07480074397204356 0.84573763431903304 0.25151809545416465 -1.0893355770220869 0.51103936450746634 0.53890059992776995 0.70388683373543082 0.9501307252598149 0.42045290734917862 0.96465172396471821 0.61905383688967719 0.92568205199366227 0.75730025376323173 1.0298142136696791 0.84474383890882565 1.04868974766573 0.88898891662490809 1.0738694387479968 1.0192106662526628 0.84039286711794892 0.34598962726618082 0.92179498247107616 1.0225783218371449 1.026440991969622 1.0298061332253285 1.0283084515380765
internal_count=57482 11110 5796 46372 4118 5314 2938 42254 1583 1127 856 2376 335 2019 1153 360 509 148 497 63 404 78 866 335 239 342 841 788 757 96
shrinkage=0.05


Tree=30
num_leaves=31
num_cat=0
split_feature=27 22 47 9 16 47 19 9 48 16 58 45 2 40 16 26 14 44 26 9 48 38 41 35 40 9 1 47 44 3
split_gain=543018.63283235731 65843.638440130919 63841.349704354776 51795.256068349525 35369.191228095777 24151.120381457615 31017.175955469073 22289.676692912421 19306.435252435505 18740.911106405933 17830.025955788064 12379.384596711083 11654.148999364101 23740.04893658073 11411.358219983231 10163.358937450634 9177.5484675684529 8220.6397550284091 6132.4922205001021 12985.116585658645 6033.5009378422983 4551.1181902298122 27761.314750850841 7387.2636855660821 7078.1379118522818 4209.4535196651705 4189.9404014042084 3654.8919878038469 3255.7128369444108 3121.4305540216155
threshold=0.050970507785677917 0.021270424127578739 0.0092607801780104654 0.032370191067457206 0.026950460858643058 0.082232501357793822 0.025210903026163582 0.031613696366548545 0.038527013733983047 0.027191253378987316 0.018992966040968898 0.018474271520972255 0.045123463496565826 0.1086237318813801 1.0000000000000001e+300 0.012781415600329639 0.036721477285027511 0.04741328954696656 0.021849375218153003 0.034186743199825294 0.029871187172830108 0.032362524420022971 0.066491451114416136 0.015145677607506515 0.17067921906709674 0.038869231939315803 0.060044266283512122 0.062171712517738349 0.083751663565635695 1.0000000000000001e+300
