tree
num_class=1
num_tree_per_iteration=1
label_index=0
max_feature_idx=69
objective=binary sigmoid:1
feature_names=Column_0 Column_1 Column_2 Column_3 Column_4 Column_5 Column_6 Column_7 Column_8 Column_9 Column_10 Column_11 Column_12 Column_13 Column_14 Column_15 Column_16 Column_17 Column_18 Column_19 Column_20 Column_21 Column_22 Column_23 Column_24 Column_25 Column_26 Column_27 Column_28 Column_29 Column_30 Column_31 Column_32 Column_33 Column_34 Column_35 Column_36 Column_37 Column_38 Column_39 Column_40 Column_41 Column_42 Column_43 Column_44 Column_45 Column_46 Column_47 Column_48 Column_49 Column_50 Column_51 Column_52 Column_53 Column_54 Column_55 Column_56 Column_57 Column_58 Column_59 Column_60 Column_61 Column_62 Column_63 Column_64 Column_65 Column_66 Column_67 Column_68 Column_69
feature_infos=[0:0.66680675745010376] [0:0.52497917413711548] [0:0.34923231601715088] [0:0.27654263377189636] [0:0.45201823115348816] [0:0.34947708249092102] [0:0.40904244780540466] [0:0.41509950160980225] [0:0.37491452693939209] [0:0.4058150053024292] [0:0.67624419927597046] [0:0.35945999622344971] [0:0.30510613322257996] [0:0.25073727965354919] [0:0.38835105299949646] [0:0.5022321343421936] [0:0.3235335648059845] [0:0.329010009765625] [0:0.2505912184715271] [0:0.29832625389099121] [0:0.67648440599441528] [0:0.36727464199066162] [0:0.26568177342414856] [0:0.24032178521156311] [0:0.3108493983745575] [0:0.30497553944587708] [0:0.32026362419128418] [0:0.33005854487419128] [0:0.26172721385955811] [0:0.36274802684783936] [0:0.66680675745010376] [0:0.57300388813018799] [0:0.50347214937210083] [0:0.44452878832817078] [0:0.51041513681411743] [0:0.50669604539871216] [0:0.45303541421890259] [0:0.41487181186676025] [0:0.31448668241500854] [0:0.41272014379501343] [0:0.67933535575866699] [0:0.54823660850524902] [0:0.34280842542648315] [0:0.30868005752563477] [0:0.51041513681411743] [0:0.46140953898429871] [0:0.40367966890335083] [0:0.41367623209953308] [0:0.29747122526168823] [0:0.4122738242149353] [0:0.61403560638427734] [0:0.40396544337272644] [0:0.3361494243144989] [0:0.32304114103317261] [0:0.38083449006080627] [0:0.31330206990242004] [0:0.40242156386375427] [0:0.38380885124206543] [0:0.29593682289123535] [0:0.26578322052955627] [0:0.70684820413589478] [0:0.37799569964408875] [0:0.19495603442192078] [0:0.2172708660364151] [0:0.36740079522132874] [0:0.23237921297550201] [0:0.27823382616043091] [0:0.27843284606933594] [0.0012066186172887683:0.2301049679517746] [0:0.25205874443054199]

Tree=0
num_leaves=31
num_cat=0
split_feature=8 48 9 29 48 29 47 23 35 57 9 41 52 58 26 39 2 30 7 30 10 45 29 47 62 51 18 2 8 29
split_gain=9251282.7837940734 2775372.5173931941 1249077.959081958 329818.86372385547 369294.00799257233 228949.33416850585 248658.33532295376 204719.22937503643 154636.17912611581 148058.96887388721 158412.69956306645 144404.88595270121 125747.59272238961 118693.47168540792 118061.87194583789 115212.94963475049 95999.292925543472 85839.948894803412 78404.429739302577 82425.942928650038 77740.042776454706 75465.911062045372 66149.86496849425 62859.384664316371 60805.690236373805 59015.679988476331 56619.762569070794 67642.362132395516 52467.862358338316 48624.750521593211
threshold=0.030242477543652061 0.05270852334797383 0.063274078071117415 0.055535605177283294 0.034302467480301864 0.044407231733202941 1.0000000000000001e+300 0.067134726792573943 0.096282582730054869 0.019546841271221641 0.02720260247588158 0.12308096513152124 0.019155916757881645 0.12845674157142642 0.15043455362319949 0.0067713800817728051 0.081322714686393752 0.41104821860790258 0.015962412580847744 0.040771353989839561 0.23787607997655871 0.0020421650260686879 0.060761922970414169 0.017233601771295074 0.056691538542509086 0.0046697852667421111 0.038595391437411315 0.03564350679516793 0.033260202035307891 0.046692723408341415
decision_type=10 10 10 10 8 10 8 10 10 10 10 8 8 8 10 10 10 10 2 10 10 10 10 8 8 10 10 10 10 10
left_child=1 2 5 4 8 7 9 17 14 20 -11 -9 -3 -6 -2 18 -17 -1 19 -4 -7 -12 -8 -20 -5 26 27 -14 -15 -22
right_child=3 12 15 24 13 6 22 11 -10 10 21 -13 25 28 -16 16 -18 -19 23 -21 29 -23 -24 -25 -26 -27 -28 -29 -30 -31
leaf_value=-0.099059085885070453 -0.10000000000000001 -0.10000000000000001 -0.10000000000000001 -0.10000000000000001 -0.10000000000000001 -0.10000000000000001 -0.10000000000000001 -0.10000000000000001 0.081937042360564372 -0.10000000000000001 0.076487659261216492 0.073926348030407069 -0.10000000000000001 -0.10000000000000001 0.092801452907502843 -0.10000000000000001 0.093752409163170472 0.0264133612281931 -0.10000000000000001 0.093752409163170472 0.091237101452234015 -0.10000000000000001 0.087211757253377639 0.080919551202655426 0.092221683282095623 -0.10000000000000001 0.087548067362168344 0.093752409163170472 0.077853958287772251 -0.10000000000000001
leaf_count=124659 4562 679 962 280 682 11756 367 1347 119 1951 318 268 615 286 23 1515 20 344 338 20 28 486 165 884 4447 305 1324 20 2008 356
internal_value=0 -1.1906380928438025 -1.5673518493464809 1.6395070507274376 0.79180481743136444 -1.7804294156600535 -0.97628842037299124 -1.909040102148146 -0.90691950916981201 -1.3392814950585161 -0.15429404162621846 0.092140252949092033 1.4928294254964665 1.3744939322542855 -1.5443976421071597 0.8675932115768511 -0.88993049689498049 -1.9626415004679405 1.2059862475265053 -0.49898987414636964 -1.8148260213441283 0.98635950802526562 1.2679218286895311 1.4890709804598767 1.8346496994258645 1.599352701793902 1.6493460531511097 -0.073192095096619711 1.5011094167842467 0.42424839598738617
internal_count=161134 148727 145784 12407 7680 142045 15427 126618 4704 14895 2755 1615 2943 2976 4585 3739 1535 125003 2204 982 12140 804 532 1222 4727 2264 1959 635 2294 384
shrinkage=0.05


Tree=1
num_leaves=31
num_cat=0
split_feature=28 9 9 48 8 23 10 19 7 30 59 60 38 19 58 15 30 21 63 7 48 43 17 55 28 23 29 4 30 48
split_gain=9862673.0042352267 988028.43744929601 638020.46605536807 688065.0855652442 296977.03080752399 279173.72999237664 215718.86754997191 184669.99363732431 234684.65877845706 181647.12857087888 139965.71827906388 134415.39821386908 132875.51365657663 95088.150047616335 92061.016202653234 89947.560088155267 84703.938502656223 72393.037503560394 71469.866793463007 64472.730188507936 60185.840228357119 103084.73512688711 89024.820714493646 60059.610084630549 55220.133017937653 138499.01226435433 94071.222772525623 88389.878146933566 54540.379326977818 54177.183180129156
threshold=0.035081598907709129 0.037041034549474723 0.040157333016395576 0.047254675999283798 0.046922374516725547 0.067134726792573943 0.14275483042001727 0.10650012269616128 0.053865207359194762 0.36173199117183691 0.04463451728224755 0.31725417077541357 0.047376479953527458 0.024226399138569835 9.9999996826552254e-21 0.038201961666345603 0.22156449407339099 0.047049373388290412 0.031551977619528777 0.061609504744410522 0.071833461523056044 0.042849827557802207 0.025005962699651722 0.15723884105682376 0.050259532406926162 0.018816228024661544 0.060211230069398887 0.14356103539466861 0.4138637781143189 0.027630875818431381
decision_type=10 10 10 8 10 10 8 10 2 10 10 8 8 10 8 8 8 10 8 2 8 10 10 8 10 10 10 10 10 10
left_child=1 5 3 4 10 9 7 8 14 29 -2 -5 -8 -10 -3 19 -6 -12 -4 -7 21 22 -13 -23 25 27 -27 -20 -11 -1
right_child=2 6 18 11 16 15 12 -9 13 28 17 20 -14 -15 -16 -17 -18 -19 24 -21 -22 23 -24 -25 -26 26 -28 -29 -30 -31
leaf_value=-0.095308015755936851 -0.09572764953187067 0.055331348247934301 -0.09742379203653885 -0.098274322918994184 -0.098106361168885325 -0.096670055888999948 -0.096753400994821104 0.072640511098963009 0.085090399151781945 0.086656315056878472 -0.095982176483298931 0.089650340173727971 0.077880291205237803 -0.099110342202133744 -0.095998633978046199 -0.096906027330187314 0.067447853187849155 0.083383964493049051 -0.10003688409827116 0.077987193010884609 0.082666849001176032 -0.096453219499031254 -0.10001119423735544 0.083467411505223355 0.089166779634558352 -0.097998410885555665 0.081923840713722551 0.090074590544097999 -0.10104647861920885 -0.053378055893852694
leaf_count=121627 9721 161 365 818 602 417 827 328 146 71 549 20 672 589 7781 865 615 87 1314 253 1391 340 1366 284 3544 509 1217 20 333 4302
internal_value=0 -1.4995048839888554 1.3908951101706393 0.53906262352969492 -0.80725612907637645 -1.7696057337330704 0.10800109439906556 -0.49807056844592795 -0.94842598337415251 -1.8354257950967641 -1.5220505496823844 1.3286276062581526 1.195307535985459 0.99946123209958093 -1.6539549211282629 0.40748950544162676 0.92909554272662531 0.58176085488854268 1.6962046422532691 1.0782219672148761 1.4286382807745717 0.75221444606237586 -0.83141696332691972 1.4114622272454249 1.7070627945633738 1.3049831342718967 1.5344748132627217 -0.79706375305699773 0.94174429870772158 -1.8700135732281287
internal_count=161134 138372 22762 15793 11574 127868 10504 9005 8677 126333 10357 4219 1499 735 7942 1535 1217 636 6969 670 3401 2010 1386 624 6604 3060 1726 1334 404 125929
shrinkage=0.05


Tree=2
num_leaves=31
num_cat=0
split_feature=28 9 9 48 8 23 2 19 47 48 30 57 17 59 15 30 21 63 7 61 27 19 6 48 23 48 30 43 15 53
split_gain=8957729.2754630037 899005.83731725998 579982.89412602596 624289.09013115207 269759.1942595538 254077.59758043289 199851.6772711247 170741.20144918386 192167.70906711568 195156.81330430682 165275.17023528647 147490.1474923694 131235.67892614478 127261.83460649115 81589.833348500804 76742.414961119895 65690.771497232534 64890.40957491938 58452.354082155282 55935.156772340648 55639.833448075689 90430.238553784613 76143.375715130926 50001.845246080309 92626.472097773512 64270.067613736552 49387.03932750113 48444.731333310192 46607.381494936999 40799.37997947901
threshold=0.035081598907709129 0.037041034549474723 0.040157333016395576 0.047254675999283798 0.046922374516725547 0.067134726792573943 0.058975517749786384 0.10062915831804277 0.03535782732069493 0.0082872807979583758 0.36173199117183691 0.081927224993705763 0.01535606198012829 0.04463451728224755 0.038201961666345603 0.22156449407339099 0.047049373388290412 0.031551977619528777 0.061609504744410522 0.10974210500717164 0.075032528489828124 0.055301560088992126 0.12885015457868579 0.027630875818431381 9.9999996826552254e-21 0.031903561204671867 0.4138637781143189 9.9999996826552254e-21 0.086916644126176848 0.02630665805190802
decision_type=10 10 10 8 10 10 10 10 8 10 10 8 10 10 8 8 10 8 2 8 2 10 10 10 8 10 10 8 8 8
left_child=1 5 3 4 13 10 7 8 -3 12 23 -5 -10 -2 18 -6 -15 -4 -7 -13 21 22 -19 -1 25 -25 -12 -9 29 -23
right_child=2 6 17 11 15 14 -8 27 9 -11 26 19 -14 16 -16 -17 -18 20 -20 -21 -22 28 -24 24 -26 -27 -28 -29 -30 -31
leaf_value=-0.091189392581904935 -0.09155675541431868 -0.092336908781794541 -0.093035020712726638 -0.093634117481306803 -0.093626776322245753 -0.09237879737093059 0.07664234151501037 0.081012050281956668 -0.094381441690831416 -0.092817729328282583 0.082654188757139965 -0.095971449452652138 0.079042499120139081 -0.091779339744530952 -0.092584141815083232 0.06429589675185432 0.079578136890043616 -0.096375256771656787 0.074381676627507609 0.071375139848621066 0.084948653748706277 -0.10312245668870182 0.085903302456256991 0.064533048357825737 -0.09316281361550037 -0.093327707265848769 -0.096142363533595163 -0.099359312045981724 -0.10066567331834662 0.075783291196914446
leaf_count=121627 9721 6014 365 986 602 417 434 195 896 2358 71 345 331 549 865 615 87 1096 253 2888 3859 221 21 292 3382 628 333 276 269 1138
internal_value=0 -1.4339498737492757 1.3289971728021848 0.51480412861386904 -0.77128005645141373 -1.6926372880455782 0.10309670174717786 -0.32605829383301538 -0.73816042521751035 0.12621378550762705 -1.7557108540655275 1.2686159328098534 0.99977520109630957 -1.4553889116766656 0.38885008187820214 0.88579706077687947 0.55550174432357025 1.6210059857873149 1.0286298668563754 1.3842641775618316 1.6313861333376396 1.1715204134510737 -0.62557338358158932 -1.7888699069182596 -1.0169892577765838 0.34620253953328928 0.89782462264388296 1.3277953398710138 1.390887584687424 1.4578586613617903
internal_count=161134 138372 22762 15793 11574 127868 10504 10070 9599 3585 126333 4219 1227 10357 1535 1217 636 6969 670 3233 6604 2745 1117 125929 4302 920 404 471 1628 1359
shrinkage=0.05


Tree=3
num_leaves=31
num_cat=0
split_feature=28 9 9 48 49 23 6 21 30 48 57 29 15 63 29 53 19 35 27 48 47 48 22 15 16 29 12 30 48 23
split_gain=8166747.8436507639 855166.32583301701 488157.06241654046 728904.82185011706 231512.42412957965 227712.53577851877 219312.37820722809 189687.39751418869 148852.25042196363 119210.03952921406 110062.63752946747 101147.42288018856 74168.860202184369 72351.589574840851 70186.788539279252 67928.717248143861 63727.520217551239 66662.27243315072 48847.114629292861 47971.784014991368 102379.77916122542 47657.146345194778 103192.97249508748 103940.53160428452 50531.309512263229 45323.578923920468 45265.928325170338 45254.389901167386 43596.274098321795 84251.637622992537
threshold=0.036106241866946227 0.037041034549474723 0.032108275219798095 0.049260113388299949 9.9999996826552254e-21 0.067134726792573943 0.22317449748516086 0.073623541742563262 0.36173199117183691 0.0010504546226002278 0.081927224993705763 0.12995608150959018 0.038201961666345603 0.031551977619528777 0.031063906848430637 0.016998514533042911 0.022074607200920585 0.04931317642331124 0.089056365191936507 0.066167764365673079 0.085293222218751921 0.061993591487407691 0.028472749516367916 0.01042004255577922 9.9999996826552254e-21 0.0084007144905626791 0.016001706011593345 0.4138637781143189 0.027630875818431381 9.9999996826552254e-21
decision_type=10 10 10 8 10 10 8 10 10 8 8 10 8 8 10 10 8 10 2 8 10 8 8 8 8 10 10 10 10 8
left_child=1 5 3 6 9 8 -2 15 11 -3 -5 28 26 -4 -15 -6 17 -11 21 20 -12 22 23 24 -16 -8 -7 -10 -1 -30
right_child=2 4 13 10 7 12 25 -9 27 16 19 -13 -14 14 18 -17 -18 -19 -20 -21 -22 -23 -24 -25 -26 -27 -28 -29 29 -31
leaf_value=-0.087608948404081247 -0.089096928764323693 -0.090217934838991348 -0.089015728732046107 -0.089903925786685712 -0.089733110329312749 -0.094535017438279106 0.081000898042406566 0.069474655522384882 0.079104185877209465 -0.090190540638108774 0.063368662679021012 0.083546114055617238 -0.08885188938732487 -0.094027199876314888 0.068081953775802853 0.035340557001526232 0.062738203471463388 0.083452724363098349 0.082476009164537012 0.075880083484090144 -0.1001090541135993 0.081166680577185846 0.066257426474465073 -0.09967380439654383 -0.098837555321739545 -0.089589536855446877 0.066551811205322581 -0.091993065251873951 0.014076719366979996 -0.089351724990179612
leaf_count=122231 9699 1114 453 786 6514 337 100 214 71 1019 377 21 871 410 224 256 1638 20 3033 1409 861 563 1511 1432 369 314 345 336 968 3638
internal_value=0 -1.3563010814811649 1.2930841242547104 0.44637422174327362 0.11758024628122117 -1.6115814659842922 -1.2452633969494167 -0.89274350021959059 -1.6711397851721155 0.80048679613518747 1.25994721814752 -1.7024904301627519 0.36196325231539422 1.5349482649070381 1.5467189026135908 -1.5069014800770149 1.0290645022852491 -0.50494756789693707 1.5578034263544185 1.3605867772773386 0.47816251238544172 1.2686011884143182 0.96561522305733372 -0.23456220899982574 0.83740068792047506 1.1306597554700148 0.97294752375907723 0.85364176105003287 -1.7186325188811018 -1.0156405169398497
internal_count=161134 139593 21541 13546 10775 128818 10113 6984 127265 3791 3433 126858 1553 7995 7542 6770 2677 1039 7132 2647 1238 4099 3536 2025 593 414 682 407 126837 4606
shrinkage=0.05


Tree=4
num_leaves=31
num_cat=0
split_feature=8 22 9 29 49 29 46 19 19 19 27 38 17 12 58 12 23 40 56 43 47 40 62 17 1 20 17 33 27 13
split_gain=6369656.5413807994 1590344.1146754161 444647.94149988052 385918.47622280155 269567.76688471774 238385.58750693547 228886.42470115051 183472.15331410471 169908.52470181457 147038.00792165237 137138.34577493978 122208.4027910782 297785.37787887873 105513.96170558338 95809.958450437582 95415.362849421566 91742.966609659488 81069.46655481348 66737.090112143196 63128.547461277441 57414.945187379577 60115.833428274607 46430.265439800452 43712.810564003856 42915.164382630057 36451.395419017768 34057.749130330281 47300.203271118342 30495.438203511876 114817.57641038086
threshold=0.030242477543652061 0.049431957304477699 0.033829700201749809 0.046271948143839843 9.9999996826552254e-21 0.055535605177283294 0.15578874945640567 0.024048146791756157 0.035360982641577728 0.10334012284874917 0.056969668716192252 0.0052662235684692868 9.9999996826552254e-21 0.096435423940420165 0.12845674157142642 0.0094430190511047857 0.08542270585894586 0.006028801668435336 0.10246375575661661 0.032260449603199966 0.0077384063042700299 0.15299699455499652 0.056691538542509086 0.01535606198012829 0.086961291730403914 0.23100532591342929 0.070896115154027953 0.046357618644833572 0.10887017473578454 0.04569105617702008
decision_type=10 10 10 10 10 10 10 10 10 10 2 10 8 10 8 10 10 10 10 8 8 10 8 10 10 10 8 10 2 8
left_child=1 2 6 13 7 8 11 -4 10 -6 15 18 -13 -3 -12 -2 -14 -11 -1 -17 21 -9 -7 -22 -15 -8 27 -5 29 -16
right_child=5 3 4 26 9 22 25 20 -10 17 14 12 16 24 28 19 -18 -19 -20 -21 23 -23 -24 -25 -26 -27 -28 -29 -30 -31
leaf_value=-0.082014058593052455 -0.088999756853213957 -0.086016692458011371 -0.087271269510973623 -0.090085360537574835 -0.08768121022649733 -0.092137975001041275 -0.088368638152996948 -0.087181778751417596 -0.0928890335835066 0.068009889335692117 -0.089950710872702663 0.070926980223020492 -0.085121027031849275 -0.087200567097133821 0.061711695572259834 -0.086680454856548766 0.081839907518298893 -0.1012501528296991 0.037108235768651687 0.066613245405684654 -0.091381031034121138 0.080898646420106898 0.07778988640685916 0.071558093542147413 0.076061676020189317 0.084379702487662245 0.076168886684136627 0.080886511282436055 0.079394532409454044 -0.098398609788219585
leaf_count=119421 2073 4137 1940 523 8212 280 242 943 1746 201 734 301 9344 362 1045 612 20 649 237 235 293 21 4447 701 80 27 1053 20 371 864
internal_value=0 -1.0045632046407917 -1.3178184353442293 0.90323313926089688 -0.24400653089027441 1.3784665657499826 -1.49897494335741 0.60850266240907902 0.64937072613227897 -1.2023332853149036 0.83544417750432831 -1.5411146119169421 -0.77631085166401526 -1.0098632191188326 1.1519871413632699 -0.4423711674080742 -1.4961107314834108 0.51467950607725232 -1.6240541981883163 0.61732017370337611 1.0548646377855107 -0.42273863233723846 1.5470995702722525 1.3195848837274731 0.7942858925596743 1.2781752587405817 1.4407081484316584 0.034659838555041775 1.271468713844091 0.90243566391558083
internal_count=161134 148727 142552 6175 12960 12407 129592 3898 7680 9062 5934 129323 9665 4579 3014 2920 9364 850 119658 847 1958 964 4727 994 442 269 1596 543 2280 1909
shrinkage=0.05


Tree=5
num_leaves=31
num_cat=0
split_feature=28 9 9 48 8 49 23 21 30 9 40 48 59 27 28 7 53 30 19 32 57 24 63 48 23 48 27 19 24 30
split_gain=6851009.2149812672 720555.70980185876 415737.24486861797 476556.55792852642 211653.5367703682 195018.82850522577 192978.55192386266 160060.9602158629 133480.89131555613 116242.63389974867 129287.50340196569 100533.41449149174 85068.614416407421 84485.980538790522 81089.083520282715 61128.891030862957 58283.411300445558 57583.243034865445 52494.207911702688 56864.388955842805 50783.420556734316 48598.271328284725 47646.557408432476 42236.333400194533 79066.535321619784 59940.518583115612 41386.104038299527 72976.103925504169 62907.959229758504 39824.620612762461
threshold=0.036106241866946227 0.037041034549474723 0.040157333016395576 0.066167764365673079 0.023421516641974453 9.9999996826552254e-21 0.067134726792573943 0.073623541742563262 0.36173199117183691 0.028653481043875221 0.21860017627477649 0.0010504546226002278 0.12453541159629823 0.015366330742836 0.10535794869065286 0.061609504744410522 0.016998514533042911 0.57594045996665966 0.022074607200920585 0.050343556329607971 0.081927224993705763 0.013925230596214535 0.031551977619528777 0.027630875818431381 9.9999996826552254e-21 0.031903561204671867 0.076151918619871153 0.055301560088992126 0.10990126803517343 0.4138637781143189
decision_type=10 10 10 8 10 10 10 10 10 10 10 8 10 2 10 2 10 8 8 10 8 10 8 10 8 10 2 10 10 10
left_child=1 6 3 4 13 11 8 16 12 10 14 -3 23 -2 -6 -8 -7 -11 19 -13 -5 -17 -4 -1 25 -25 27 28 -24 -10
right_child=2 5 22 20 9 7 15 -9 29 17 -12 18 -14 -15 -16 21 -18 -19 -20 -21 -22 -23 26 24 -26 -27 -28 -29 -30 -31
leaf_value=-0.081760217220433917 0.078562707815222857 -0.084364139618330433 -0.083437647583397667 -0.08669016053140878 -0.087476583321217535 -0.083948755657486371 -0.08419101199894008 0.064195005200664693 0.076691139226073138 -0.089468150796937249 0.0636649369298639 -0.083997230114424601 0.076578863634668703 -0.083542067740987505 0.077214353109801126 0.065123698520339598 0.032701960680328705 0.071529705762278115 0.057719144904424272 0.078318692963260023 0.069790275818324393 -0.087349367648127188 -0.091646270715009789 0.063321252201349376 -0.083297477451054883 -0.087078411314902238 0.075911851546991149 0.062668072047357901 0.077609738293645369 -0.085409584259066862
leaf_count=122221 21 1114 347 370 3760 6514 834 214 71 420 249 1019 27 8044 23 293 256 365 1638 20 1559 426 1049 306 3642 662 3728 1585 21 336
internal_value=0 -1.2613077519850342 1.1981496654976966 0.48331913859062925 -0.43667243899591357 0.10542530221990697 -1.4999984354283626 -0.83449588640898953 -1.5559147126460198 0.28739975527912714 -0.48042734312002705 0.73724173519378733 -1.5863166636318582 -1.4408522082729134 -1.2901992034553704 0.33539163597503757 -1.4068610824232954 1.1824870769179345 0.94838550624808204 -0.46222871858440512 1.3428292580299124 0.87995176494833505 1.4483389697390188 -1.6014575834754021 -0.90354304998988044 0.35026840322212244 1.4572160053384926 1.0622168766003923 -0.59945148459583619 0.85015790132490821
internal_count=161134 139593 21541 14811 12882 10775 128818 6984 127265 4817 4032 3791 126858 8065 3783 1553 6770 785 2677 1039 1929 719 6730 126831 4610 968 6383 2655 1070 407
shrinkage=0.05


Tree=6
num_leaves=31
num_cat=0
split_feature=28 38 28 3 20 48 30 20 12 23 13 21 40 62 40 40 48 7 38 48 8 40 23 13 47 57 59 24 7 8
split_gain=6295712.02252727 508635.85958003206 309574.60238337005 328162.48378097638 260948.63574191229 212102.11836406315 165528.29067279212 150600.87172408143 136713.47450179854 125522.8220046456 98206.833663904064 88147.051173218948 87648.873201479058 75092.139063077979 70264.694606305231 63095.637288897546 57450.358590065967 137054.8352644078 93908.214353015996 74996.584949772325 65921.547295963799 51198.870029996775 47120.461004009238 44964.291124749769 43188.654863023112 37087.566915646894 37049.247392187594 32491.573999610457 31291.818366661668 154148.67787789085
threshold=0.036106241866946227 0.039251409471035011 0.051805201917886741 0.018862986937165264 0.16337819397449496 0.05270852334797383 0.2191467955708504 0.19045869261026385 0.075808610767126097 0.067134726792573943 0.058517221361398704 0.073623541742563262 0.012240514624863865 0.012818301096558573 0.010537498164922001 0.017682228237390522 0.075422056019306197 0.018688744865357879 0.038382463157176978 0.026509885676205162 0.045909587293863303 0.17031525820493701 0.022241677157580856 0.047381410375237472 0.038232252001762397 0.035493537783622749 0.015940081328153614 0.013115861918777229 0.045381667092442519 0.021010644733905796
decision_type=10 10 10 10 10 8 10 10 10 10 8 10 10 8 10 8 8 2 8 10 10 10 10 8 8 8 8 8 2 8
left_child=1 4 3 5 6 8 9 12 -2 28 -11 -9 24 -4 23 -3 17 20 19 -19 -15 -8 -5 -7 -6 -20 -24 -13 -1 -30
right_child=2 15 13 22 7 14 21 11 -10 10 -12 27 -14 16 -16 -17 -18 18 25 -21 -22 -23 26 -25 -26 -27 -28 -29 29 -31
leaf_value=-0.077030753835345647 -0.083748513091650614 -0.083797283262678102 -0.083320104202239564 -0.089578607442696301 -0.081958563061230449 0.070817018592036915 -0.07979815286951597 -0.081121617860614836 0.063007736788159338 0.070169894057947324 -0.08440144215005306 0.062227065440143239 -0.08027507161561119 -0.087490907701633966 -0.096569762582490268 0.07024190983780286 0.075923076341280357 0.04679850528027317 -0.1021041953702818 -0.099602310468042868 0.075390690630346674 0.066941904438865482 -0.083032708530607069 -0.10662756107324181 0.080610210241357061 0.06755888040829626 0.060551010761622406 -0.083430790937176799 0.042289728851929803 -0.080880272696574773
leaf_count=121657 8144 517 588 389 316 245 548 4532 146 137 1189 159 837 1655 556 399 1873 274 229 1093 20 214 329 262 99 3200 2538 345 586 8058
internal_value=0 -1.2209229947598803 1.1570210939188164 0.47962299040050427 -1.3199186587265259 -0.50745227508637236 -1.4226486701634213 -0.099801281653638302 -1.2640392565991041 -1.4629647964032066 0.2169733250707109 -1.0030216625687907 0.93151074667614264 1.3567793485339983 0.86295570112614928 1.1480220443583342 1.3708380979723664 1.1495445217784057 1.2454784903907317 -0.33480127351443789 -0.88059875342445981 0.71553734154661297 1.117731195706485 1.2085189474071902 1.389191228914205 1.3339140018175495 1.1689145000612611 0.64807059769005815 -1.5026103024571695 -1.0554253139966767
internal_count=161134 139593 21541 12609 138677 9353 132389 6288 8290 131627 1326 5036 1252 8932 1063 916 8344 6471 4796 1367 1675 762 3256 507 415 3429 2867 504 130301 8644
shrinkage=0.05


Tree=7
num_leaves=31
num_cat=0
split_feature=28 9 9 48 8 23 49 21 57 48 20 48 1 27 13 15 39 19 25 23 48 22 18 46 7 61 7 27 40 33
split_gain=5794199.1373799145 627284.74542247364 363694.71551907295 407572.20847716136 200400.94968778483 165944.0637909025 165287.59872591248 134974.24470955989 98789.505067977996 96545.784107591491 115509.83612857468 85765.641096645486 73589.707880030677 65136.770423443333 60307.290517491732 54374.046957599574 49716.121976520953 44730.724512501765 48880.516277024304 42200.576023990288 69989.33858518838 105054.20933854269 56828.910473619049 55182.795244558511 45953.948631124396 41976.294666562695 41366.941510423996 40493.730964546819 35951.18579836985 34257.53398205043
threshold=0.036106241866946227 0.037041034549474723 0.040157333016395576 0.047254675999283798 0.046922374516725547 0.067134726792573943 9.9999996826552254e-21 0.073623541742563262 0.081927224993705763 0.025993866845965389 0.16337819397449496 0.0010504546226002278 0.15001948922872546 0.010611744131892921 0.039169607684016235 0.038201961666345603 0.1052888259291649 0.022074607200920585 0.059841636568307884 0.0614386834204197 0.05270852334797383 0.018105624243617061 0.033334303647279746 0.074549514800310149 0.021845173090696338 0.10974210500717164 0.061609504744410522 0.010223116725683214 0.042869884520769126 0.031138779595494274
decision_type=10 10 10 8 10 10 10 10 8 10 10 8 10 2 8 8 10 8 10 10 8 8 10 8 2 8 2 2 10 10
left_child=1 5 3 4 12 9 11 16 -5 -1 13 -3 -2 27 -6 26 -8 18 -13 20 21 22 -4 24 -23 -10 -7 -11 -12 -26
right_child=2 6 19 8 14 15 7 -9 25 10 28 17 -14 -15 -16 -17 -18 -19 -20 -21 -22 23 -24 -25 29 -27 -28 -29 -30 -31
leaf_value=-0.076302566173066355 -0.078950065676709119 -0.079337747835172862 0.047006351916977836 -0.080681398709264135 -0.090106373755073452 -0.080716196930417067 -0.079399681357332719 0.059912384055199476 -0.088860849506915141 -0.081587500151755032 0.078831121826227535 -0.079314471707681078 0.074056336999872407 -0.079333545775106942 0.054724315325329377 -0.078924002093801682 0.02264028406426892 0.054121873763495178 0.073739050980793183 0.074798408696032839 0.070120376428102663 -0.093773392885082352 -0.099155455987166907 -0.11014054048952771 0.059223912039827825 0.059253580845533504 0.062204666215040297 0.10332268323397163 -0.080064205227482171 -0.11763679266324517
leaf_count=121707 9482 1114 131 980 575 426 6379 214 342 320 55 1018 21 4860 609 871 391 1638 21 1267 1455 362 1407 373 1538 2802 256 21 302 197
internal_value=0 -1.183815508426306 1.1187254894818672 0.4402590408737298 -0.70505384638848101 -1.4122910523559775 0.10746662243309511 -0.77237883890246839 1.048904317050154 -1.4655120405522966 -0.55552572587418181 0.6951787226912054 -1.3924029291750659 -1.1816647567995051 0.73196092617370034 0.31365861274087498 -1.3074454546796437 0.89130230920357867 -0.4348492523185632 1.3570967249478034 1.1744908591568142 0.74731915555076411 -1.0099752849332799 0.98634199550623691 1.0649349973323734 1.1460883347054367 0.84542723918357465 0.83540747950457328 1.1320245965926301 1.1376701652789989
internal_count=161134 139593 21541 14811 10687 128818 10775 6984 4124 127265 5558 3791 9503 5201 1184 1553 6770 2677 1039 6730 5463 4008 1538 2470 2097 3144 682 341 357 1735
shrinkage=0.05


Tree=8
num_leaves=31
num_cat=0
split_feature=28 9 9 48 4 23 49 21 9 30 30 48 48 40 47 53 41 7 47 23 48 12 48 46 7 43 61 14 21 43
split_gain=5344379.6839047661 583336.33126541087 337594.87663416425 379131.22530628578 171290.97986354661 154088.20588028058 151628.57203418997 124200.70160344664 122364.67762945133 171663.55171167813 112442.81146886665 78723.269316324688 68911.04359857738 79290.510947475734 61779.167269678204 53687.86676468901 48797.335620927552 47888.422412516615 41821.643557878495 40272.683816121891 65732.963223802508 114619.83199243103 51437.028381484764 50003.713465456094 43389.030144589196 38306.946749999086 37324.645477892656 35486.985731334964 34737.084157464313 35126.567106281291
threshold=0.036106241866946227 0.037041034549474723 0.040157333016395576 0.066167764365673079 0.085447825491428389 0.067134726792573943 9.9999996826552254e-21 0.073623541742563262 0.033829700201749809 0.043349068611860282 0.36173199117183691 0.0010504546226002278 0.027630875818431381 9.9999996826552254e-21 0.050086027011275298 0.016998514533042911 9.9999996826552254e-21 0.061609504744410522 0.038593569770455367 0.0614386834204197 0.05270852334797383 0.01840191520750523 0.0027884154114872222 0.074549514800310149 0.021845173090696338 0.042849827557802207 0.10974210500717164 0.0027412289055064325 0.14546402543783191 0.0016472450224682691
decision_type=10 10 10 8 10 10 10 10 10 10 10 8 10 10 10 10 8 2 10 10 8 8 10 8 2 8 8 10 8 10
left_child=1 5 3 4 8 10 11 15 9 -2 12 -3 -1 14 18 -8 -10 -7 -14 20 21 22 -4 24 -23 -6 -5 -19 29 -13
right_child=2 6 19 26 25 17 7 -9 16 -11 -12 28 13 -15 -16 -17 -18 27 -20 -21 -22 23 -24 -25 -26 -27 -28 -29 -30 -31
leaf_value=-0.07512095131221419 -0.079263319445257482 -0.077125124095754297 0.040651800224406266 -0.085441999649216102 -0.085857923143962914 -0.077039419097407344 -0.077116837819498185 0.057750966483807648 0.059036697221616578 0.05504756173981571 0.040979454637537556 0.05056300469711833 -0.078557452621944829 -0.077614251890686325 -0.077909219502789964 0.035386304083547572 -0.084725436315326488 0.057146353880504666 0.079308545592407659 0.072675539921428653 0.067997063069690972 -0.090015617858525257 -0.095728170922473099 -0.10435376740544747 0.056546178834690312 0.070841237275240374 0.062650438724878285 -0.080765706357652456 -0.087228760881449749 -0.087641566537295754
leaf_count=122245 11298 1114 150 311 303 834 6514 214 305 296 407 1984 368 3211 904 256 512 324 130 1267 1455 365 1542 363 1588 168 1618 395 357 336
internal_value=0 -1.1504001992203625 1.0838754898412555 0.42519325368352412 -0.4146163178951327 -1.3740678272131932 0.10353134059526237 -0.74774136443231787 -0.80265513416575585 -1.1648075360312826 -1.4261197631022018 0.66928031405631772 -1.455367532790933 -0.58870585521081575 0.35688760308274337 -1.2670242812616268 0.71028963084391705 0.30308738513512656 1.0913767617645072 1.3161904532547948 1.1363723710306193 0.72003682025972049 -1.0485508909376995 0.98270567163281664 1.0585299787122884 1.1739398780241768 1.2100044270563686 0.79190827077357318 0.85746308974603636 0.93405121429037352
internal_count=161134 139593 21541 14811 12882 128818 10775 6984 12411 11594 127265 3791 126858 4613 1402 6770 817 1553 498 6730 5463 4008 1692 2316 1953 471 1929 719 2677 2320
shrinkage=0.05


Tree=9
num_leaves=31
num_cat=0
split_feature=8 48 9 29 48 29 49 19 23 19 35 39 52 17 2 19 45 58 40 47 9 7 62 12 29 18 24 49 37 27
split_gain=4234977.1134206727 1284412.1684478556 587277.13276778022 176396.41066123918 183478.19259189587 109714.11214145832 156285.07390474406 101269.15439066209 95759.582028388977 82655.976526291255 81930.309472267923 80089.714076470409 75515.285185392713 70744.245806734543 61530.029986303562 56655.865252552299 54288.648435560768 52863.580688288668 51471.286215971559 46603.836674120088 43688.581712241408 36490.123690364097 36387.622463101987 32225.682405608939 110907.10965009496 31370.528321442951 30379.364410881099 28704.673658565407 26399.528613522794 22236.206062945072
threshold=0.030242477543652061 0.05270852334797383 0.063274078071117415 0.055535605177283294 0.034302467480301864 0.044407231733202941 0.1868899688124657 0.045248737558722503 0.067134726792573943 0.035360982641577728 0.096282582730054869 0.1052888259291649 0.019155916757881645 0.029258300550282005 0.15824961662292483 0.043533343821763999 0.026746012270450596 0.12845674157142642 0.21860017627477649 0.099988769739866271 0.039173206314444549 0.011578697711229326 0.056691538542509086 0.037427634000778205 9.9999996826552254e-21 0.012995362281799318 0.013744536787271501 0.02279955800622702 0.035724535584449775 0.075032528489828124
decision_type=10 10 10 10 8 10 8 10 10 10 10 10 8 8 10 10 10 8 10 8 10 2 8 8 10 8 10 10 10 2
left_child=1 2 5 4 10 8 7 15 -1 17 14 -9 -3 18 -2 -7 21 -6 -4 -10 -8 -15 -5 24 -14 -19 -21 -17 -23 -24
right_child=3 12 13 22 9 6 20 11 19 -11 -12 -13 23 16 -16 27 -18 25 -20 26 -22 28 29 -25 -26 -27 -28 -29 -30 -31
leaf_value=-0.071757774955725759 -0.078890224687133803 -0.087899823970237989 -0.078779418570843376 -0.088023282073067394 -0.08451605906730382 -0.077630953786056306 0.063058057749719676 -0.075933884232252016 -0.080013736615238126 -0.09761256483160452 0.060538893093506574 0.078858101903228228 0.065249550338354778 -0.082272362887821082 0.066423210142689301 0.073598402540404756 -0.094743452738341366 -0.08875712613672139 0.066182103599345732 0.054661357032601901 -0.097193599411673909 0.059994239636768192 0.05112711224356678 0.065425027397060576 -0.093482353195670331 0.059484677199588332 -0.076455053674246778 -0.074321321838033305 -0.083782837174421754 0.069128478488858849
leaf_count=125003 4551 679 1667 280 499 844 275 13563 939 677 119 27 209 361 34 99 481 263 43 273 327 945 1946 977 1078 1537 403 292 242 2501
internal_value=0 -0.86251115907195508 -1.1393088602801322 1.1716241396523739 0.52151711773477416 -1.2985365703490352 -0.71085885405079541 -1.0575435730108786 -1.395037056524961 0.95203636103095401 -0.73951061155112863 -1.3717791462493705 1.0589123034519545 0.60793649149945539 -1.2279042368817656 0.37134644034894132 0.89830013365007466 1.0649969138421325 -0.77400724520522179 0.041359709526019313 0.94121237177907235 1.0317072532230316 1.3243730826249882 1.1470683581994061 0.47007393097561462 1.1441100167591072 0.67010582955423248 1.0956120896774491 1.1297310970458201 1.33257371463819
internal_count=161134 148727 145784 12407 7680 142045 15427 14825 126618 2976 4704 13590 2943 3739 4585 1235 2029 2299 1710 1615 602 1548 4727 2264 1287 1800 676 391 1187 4447
shrinkage=0.05


Tree=10
num_leaves=31
num_cat=0
split_feature=8 48 9 29 48 29 49 19 41 19 35 39 52 17 38 26 30 19 30 45 58 51 29 62 7 30 18 12 29 3
split_gain=3917057.0938850003 1189800.9899070363 545876.8200291968 164678.84420964727 168805.590176839 102804.76211091131 144583.30727890873 94076.61033511869 93404.000679775141 75764.677375665604 75672.536126592837 74206.158007176768 69572.704854830925 65019.374328341124 58491.84539620392 58073.592291990964 52685.500238991808 52259.780013790711 50387.167824693242 49773.881194218149 48632.37728116638 41372.71354743652 40990.850131745676 33613.314002974425 33546.615075476235 30783.43550925286 28837.478811068053 27815.93725515058 95122.802739563573 26824.033969442851
threshold=0.030242477543652061 0.05270852334797383 0.063274078071117415 0.055535605177283294 0.034302467480301864 0.044407231733202941 0.1868899688124657 0.045248737558722503 0.12308096513152124 0.035360982641577728 0.096282582730054869 0.1052888259291649 0.019155916757881645 0.029258300550282005 0.058654725551605232 0.15043455362319949 0.41104821860790258 0.043533343821763999 0.22156449407339099 0.026746012270450596 0.12845674157142642 0.0046697852667421111 0.060761922970414169 0.056691538542509086 0.011578697711229326 0.42096169292926794 0.012995362281799318 0.037427634000778205 9.9999996826552254e-21 0.055297615006566055
decision_type=10 10 10 10 8 10 8 10 10 10 10 10 8 8 10 10 10 10 10 10 8 10 10 8 2 10 8 8 10 10
left_child=1 2 5 4 10 8 7 17 14 20 15 -9 -3 18 16 -2 -1 -7 -4 24 -6 27 -8 -5 -15 -18 -22 28 -14 -10
right_child=3 12 13 23 9 6 22 11 29 -11 -12 -13 21 19 -16 -17 25 -19 -20 -21 26 -23 -24 -25 -26 -27 -28 -29 -30 -31
leaf_value=-0.070995819866921356 -0.076762448371619926 -0.085005360878256803 -0.076862737182934543 -0.085099980476336268 -0.081914373059967072 -0.07563209692225574 -0.086056472176327947 -0.07409231744427168 -0.073619578675440792 -0.093585506966273047 0.058534788010773546 0.075964320974388211 0.06361524400282921 -0.079825727696435242 0.060925014295316028 0.067118801816657234 0.082262891335075611 0.05299032738795089 0.069593166801545467 -0.091101318545254925 -0.08574675868557198 -0.099356004858415309 0.062209201182770894 0.064815993917190493 0.054585679839887984 -0.07860587266448088 0.057554139241573668 0.065538316503018779 -0.089877557693490359 0.0663578311541521
leaf_count=125782 4562 679 1687 280 499 844 378 13563 341 677 119 27 201 361 65 23 26 391 23 481 263 305 224 4447 1187 331 1537 778 980 73
internal_value=0 -0.84041632950511758 -1.1107911473666818 1.1387528859619442 0.50498473233593255 -1.2669076941571333 -0.69158480114200993 -1.0302393994039627 -1.3616999384769404 0.9208695561800625 -0.71866020243043993 -1.3377353241214478 1.0271537575809582 0.58797711948013709 -1.3890962304730825 -1.1946661693367102 -1.4031365019666482 0.35977764851961058 -0.75233762804047288 0.8679992929805852 1.0304585032180809 1.1127611527298875 0.90948044137148465 1.288322493976594 0.9971212345029058 0.5727161961617584 1.1069548834620562 1.1589557040256158 0.51532395943466902 0.74490303912922129
internal_count=161134 148727 145784 12407 7680 142045 15427 14825 126618 2976 4704 13590 2943 3739 126204 4585 126139 1235 1710 2029 2299 2264 602 4727 1548 357 1800 1959 1181 414
shrinkage=0.05


Tree=11
num_leaves=31
num_cat=0
split_feature=28 38 29 8 49 29 49 29 15 18 41 13 22 2 47 30 63 49 42 43 37 28 28 28 23 22 18 2 47 2
split_gain=4243248.7050467208 359712.65455676708 246336.24019700545 233665.03068185519 214192.21523363062 209266.81447292957 115322.6754073115 121030.3079931586 104715.12386794359 95054.527464983781 85448.311636196449 67384.174049781665 58258.405045747924 55363.35097000192 50289.358179051575 47753.853995736223 46146.632561425213 43641.203316402811 43259.392562097484 41241.922326304164 38848.338218039251 38635.339228192126 36366.689970164094 51999.235231197235 30693.481830697787 30064.422842040804 36655.456963062505 29862.061375148594 47564.682833311672 37282.295849387883
threshold=0.036106241866946227 0.039251409471035011 0.076277118176221861 0.045909587293863303 9.9999996826552254e-21 0.043613672256469734 0.1868899688124657 0.10522055998444559 0.062848705798387541 0.052680911496281631 0.12308096513152124 0.024211217649281028 9.9999996826552254e-21 0.078626982867717757 0.051682429388165481 0.41104821860790258 0.031551977619528777 0.04344450309872628 0.047504521906375892 0.040331717580556876 0.026854572817683223 0.039540247991681106 0.032508837059140212 0.033123768866062171 0.013368267565965654 0.025633407756686214 0.034920886158943183 0.019014425575733188 0.030092452652752403 0.010274761356413366
decision_type=10 10 10 10 10 10 8 10 10 10 10 8 8 8 10 10 8 10 10 10 8 10 10 10 10 10 8 8 8 10
left_child=1 5 3 4 9 10 7 13 -6 12 15 -8 21 19 -15 22 -4 -9 -10 -7 -5 -2 -1 -24 -21 26 -3 28 -18 -30
right_child=2 25 16 20 8 6 11 17 18 -11 -12 -13 -14 14 -16 -17 27 -19 -20 24 -22 -23 23 -25 -26 -27 -28 -29 29 -31
leaf_value=-0.068653980149275179 0.047904819311774975 -0.078258231522013541 -0.075275583759325901 -0.089273706528870983 -0.079636413855681057 -0.072562565588122005 0.057385644864351638 0.066903849309706637 -0.087214547682732069 0.055286006234067479 0.03721932211907987 -0.091079075681789523 -0.079131786970896442 -0.073549590871140838 0.066489933235018978 0.028617775050741662 -0.10078470984983041 -0.078821869821773499 0.054616780453075636 0.07723530739505928 0.054192112681077459 -0.081233990757355906 0.033946654524196117 -0.071948386789375401 -0.074077696129767667 0.066346993465162443 0.069564692852606233 0.066365339864948747 0.053229612100730551 -0.11030022191394442
leaf_count=120703 365 683 484 360 7968 11612 444 136 525 1004 398 625 2020 838 82 351 387 465 199 20 2714 579 486 2074 443 213 20 2193 2484 259
internal_value=0 -1.0672094199677014 0.99587091293734287 0.49854961392985248 -0.13697237464741999 -1.1570163920871883 -0.37854594039098499 -0.72564446761896151 -1.0952226902446338 0.58210236729270237 -1.3024550853953842 0.7633669446909862 -0.44012152514024661 -1.0634581226963169 0.25607678344328433 -1.3292608458792412 1.2358400295094698 0.88001345289515265 0.48422036322266421 -1.2910531352399131 1.045830751714776 0.40756485115678909 -1.3455968208784805 -0.47740134332622819 0.34632312108766328 1.0100259420753588 -0.17713317476461218 1.2479304356523311 0.97653319950134732 1.0272092248002982
internal_count=161134 139593 21541 15734 12660 138677 14665 13596 8692 3968 124012 1069 2964 12995 920 123614 5807 601 724 12075 3074 944 123263 2560 463 916 703 5323 3130 2743
shrinkage=0.05


Tree=12
num_leaves=31
num_cat=0
split_feature=28 9 9 48 2 2 19 48 25 19 7 41 22 48 30 59 16 57 34 38 9 30 59 18 20 40 29 3 61 24
split_gain=3934192.7684180597 444712.67702917522 260952.09543864639 313718.76745148376 201300.49054613715 105683.38604086354 102172.63594236247 100012.30706957215 98588.992108580424 89638.372278280192 96686.231394000293 85874.194517477416 73672.387943365422 73328.81976548706 61812.263227193238 67881.521082817228 60112.87178917948 53300.670356454066 52724.791043202727 52138.725551063661 48391.863537114492 47831.728734252043 40538.916573176713 39915.795915904106 36770.357897845992 36543.275016776934 35330.619167261757 31616.60637735638 29449.404521653429 28786.988038777228
threshold=0.036106241866946227 0.037041034549474723 0.059469757601618774 0.071833461523056044 0.0458577647805214 0.054537186399102218 0.087761677801609053 0.025993866845965389 9.9999996826552254e-21 0.10062915831804277 0.045381667092442519 0.12308096513152124 0.041605420410633094 0.0018116257269866767 0.043349068611860282 0.042172605171799667 0.010570454876869919 0.059777205809950835 0.099128201603889479 0.058654725551605232 0.037349402904510505 0.41104821860790258 0.045053044334054 0.042968148365616805 0.022991369478404525 0.018286002799868587 0.10522055998444559 0.029172164388000969 0.10974210500717164 0.025442376732826236
decision_type=10 10 10 8 10 10 10 10 8 10 2 10 8 10 10 10 8 10 8 10 10 10 10 8 10 10 10 10 8 8
left_child=1 7 3 4 6 9 14 11 16 10 17 19 -8 -12 15 -2 -9 20 -6 21 -3 -1 -17 -5 -16 -18 -14 -7 -25 -20
right_child=2 5 -4 23 18 27 12 8 -10 -11 13 -13 26 -15 24 22 25 -19 29 -21 -22 -23 -24 28 -26 -27 -28 -29 -30 -31
leaf_value=-0.068971005050962764 -0.076194487023018925 0.047497509102833776 0.062095353958499314 -0.12145357764020843 -0.087940933645779096 -0.085011525491783591 -0.082719380985935578 -0.072104433792293657 -0.070973195643352083 0.050623025573640769 0.057191773847067653 0.038026479890205765 0.059891167437862713 -0.078467008162636298 0.067964772185221442 0.061119820955027694 0.06655473768624362 0.066162579183249901 -0.089636614522949395 0.05876981890515956 -0.073798074921787485 0.026824759219941499 -0.07784813827755678 -0.084551531963429849 -0.088942191875801269 -0.071650099985479096 -0.096734632219532796 0.063794433726981084 0.060412088429810343 0.057503806012223983
leaf_count=122417 11223 127 4144 221 531 279 1057 1010 3816 487 341 367 264 1010 36 95 353 47 257 60 8204 356 620 268 364 439 287 280 1469 705
internal_value=0 -1.0431339303607454 0.96893686304056392 0.49489959785816656 -0.15525314738398163 0.090703790068741477 -0.67168415382415014 -1.2522524363488028 -0.31853112636612024 -0.2593619478268519 -0.58241200952984773 -1.3198935874790865 0.4076885826333656 0.50722636433281654 -1.0530910158616107 -1.2576782806637938 0.51865640764356524 -1.0924283437272975 0.89888792531739714 -1.3478486097282631 -1.2786108969258725 -1.3620309100106673 0.30546367844774241 1.1496891573661363 0.59444398057028192 1.0232263812742919 0.95903121791583157 1.1243938993378049 1.1800675428955547 1.0620501458199998
internal_count=161134 139593 21541 17397 15439 10775 13946 128818 5618 10216 9729 123200 1608 1351 12338 11938 1802 8378 1493 122833 8331 122773 715 1958 400 792 551 559 1737 962
shrinkage=0.05


Tree=13
num_leaves=31
num_cat=0
split_feature=28 9 9 48 24 49 41 48 15 1 41 41 3 48 48 36 26 33 53 18 19 35 31 26 19 8 50 8 60 37
split_gain=3655359.0269974344 416966.31287355861 243266.44259091653 290474.0569884748 171353.96600737225 110141.15664221092 107522.71558779529 94405.845311035868 88396.210332600458 87417.252804054617 80606.733234471176 77307.475878190104 66702.649282025974 60420.939769085322 57479.479522116686 55747.01121549878 52835.576251221857 42791.681640236638 39936.466268237098 36414.587913410447 30654.520006297666 34294.85330521172 30374.40841857779 27795.528842971544 26944.624190901632 25805.461621353526 25718.656930139521 24656.290936819983 23423.020742505265 23164.410000210708
threshold=0.036106241866946227 0.037041034549474723 0.059469757601618774 0.071833461523056044 0.087648492306470885 9.9999996826552254e-21 9.9999996826552254e-21 0.025993866845965389 9.9999996826552254e-21 0.082800801843404784 0.12308096513152124 0.098979312926530852 0.022421031259000305 0.05270852334797383 0.0010504546226002278 1.0000000000000001e+300 0.010980771854519846 0.12481679022312166 0.016998514533042911 0.042968148365616805 0.022074607200920585 0.04931317642331124 0.083909410983324065 1.0000000000000001e+300 0.10062915831804277 0.0027242336655035619 0.23219843208789828 0.023421516641974453 0.31725417077541357 0.022530836984515194
decision_type=10 10 10 8 10 10 8 10 8 10 10 10 8 10 8 8 8 10 10 8 8 10 8 8 10 10 10 10 8 8
left_child=1 7 3 4 6 14 12 10 16 18 17 -8 13 -2 -3 -14 -9 -1 -7 -5 21 -16 -6 28 -13 -18 -4 -17 -21 -15
right_child=2 5 26 19 22 9 11 8 -10 -11 -12 24 15 29 20 27 25 -19 -20 23 -22 -23 -24 -25 -26 -27 -28 -29 -30 -31
leaf_value=-0.066829710523079081 -0.072610550033799834 -0.07095036350202473 0.060855238195269272 -0.11365331892039476 -0.087105629570994228 -0.070580857854328827 -0.076838037600628475 -0.070643464037581344 -0.069495350489996374 0.048864246186719085 0.036418848565832655 -0.087208697338594876 -0.080866884874707695 0.062152529516041582 -0.071576588112971684 -0.07325766933991705 -0.071243779437162799 0.04309461755267982 0.03036547356998506 -0.084629165185480248 0.045857301296026616 0.064732234235961805 0.059974428460865536 -0.12067742513014641 0.064939572550229224 0.058041046734991941 -0.14421458421232144 0.050268068425499746 0.059732822354560039 -0.09119458988347437
leaf_count=122699 3450 1114 4025 221 283 6486 8828 997 3744 249 367 279 798 63 1019 352 347 134 249 217 1638 20 395 166 35 530 119 740 1354 216
internal_value=0 -1.0215199804023298 0.94482126538562294 0.48182304817537497 -0.15118795403401186 0.088040105747100514 -0.53818125064190314 -1.2278770870158791 -0.31024735613952265 -0.68357317884711333 -1.2948776467467085 -1.2158643083384502 0.039876822944356224 -0.7829264376421029 0.58787705157623582 0.58716799880301251 0.47334205238042254 -1.3227179215692437 -1.1524017308255821 1.119589671910745 0.75313736532600284 -0.41413505501901193 1.0750201613773889 1.1495371022700007 0.69083896902666864 0.93600201705005848 1.2120680297207602 0.8714414016949843 1.1714949331869151 0.74281201259163487
internal_count=161134 139593 21541 17397 15439 10775 14761 128818 5618 6984 123200 9142 5619 3729 3791 1890 1874 122833 6735 1958 2677 1039 678 1737 314 877 4144 1092 1571 279
shrinkage=0.05


Tree=14
num_leaves=31
num_cat=0
split_feature=28 9 9 48 2 23 49 19 30 19 43 47 48 23 48 40 48 32 47 15 10 34 47 30 6 19 5 7 19 19
split_gain=3398206.7666424317 391869.35309880297 226994.18242287613 269288.20804415748 173892.64286551793 108107.76823529834 101641.99854044741 88958.98734463226 85691.798940992448 79912.232634756452 71838.866815318674 63560.646599382861 67744.603674021258 61188.593483532997 55070.433145517483 59897.672674891066 53083.17175479763 46805.557722132537 46758.245229975095 36171.657416424372 34748.955106888301 32526.735402770282 30855.728464902095 28657.659769483231 28575.278226217837 27989.468557184722 32099.906077583084 25994.699915411085 24579.924660570381 23816.166109668535
threshold=0.036106241866946227 0.037041034549474723 0.059469757601618774 0.071833461523056044 0.0458577647805214 0.067134726792573943 9.9999996826552254e-21 0.087761677801609053 0.36173199117183691 0.10062915831804277 0.040331717580556876 0.035741224884986884 0.019129339605569843 0.042250765487551696 0.027630875818431381 9.9999996826552254e-21 0.0010504546226002278 0.11810361221432687 0.050086027011275298 0.038201961666345603 9.9999996826552254e-21 0.099128201603889479 0.038593569770455367 0.4138637781143189 1.0000000000000001e+300 0.022074607200920585 0.084919378161430373 0.061609504744410522 0.10650012269616128 0.11366552114486696
decision_type=10 10 10 8 10 10 10 10 10 10 8 10 10 8 10 10 8 10 10 8 10 8 10 10 8 8 10 2 10 10
left_child=1 5 3 4 7 8 16 11 14 17 -9 12 -2 -6 -1 18 -3 -8 22 27 -14 -15 -16 -10 -5 26 -18 -7 -12 -11
right_child=2 6 -4 24 13 19 9 10 23 29 28 -13 20 21 15 -17 25 -19 -20 -21 -22 -23 -24 -25 -26 -27 -28 -29 -30 -31
leaf_value=-0.066511653047586716 -0.072290825563437855 -0.069568302516585689 0.059202194277909084 0.055787976123156224 -0.084518134305821571 -0.069598755604021817 -0.069752847768489598 -0.08033615664919691 0.068451431365023505 0.058245018397865646 0.057786305930572726 -0.073995585308848311 0.05256375094968771 -0.086117539585166644 -0.070309894594306518 -0.068781979758716513 -0.070219599977248331 0.063694770954848046 -0.070082330141643126 -0.069927095918383975 -0.071237805628185782 0.058406302413131751 0.073888164712954521 -0.07527035652708515 -0.11376584496579925 0.044206591134296619 0.063553146284604387 0.053062383487196413 -0.088894514393969518 -0.082190334129422921
leaf_count=122245 2308 1114 4144 1770 681 426 6540 1120 71 170 255 9115 316 311 368 3211 1019 20 904 871 599 501 130 336 188 1638 20 256 233 254
internal_value=0 -1.0005251489693894 0.92215992039755701 0.46952476082965322 -0.1473671462917934 -1.2046813545243702 0.085191535549656056 -0.64077613354173224 -1.2536089257864838 -0.66669967866162561 0.38810473909845511 -1.0072003563027743 -0.23442048450463623 0.85282141005221601 -1.2831303739215181 -0.45967864152248356 0.56829517866248502 -1.1607081935669601 0.39155458525831804 0.28013056134636122 0.61241047575373575 1.0595149651959757 1.0464200355244802 0.76127465526140037 1.0914750584463242 0.72729920795758984 -0.40528859413080759 0.73403933726001125 0.96926845077544455 0.8111347952714032
internal_count=161134 139593 21541 17397 15439 128818 10775 13946 127265 6984 1608 12338 3223 1493 126858 4613 3791 6560 1402 1553 915 812 498 407 1958 2677 1039 682 488 424
shrinkage=0.05


Tree=15
num_leaves=31
num_cat=0
split_feature=27 9 48 8 30 29 49 12 41 47 9 48 9 17 5 18 17 2 9 26 47 19 15 11 15 2 46 34 48 48
split_gain=2720477.9647877626 725575.01260612998 255183.74975663866 235050.00103783421 178249.17868549423 138444.20713804441 130111.69378574871 96818.561488489533 87842.084970517462 73223.526327473184 64678.819837022573 97971.613200098334 105262.08991034806 60274.296311251775 58299.713140822278 49502.150402016327 47829.907299659579 46194.838260342171 71894.432211229243 44707.078166212261 42253.49567325454 37464.409940832913 33415.749458238744 33198.869100299904 33132.991084702342 28511.970206332069 28397.798814575493 24385.494287377514 34733.372515907111 19870.781611290295
threshold=0.075032528489828124 0.034343592822551734 0.056795673444867141 0.0026009574066847567 0.22156449407339099 0.10298529267311098 0.011910394299775364 0.096435423940420165 0.071152038872241988 0.032953098416328437 0.059469757601618774 0.075422056019306197 0.017614169046282772 0.040417067706584937 0.016346356831490997 0.066092018038034453 0.01535606198012829 0.04621913097798825 0.034085771068930633 0.17102546244859698 0.056676786392927177 0.090830314904451384 0.075399424880743041 0.028127983212471012 0.01042004255577922 0.057853745296597488 0.040489181876182563 0.34834747016429907 0.008897142484784128 0.027630875818431381
decision_type=2 10 10 10 10 10 10 10 10 8 10 8 10 10 10 10 8 8 10 10 10 10 8 10 10 10 8 8 8 10
left_child=1 2 4 7 29 6 9 -2 15 14 11 12 19 -6 -3 -8 -11 18 23 -5 -4 -22 -7 -14 -16 -10 -19 28 -18 -1
right_child=3 5 20 10 13 22 8 -9 25 16 -12 -13 17 -15 24 -17 27 26 -20 -21 21 -23 -24 -25 -26 -27 -28 -29 -30 -31
leaf_value=-0.065685244564482631 -0.069012418024935726 -0.073697750731541056 0.062035433955406463 -0.075247630110770958 -0.070329146512237914 0.0559254267276207 -0.074042641752351743 0.051365365534503743 -0.087178931765778275 -0.077911741430265413 0.060102319286985395 0.05693704843986476 -0.073593036137909559 0.060174043942860439 0.052664751559982848 0.06149555590271101 0.065445644784697124 0.059770983908063596 -0.093854906693217582 0.061383211003948307 -0.085589152912903338 0.062591694503377523 -0.10411960489345583 0.047417010780005979 -0.082991538728922148 0.063700353427147235 -0.10842496970227514 0.056221614701734215 -0.086261210924035381 -0.042329807401638969
leaf_count=121054 5228 2608 185 3341 1002 931 8295 246 292 639 2661 1167 563 289 208 23 20 299 1177 22 866 20 246 466 448 40 196 695 577 7330
internal_value=0 -0.78145562512190248 -1.1234249045154177 0.97343756158236727 -1.2130263619794799 0.28686776000747377 -0.089173741588429931 -0.68361997553501597 -0.87984795023588891 0.42060876869288027 1.0625911955304628 0.75540410593831642 0.21325296159273041 0.62161873509251464 -0.51263828465994354 -1.288181603063296 0.82038642393351247 0.62570948655284586 -0.03713022448313081 -1.0937745374499155 0.76958097557773641 -0.54946416734551606 1.0513522418901382 0.59776062859730283 0.51771012287169216 0.82021344862687795 1.0952675108952439 0.96673224318127327 -0.22790549418615896 -1.2806617897526902
internal_count=161134 145768 130746 15366 129675 15022 13845 5474 8650 5195 9892 7231 6064 1291 3264 8318 1931 2701 2206 3363 1071 886 1177 1029 656 332 495 1292 597 128384
shrinkage=0.05


Tree=16
num_leaves=31
num_cat=0
split_feature=28 9 9 48 2 23 49 30 21 29 43 30 23 48 40 48 1 16 18 15 39 25 34 20 61 30 17 2 8 29
split_gain=2943416.3402160755 346551.46069856989 199919.87798015424 232560.74045525998 150577.69243397808 95630.115913877496 87660.44414299159 75654.082957357867 72697.906718953833 65742.521373755299 92105.767731373708 54195.440876442241 53881.488734142404 52636.643542935373 56258.083771587655 45912.002547112097 44848.802954590879 39041.669839491158 32054.096935336711 31793.96678476836 29990.385557324073 28729.990439043646 28724.057513103704 25970.19423796433 25301.9247394657 25219.001455492165 24621.376669482372 41665.746755149783 42444.203264135678 24956.650334277776
threshold=0.036106241866946227 0.037041034549474723 0.059469757601618774 0.071833461523056044 0.0458577647805214 0.067134726792573943 9.9999996826552254e-21 0.36173199117183691 0.073623541742563262 0.071664463728666319 0.040331717580556876 0.043349068611860282 0.042250765487551696 0.027630875818431381 9.9999996826552254e-21 0.0010504546226002278 0.20992541313171389 0.010570454876869919 0.042968148365616805 0.038201961666345603 0.1052888259291649 9.9999996826552254e-21 0.099128201603889479 0.022991369478404525 0.10974210500717164 0.4138637781143189 0.021638277918100361 0.079903420060873045 9.9999996826552254e-21 0.06632785871624948
decision_type=10 10 10 8 10 10 10 10 10 10 8 10 8 10 10 8 10 10 8 8 10 8 8 10 8 10 10 10 10 10
left_child=1 5 3 4 9 7 15 13 20 11 -11 16 -6 -1 17 -3 -2 -15 -5 -7 -8 -19 -14 -13 -20 -9 27 28 29 -17
right_child=2 6 -4 18 12 19 8 25 -10 10 -12 23 22 14 -16 26 -18 21 24 -21 -22 -23 -24 -25 -26 -27 -28 -29 -30 -31
leaf_value=-0.064471717420180583 -0.069866526228207451 -0.067365880711232326 0.056661258166691736 -0.10660446446068904 -0.081007093878344205 0.034963111273945253 -0.067208313884947704 0.064874153048732966 0.046927531381556108 -0.07640381052553831 0.040446817500788025 0.062855644544059702 -0.082473409787369278 -0.068352094988955545 -0.066812882429876916 -0.075629115921554926 0.061525636301767786 0.07023450106052101 -0.082074045894348691 -0.067795744065893032 0.018138007056473185 -0.067107925590248585 0.055831482015491762 -0.078420477338514899 0.054804177808579574 -0.072661799528556476 0.049786061258799946 0.065171052690007808 -0.080987305518883668 0.059751272573076712
leaf_count=122245 10731 1114 4144 221 681 682 6379 71 214 2023 796 38 311 826 3211 363 21 165 268 871 391 411 501 337 1469 336 893 25 1340 56
internal_value=0 -0.9637995895802226 0.87981785489689468 0.44458152821691949 -0.14368817202081915 -1.1639373329402525 0.080461821016717408 -1.2119980214054213 -0.64118665975702038 -0.61498864950617738 0.10916324034100125 -1.0201107136425713 0.8107238809751417 -1.2411270813337845 -0.41952490498927464 0.53595215793311513 -1.2535378862077362 0.41375254684732449 1.0372660937073936 0.26602851906514685 -1.0871372602043601 0.98202926723781148 1.0110261435442336 0.59555011628126409 1.0677052703899672 0.71722946338047655 0.68506562999267895 0.16191180515500844 -0.48475952214920781 0.55311168652264797
internal_count=161134 139593 21541 17397 15439 128818 10775 127265 6984 13946 2819 11127 1493 126858 4613 3791 10752 1402 1958 1553 6770 576 812 375 1737 407 2677 1784 1759 419
shrinkage=0.05


Tree=17
num_leaves=31
num_cat=0
split_feature=28 9 9 48 2 23 49 19 30 21 43 48 40 23 30 48 58 58 16 53 18 24 46 0 25 12 60 7 2 19
split_gain=2744348.1648439192 326797.31558100972 186921.87839266425 215922.30323658395 139777.83519521018 90704.570589859504 81238.336183049003 73371.414652553765 71110.688404693734 67562.672883804786 58439.781506805186 50156.683998677647 52609.865576014759 49953.277267910365 44454.789491281146 42629.811330708864 40847.78495031374 40521.27098521484 36133.216743729696 32744.390971418456 29451.652920463472 29068.343787715967 27784.720572824241 26477.49693203791 26417.947417185791 23538.848187138472 23525.313161243568 22923.362432802613 22754.754833907195 71589.578356255835
threshold=0.036106241866946227 0.037041034549474723 0.059469757601618774 0.071833461523056044 0.0458577647805214 0.067134726792573943 9.9999996826552254e-21 0.087761677801609053 0.36173199117183691 0.073623541742563262 0.040331717580556876 0.027630875818431381 9.9999996826552254e-21 0.042250765487551696 0.043349068611860282 0.0010504546226002278 0.038932591676712043 0.040145471692085273 0.010570454876869919 0.016998514533042911 0.042968148365616805 0.013115861918777229 0.040489181876182563 0.025486863218247894 9.9999996826552254e-21 0.02086783200502396 0.31725417077541357 0.061609504744410522 0.058975517749786384 0.024048146791756157
decision_type=10 10 10 8 10 10 10 10 10 10 8 10 10 8 10 8 10 10 10 10 8 10 10 10 8 10 8 2 10 10
left_child=1 5 3 4 7 8 15 14 11 19 -9 -1 18 -6 16 -3 -2 -18 -13 -8 -5 27 -15 -16 -20 -10 -22 -7 29 -17
right_child=2 6 -4 20 13 21 9 10 25 -11 -12 12 -14 22 23 28 17 -19 24 -21 26 -23 -24 -25 -26 -27 -28 -29 -30 -31
leaf_value=-0.063568891580132333 -0.06933803238616025 -0.066281063410426971 0.055459098069349511 -0.10114216885215961 -0.078944998933837496 -0.067393500923372249 -0.066139555685379881 -0.075141162818661525 -0.076608107039844275 0.045480917869324962 0.045070879974621281 -0.067162631467419395 -0.06573993459111864 0.054104470877238103 0.061544371714689995 -0.073788431945335312 0.057384025263508144 -0.070447527582975858 0.067747143460551523 0.027871252509449357 -0.080915383284394085 -0.068609158544962343 -0.096324203593961211 -0.078497206652225301 -0.066016941894254888 0.06183318725773243 0.05352038889904577 0.048812458553693649 0.061769956675071382 0.03881246828543411
leaf_count=122245 10849 1114 4144 221 681 448 6514 1120 303 214 488 826 3211 568 38 1443 96 993 165 256 265 812 244 362 411 104 1472 293 119 1115
internal_value=0 -0.94746240126233527 0.86037423285226178 0.43404807416736679 -0.14041469980659232 -1.1460950418050231 0.078237674048835568 -0.60092256486172724 -1.1942241621510934 -0.62653866111686152 0.36179962991899284 -1.2231606201690373 -0.41024468393050278 0.79087178469209851 -0.95038437272297871 0.52118396428657177 -1.1380193948497637 0.018369389290378891 0.4015006817959641 -1.0644623607883261 1.0128198773200479 0.2563725604412927 0.98634061981794907 0.53033316661858376 0.9499269708820236 0.69731334534291733 1.0428103696999753 0.65671167147677967 0.66563454957823831 0.39616502057666081
internal_count=161134 139593 21541 17397 15439 128818 10775 13946 127265 6984 1608 126858 4613 1493 12338 3791 11938 1089 1402 6770 1958 1553 812 400 576 407 1737 741 2677 2558
shrinkage=0.05


Tree=18
num_leaves=31
num_cat=0
split_feature=28 9 9 48 2 48 48 23 30 14 28 9 48 25 16 30 13 23 29 59 5 15 34 29 50 6 0 27 30 7
split_gain=2561042.655139843 360730.83937705006 156142.15145513602 187882.74178714497 131698.13463000514 86384.462344423751 99519.298701560401 84930.323574938579 66806.841954092495 60973.183975324107 58949.892653765142 49179.094757131854 44563.638225857634 45939.035056701374 44576.904778572025 44505.487495909503 47716.700803865126 43496.659741800053 42050.604927256441 37284.776214715734 34297.698815220436 27977.212190278366 25417.783271373308 25105.39235284938 24839.944181281142 24803.080309981422 24104.282010198091 23150.663929814778 22427.915955825003 21786.811200287888
threshold=0.037550659850239761 0.037041034549474723 0.059469757601618774 0.071833461523056044 0.0458577647805214 0.040542270988225944 0.0082872807979583758 0.067134726792573943 0.36173199117183691 0.11443565040826799 0.10535794869065286 0.093426577746868147 0.027630875818431381 9.9999996826552254e-21 0.010570454876869919 0.043349068611860282 0.067797493189573302 0.042250765487551696 0.043613672256469734 0.028232104144990448 0.10103579610586168 0.038201961666345603 0.099128201603889479 0.090614877641201033 0.23219843208789828 1.0000000000000001e+300 0.025486863218247894 0.011592006310820581 0.4138637781143189 0.061609504744410522
decision_type=10 10 10 8 10 8 10 10 10 10 10 10 10 8 10 10 10 8 10 8 10 8 8 10 10 8 10 2 10 2
left_child=1 7 3 4 9 6 11 8 12 10 15 19 -1 14 -14 16 -2 -6 -7 -3 -21 29 -19 -18 -4 -5 -17 -20 -10 -9
right_child=2 5 24 25 17 18 -8 21 28 -11 -12 -13 13 -15 -16 26 23 22 27 20 -22 -23 -24 -25 -26 -27 -28 -29 -30 -31
leaf_value=-0.062756578916951591 -0.069309181278708609 0.038934439556691153 0.054865419077062605 0.051040096996461642 -0.077840025245692612 -0.075827001117760043 -0.07016189942722055 -0.066784536002816142 0.061611792950517975 0.049897668511156935 0.062147855493606179 0.05121638292457268 -0.066053785266725534 -0.064623426898177086 0.049711316610203407 0.060818275848764827 -0.075900417862741598 -0.081015044508951833 -0.079495118852095814 -0.067775418926875053 0.059262057131372392 -0.066375997399835032 0.053606784689743836 0.050515230887000273 -0.14978972704318705 -0.11271850910126942 -0.077920242580392346 0.050825826202158003 -0.070547002560767708 0.048004240798991134
leaf_count=123031 11482 433 3844 1725 617 634 5423 443 71 197 26 457 1137 3435 466 35 471 295 268 3136 23 879 487 100 118 181 335 785 339 261
internal_value=0 -0.91214204037782232 0.86056406352654358 0.45745376705795593 -0.11316944154661188 0.12414705987748084 -0.35364016103811213 -1.1316378777361942 -1.179086757174383 -0.60299093135740356 -0.80073284669324829 0.23897941773807657 -1.2076270746417437 -0.45451146947597615 0.28725568794072232 -0.96899377357705074 -1.1538544154879082 0.79298481746672178 0.77639697664238749 -0.3733957828274535 -0.93665134916130355 0.23607552879936994 0.97078332315245508 0.30055772408402148 1.0916058559084314 0.99651067675949689 0.55101062005146351 0.93287423919374757 0.67159426212219331 0.64384865683436632
internal_count=161134 141221 19913 15951 14045 11159 9472 130062 128479 12646 12449 4049 128069 5038 1603 12423 12053 1399 1687 3592 3159 1583 782 571 3962 1906 370 1053 410 704
shrinkage=0.05


Tree=19
num_leaves=31
num_cat=0
split_feature=28 9 9 18 2 19 49 30 47 10 41 44 7 55 12 13 17 5 29 46 61 28 27 41 34 18 29 27 38 41
split_gain=2391067.1824020566 340631.32223399403 146224.55713061686 127792.54820921573 99167.490923661186 75893.914927529899 90188.45228166529 68219.054973526159 65799.919652188648 56698.393210629365 65330.856634141615 51713.976107289418 44485.206620248035 40293.211428971903 40100.15172443397 36430.723329222295 35724.680287276286 33072.257743610535 32835.846913350746 32104.827686317054 30567.641520140663 30444.351447133504 39825.596196191953 26252.748996755861 25038.623173609041 21131.208669767213 20377.546227780535 19350.037264630431 32449.126760626619 81007.929472562158
threshold=0.037550659850239761 0.037041034549474723 0.059469757601618774 0.064200341701507582 0.0458577647805214 0.10062915831804277 9.9999996826552254e-21 0.23082498461008075 0.03535782732069493 9.9999996826552254e-21 0.13998118042945865 9.9999996826552254e-21 0.10515550523996355 0.11678825691342355 0.02086783200502396 0.079661648720502867 0.01535606198012829 0.10103579610586168 0.12995608150959018 0.040838565677404411 0.10974210500717164 0.051805201917886741 0.043648382648825652 0.19431861490011218 0.097429256886243834 0.053615756332874305 0.063403610140085234 0.089056365191936507 0.051727274432778365 0.053759304806590087
decision_type=10 10 10 10 10 8 10 10 8 8 10 10 2 10 10 10 10 10 10 10 8 10 2 8 8 10 10 2 8 10
left_child=1 7 3 4 9 6 8 12 17 11 13 21 18 -11 -9 -8 -10 -3 -1 24 -5 22 -2 -14 -6 -23 -7 28 29 -4
right_child=2 5 27 20 19 26 15 14 16 10 -12 -13 23 -15 -16 -17 -18 -19 -20 -21 -22 25 -24 -25 -26 -27 -28 -29 -30 -31
leaf_value=-0.059589888481018129 0.04286587513421658 -0.071510541276777681 -0.13158978458590737 -0.075442814912030559 -0.080479581710358156 -0.081459392254945417 -0.066204951951186281 -0.067297903183516999 -0.0734091317189388 -0.072203247348218744 0.057276509745234953 -0.070940591880311252 -0.067944891607294486 0.058316976181943106 0.049921273384363724 0.059605815759845894 0.050744329090984586 0.057946504282391578 0.057708586937931343 -0.093338420453986451 0.047791485998226239 0.056403140561892766 -0.07340167467196082 0.052454393746327023 0.050527785204758181 -0.085632504808171195 0.048753853812959276 0.057072729190037912 0.047809987856629474 0.048102755546516579
leaf_count=127886 209 2258 692 448 322 232 6804 1031 547 7978 56 1714 652 23 316 20 533 22 25 354 2317 216 1410 152 658 246 743 1922 1223 125
internal_value=0 -0.89798559401804456 0.84259530006395533 0.44717203823279505 -0.014562612794456382 0.12089566424232798 -0.2476130000240046 -1.1162161669346558 0.32830944280587809 -0.42829105147282909 -0.94868168025196042 0.12497606224100223 -1.1550457460891186 -1.2560947380697036 0.27624466570564382 -1.1072929197221344 0.8151041443486069 -0.91084875307040292 -1.1801389349284956 0.78886853217186959 0.91313785345960008 0.47593011591031209 -0.32507894552909888 0.28921132915856479 0.90808287333955784 0.9646519046960883 0.88298731999620139 1.0697576710794159 0.80872400481073903 -0.17889588311788948
internal_count=161134 141221 19913 15951 13186 11159 10184 130062 3360 11852 8057 3795 128715 8001 1347 6824 1080 2280 127911 1334 2765 2081 1619 804 980 462 975 3962 2040 817
shrinkage=0.05


Tree=20
num_leaves=31
num_cat=0
split_feature=28 9 9 21 41 23 10 52 49 21 0 33 47 36 28 25 10 53 2 19 47 40 58 15 17 18 12 23 60 28
split_gain=2231619.5265044956 274531.41717978986 153974.42528605321 131991.14426827023 123433.34591322654 79055.971321569523 68345.161270833807 103575.45958432381 65689.073889402891 55982.668479366323 41994.2104518665 44567.047861696723 41271.368359260727 39131.58128846233 37360.6577539875 39867.922210348501 36754.180478835435 28594.143136546569 27091.931653230924 57442.760291713916 29065.635586254637 28711.956367976636 26340.851235879178 25140.857158420782 24667.939006015127 23584.869594121876 22588.547127071535 21355.890241530258 30065.266108865209 23590.982559535303
threshold=0.036106241866946227 0.037041034549474723 0.059469757601618774 0.050111033022403724 9.9999996826552254e-21 0.067134726792573943 9.9999996826552254e-21 0.032957825809717185 9.9999996826552254e-21 0.073623541742563262 0.19875812530517581 9.9999996826552254e-21 0.084094598889350905 0.18578339368104937 0.060663266107440002 0.035307969897985465 0.53995606303215038 0.016998514533042911 0.058975517749786384 0.024048146791756157 0.019000221975147728 0.21860017627477649 0.038932591676712043 0.038201961666345603 0.045102491974830634 0.031839843839406974 0.047027807682752616 0.0614386834204197 0.41432441771030432 0.044697593897581107
decision_type=10 10 10 10 10 10 8 10 10 10 10 8 10 10 10 10 10 10 10 10 8 10 8 8 10 10 10 10 8 10
left_child=1 5 3 4 6 10 12 13 18 17 -1 24 22 -8 15 -5 -6 -10 19 -3 21 -21 -2 -7 -12 -24 -27 28 -4 -30
right_child=2 8 27 14 16 23 7 -9 9 -11 11 -13 -14 -15 -16 -17 -18 -19 -20 20 -22 -23 25 -25 -26 26 -28 -29 29 -31
leaf_value=-0.059280313918707521 -0.065066229692502572 -0.069791867764547891 -0.10287602992280187 -0.077501611046080984 -0.073839258285574791 0.032226136203574875 -0.077355450140663334 0.05016291255672313 -0.063774849958985871 0.04257805544639845 -0.064641328635021131 -0.063064397793794566 -0.092619200291535711 0.056081615762854975 0.053238188768251662 0.029576217871466456 0.056499248577942841 0.026317678716639259 0.056776781626334365 -0.072012425854689865 0.042726254396096786 0.058550769052694587 -0.07811601113665316 -0.064500568529090432 0.05755456452408797 0.049402070543062698 -0.087340498398223443 0.058516814076651963 0.0092206784927073397 0.048835201714181938
leaf_count=124103 623 1758 255 1056 6052 682 4790 276 6514 214 543 2455 539 20 1160 841 21 256 180 1126 706 21 329 871 164 1425 265 919 906 2064
internal_value=0 -0.90300032837795352 0.80709805629511222 0.40458878593773073 -0.043259709588271154 -1.0976135299221146 0.28422114310292368 -0.42353741105255899 0.071692317007787165 -0.59311604162823994 -1.1460758802235613 -0.23394070648740836 0.67628849037130745 -1.2503296408329685 0.89728110500852853 0.11411608548384915 -1.2461071855021901 -1.0147152486174182 0.48189682261297051 0.20365456451328892 0.54736827567763413 -0.55290354169992983 0.77926380517282379 0.25457912657102882 0.66276667736315409 0.86239339946845672 0.9288135015842881 1.0440803532841467 0.87759806529287565 0.90097400971474784
internal_count=161134 139593 21541 17397 14340 128818 8267 5086 10775 6984 127265 3162 3181 4810 3057 1897 6073 6770 3791 3611 1853 1147 2642 1553 707 2019 1690 4144 3225 2970
shrinkage=0.05


Tree=21
num_leaves=31
num_cat=0
split_feature=28 9 9 48 2 23 48 48 48 25 43 47 10 9 57 23 29 40 28 35 29 24 50 26 34 6 18 27 12 61
split_gain=2084536.5939713905 301868.74720080988 130118.18489461578 154998.8073651497 101741.79695709205 74451.705101570114 69601.573503374719 86378.045399066876 55377.411695269635 54764.325901109944 52745.363602873695 68326.924630163456 45268.925870297368 39951.456358052623 45226.133255159948 39229.490384476259 35811.535243687074 34556.800476419878 33255.125814064828 29225.872684084712 25866.661073663883 24032.089579656666 22987.467938337708 22671.785720489923 22140.458022498278 22128.045962713542 19854.92720539344 19770.197640068101 18826.678668613156 18211.344532977208
threshold=0.037550659850239761 0.037041034549474723 0.060803655534982688 0.071833461523056044 0.0458577647805214 0.067134726792573943 0.040542270988225944 0.0082872807979583758 0.025993866845965389 9.9999996826552254e-21 0.068867370486259474 0.041276743635535247 9.9999996826552254e-21 0.093426577746868147 0.019546841271221641 0.042250765487551696 0.043613672256469734 0.018286002799868587 0.047050558030605323 0.067629925906658186 0.080516707152128233 0.013115861918777229 0.23219843208789828 0.010790986474603416 0.099128201603889479 1.0000000000000001e+300 0.042968148365616805 0.011592006310820581 0.016001706011593345 0.10974210500717164
decision_type=10 10 10 8 10 10 8 10 10 8 10 10 10 10 10 8 10 10 10 10 10 10 10 8 8 8 8 2 10 8
left_child=1 5 3 4 10 8 7 13 -1 17 11 12 18 14 19 -6 -8 23 -2 -3 -12 28 -4 -10 -17 26 -5 -18 -7 -28
right_child=2 6 22 25 15 21 16 -9 9 -11 20 -13 -14 -15 -16 24 27 -19 -20 -21 -22 -23 -24 -25 -26 -27 29 -29 -30 -31
leaf_value=-0.05971827998645432 -0.065713177607527637 -0.065026022352544885 0.052006522550078975 -0.096445488106123758 -0.076865427987980281 -0.072304069552919112 -0.07376534237403104 -0.067983748764680135 -0.063226008491213223 -0.06201674099369902 -0.072088501535771357 -0.068447161688695524 -0.065775323586681284 0.048442980858140861 0.056166046959087362 -0.078287076337668404 -0.076014359737729409 -0.063273607455790901 0.042739080116158651 0.057622301583156788 0.056216081068146399 -0.066311525278893516 -0.14465372052272596 0.057509177776491505 0.050419337674797463 -0.10777074889660641 -0.079947035229975524 0.047588327102106955 0.043979178835730076 0.05043539331325101
leaf_count=122422 884 3440 3710 166 628 364 634 5423 474 4177 428 8664 2105 457 132 300 268 1038 572 20 86 823 117 368 491 182 221 785 396 1359
internal_value=0 -0.86967077051565345 0.80831838291599845 0.43255805634011263 -0.10120110274317941 -1.084081132585323 0.11435562653463885 -0.33405654209884772 -1.1322040045937316 -0.34617257317666816 -0.53920231680989139 -0.77070809039476285 -0.030974954931710843 0.23826893709019673 -0.34070595083393179 0.72922475395345265 0.72073634914468421 0.39119387812042827 0.47951175673924468 -0.92697202622276753 0.70492228090254194 0.23285844421361362 1.0340233769672209 0.84941900936774062 0.90841630192118472 0.93694813581551728 0.96112224893129194 0.87059284862263808 0.60504815382775323 0.98451306909284753
internal_count=161134 141221 19913 16086 14158 130062 11159 9472 128479 6057 12739 12225 3561 4049 3592 1419 1687 1880 1456 3460 514 1583 3827 842 791 1928 1746 1053 760 1580
shrinkage=0.05


Tree=22
num_leaves=31
num_cat=0
split_feature=28 9 48 9 23 48 48 17 40 30 23 2 45 41 48 40 29 47 47 3 55 29 3 38 41 47 35 33 47 24
split_gain=1948635.3029246284 285097.51801646827 125265.38472223375 167205.55374234979 70604.287545407191 64556.122869583043 80934.579542996507 61732.780668354775 73184.74099731796 56924.194576417562 56838.1930563192 47685.21303053922 67271.843992922979 81434.249622724776 44891.97906778031 45789.434331661447 37214.745206559754 63432.991108948831 35776.650925661976 33885.981893648481 33670.873446487021 33226.182118165831 30109.171077782805 30065.203129266039 30005.445838005824 28564.404834949521 27890.697336427365 25211.440762255355 22362.952176478484 22354.067364738774
threshold=0.037550659850239761 0.037041034549474723 0.079847414046525969 0.028653481043875221 0.067134726792573943 0.040542270988225944 0.0082872807979583758 0.04077489115297795 0.20688235014677051 0.36173199117183691 0.058191988617181785 0.022819554433226589 9.9999996826552254e-21 0.14769564568996432 0.027630875818431381 9.9999996826552254e-21 0.10522055998444559 0.03535782732069493 0.050086027011275298 0.060563709586858756 0.13211244344711306 0.043613672256469734 0.020482782274484638 0.01830244064331055 9.9999996826552254e-21 0.0094312233850359934 0.072169911116361632 0.031138779595494274 0.038593569770455367 0.013115861918777229
decision_type=10 10 8 10 10 8 10 10 10 10 10 8 8 10 10 10 10 10 10 10 10 10 10 8 8 10 10 10 10 10
left_child=1 4 3 7 9 6 16 -2 20 14 11 12 24 -14 -1 18 17 26 28 27 -9 -7 -10 -12 25 -5 -3 -13 -16 -6
right_child=2 5 -4 10 29 21 -8 8 22 -11 23 19 13 -15 15 -17 -18 -19 -20 -21 -22 -23 -24 -25 -26 -27 -28 -29 -30 -31
leaf_value=-0.060030410136909795 0.038151934398470255 -0.064616067349442793 0.054148693672631892 -0.11201267119353581 0.029305336967177038 -0.072325313899671173 -0.066978154359951206 -0.067127570366712172 -0.074555783925320959 0.032771669916108657 -0.12698822897639148 0.040627987895032025 -0.10020493492147867 0.058225896116023884 -0.064532376702743519 -0.061754116872601364 0.054814060275094438 0.062044887185780599 -0.064047230525737117 -0.15489293092527964 0.057527570315708668 0.042384161137074869 0.054790054338218319 0.053493238119331613 -0.096400482636079157 0.047674384759856123 0.056032534259193856 -0.13234514066532488 0.069152705602228776 -0.065363787517936076
leaf_count=123031 666 3799 2243 248 760 634 5423 9376 547 410 197 1720 2557 20 377 3540 178 51 979 194 20 1053 131 1021 393 402 21 178 142 823
internal_value=0 -0.85719189350561764 0.79240979748655249 0.50267153111505569 -1.0703625126972947 0.11160961674299248 -0.32753234683180071 -0.4141311209754856 -0.74813991949726277 -1.1184901446094742 0.74746731953329126 0.42008586799572695 -0.14521497560291438 -1.1283904082732004 -1.1479026803193078 -0.35426025825001567 0.23257580832979191 -0.23621394464825735 0.42356519713257462 0.72260412354705517 -1.1868820100196902 0.70205687034362285 0.61571792058236186 1.0427210927713073 0.55871170226796474 0.77172583648043724 -0.9570401270212574 0.7714357477736945 1.0149513617890984 0.22615303246133314
internal_count=161134 141221 19913 17670 130062 11159 9472 10740 10074 128479 6930 5712 3620 2577 128069 5038 4049 3871 1498 2092 9396 1687 678 1218 1043 650 3820 1898 519 1583
shrinkage=0.05


Tree=23
num_leaves=31
num_cat=0
split_feature=28 9 48 9 48 22 8 40 25 40 27 2 41 24 48 19 5 30 3 40 24 34 33 5 27 7 19 48 9 16
split_gain=1823102.0625030042 231171.98191334179 130646.24804677523 173440.14399589095 69019.077747340081 58072.323781335028 107435.30805974147 93439.317976682243 57748.73071702812 55660.493368375814 67876.112697708333 55439.129297196378 50783.026436005021 48821.083928683627 47514.477398547577 44657.06521185625 35105.074096958306 32678.932143880753 32579.393701284989 32386.096019683402 32277.850194839295 31260.485662721636 27113.638612638693 26328.990064351805 26129.082767324522 24474.366821393734 32525.044128918056 24896.002705698389 31277.676299864055 20745.714040379593
threshold=0.036106241866946227 0.037041034549474723 0.079847414046525969 0.028653481043875221 0.025993866845965389 0.044451043009758003 0.046922374516725547 0.0023184396559372549 9.9999996826552254e-21 0.20688235014677051 0.029433935880661014 0.054537186399102218 0.12308096513152124 0.10990126803517343 0.0082872807979583758 0.024048146791756157 0.01672339998185635 0.41104821860790258 0.020482782274484638 0.018286002799868587 0.10554636269807817 0.0067989677190780648 0.12481679022312166 0.1809576898813248 0.060741836205124862 0.045381667092442519 0.10650012269616128 0.0081585920415818709 0.037349402904510505 0.010570454876869919
decision_type=10 10 8 10 10 10 10 10 8 10 2 10 10 10 10 10 10 10 10 10 10 10 10 8 2 2 10 10 10 8
left_child=1 4 3 9 12 6 7 16 19 10 -2 14 17 -12 15 -3 24 22 -11 29 -16 23 -1 -8 -5 26 27 28 -17 -6
right_child=2 11 -4 5 8 -7 21 -9 -10 18 13 -13 -14 -15 20 25 -18 -19 -20 -21 -22 -23 -24 -25 -26 -27 -28 -29 -30 -31
leaf_value=-0.059549746189699916 0.052143986774705192 -0.067974992642004767 0.053131413565090518 -0.083223925944944099 -0.062081694806957965 0.04799065325244168 0.048259553095132156 -0.094870526315663103 -0.060756840919583957 -0.072811434872816369 -0.065632527487918202 0.046319613239942978 0.03257690351947698 0.037465811423899133 -0.064947237515241618 0.055184529805040509 -0.11353325369330809 0.025163148158909139 0.054334625410644315 -0.06187670758258812 0.057275806880755675 -0.12916977214821265 0.038528797368658191 -0.13205309066747858 0.043521957282185941 0.050826886893973848 0.051243201048074463 0.061681426374106764 -0.070881216157740609 0.056672780940991929
leaf_count=122352 153 1793 2301 412 469 2097 728 2984 3816 622 10710 559 367 201 5176 40 401 359 156 980 28 216 122 165 395 325 137 22 2695 353
internal_value=0 -0.86482723477366341 0.75989832458817019 0.46703242665199773 -1.0559644038817491 0.719129326547294 0.3085770320139678 -0.61539286909335755 -0.16717074942688961 -0.45152358053116198 -0.76408105020112527 0.065624138655377293 -1.1279775398782619 -1.0629015624637843 -0.22512756824447422 0.13898479815763939 0.29933719133841824 -1.1565860613162351 0.65255842924788343 0.51463879906385335 -1.013203061131519 0.84391360014350414 -1.1766402152907307 0.91023731428773558 0.59308853603391709 0.40211496841182542 -0.011347018316966223 -0.55639938197004013 -0.92494764832791876 0.89211713737951126
internal_count=161134 139593 21541 19240 128818 7398 5301 4192 5618 11842 11064 10775 123200 10911 10216 5012 1208 122833 778 1802 5204 1109 122474 893 807 3219 2894 2757 2735 822
shrinkage=0.05


Tree=24
num_leaves=31
num_cat=0
split_feature=28 9 29 28 48 48 25 49 41 19 13 6 7 23 48 22 33 30 38 40 48 33 49 37 40 49 11 17 9 18
split_gain=1706685.904660003 218848.01691345288 128351.0748457606 102113.00284422582 65715.876582672819 61443.736033327921 54155.840459025174 49777.725077325085 48186.921270805411 44618.427058818052 40923.684446268097 38380.986829040063 33846.823372834799 31883.588929474936 40629.456251480442 99209.125480211718 34345.526150012542 31248.480710589327 30413.669029621175 30076.589557234212 28632.643033451463 27620.094962263494 26745.174464342708 47251.451285369571 61737.855280976422 26960.510094763995 26184.979357588501 32776.01135187802 25646.16951176498 22640.68518945414
threshold=0.036106241866946227 0.037041034549474723 0.076277118176221861 0.051805201917886741 0.025993866845965389 0.047254675999283798 9.9999996826552254e-21 9.9999996826552254e-21 0.12308096513152124 0.10062915831804277 0.066073242574930205 1.0000000000000001e+300 0.0053684636950492868 0.0614386834204197 0.05270852334797383 0.024382182396948341 0.0067236626055091628 0.41104821860790258 0.058654725551605232 0.018286002799868587 0.0010504546226002278 0.10009358823299409 9.9999996826552254e-21 0.1034551002085209 0.051548535004258163 0.060500398278236396 0.048255747184157378 0.052761411294341094 0.061724117025733001 0.036698913201689727
decision_type=10 10 10 10 10 8 8 10 10 10 8 8 2 10 8 10 10 10 10 10 8 10 8 10 10 8 10 10 10 10
left_child=1 4 3 5 8 11 19 20 17 21 -7 -2 -5 14 15 -4 28 18 -1 -6 -3 -9 -14 24 -24 -25 27 -26 29 -17
right_child=2 7 13 12 6 10 -8 9 -10 -11 -12 -13 22 -15 -16 16 -18 -19 -20 -21 -22 -23 23 25 26 -27 -28 -29 -30 -31
leaf_value=-0.059019929563135953 -0.057772174636872356 -0.062763601421292767 -0.099463046978347402 -0.071948433157578415 0.043289212501500633 0.032068833074756116 -0.06013444254921943 -0.061867000532844198 0.031263842753833031 0.03230002023039729 -0.10646424921500884 0.033670657281886535 0.045767533482252765 0.055353812168065224 0.048306442513716137 0.054986503898530714 -0.13581384419342934 0.023947962702637327 0.05202775766822481 -0.061177227512513782 0.028165242512576683 0.055682584435536503 -0.10690051400218469 -0.12797864714976362 0.056988926012821954 0.055803099187964923 0.04119023620561954 -0.093478724542421593 0.04507064775102082 -0.072942020076413053
leaf_count=122417 8329 1114 1537 846 822 1074 3816 6537 367 424 484 340 1711 1182 1310 22 257 359 57 980 2677 23 1354 177 22 115 308 974 565 934
internal_value=0 -0.85392790543712183 0.74550552559104977 0.32119272039077351 -1.0443277393582071 -0.34426092004750386 -0.16413431809068338 0.064102442803049595 -1.1163264102986759 -0.55605723908730698 0.3932820864868799 -0.88073580845869293 0.6438879427082943 0.95731801432082175 0.73382125864295678 0.27621996235710727 0.6164942956604208 -1.1451905550586443 -1.1655947879972324 0.50090661661332703 0.4373133109337618 -1.0154336873144625 0.69463284329280339 0.3070220828625444 -0.31521468466708114 0.97651825383270707 0.26092371186868935 -0.78050420788554442 0.70859773886103383 -0.5130094358363041
internal_count=161134 139593 21541 15734 128818 10227 5618 10775 123200 6984 1558 8669 5507 5807 4625 3315 1778 122833 122474 1802 3791 6560 4661 2950 2658 292 1304 996 1521 956
shrinkage=0.05


Tree=25
num_leaves=31
num_cat=0
split_feature=27 9 48 8 29 29 49 12 47 43 30 21 9 13 10 47 15 5 56 17 18 58 15 14 8 16 15 13 30 33
split_gain=1393084.8359007514 381257.978487271 157543.12872268131 125139.73585977976 78444.244344140781 75553.68187613906 75246.830628124444 58825.251912250591 51190.250556058701 46894.739523103555 44135.51794963493 42967.30320516997 76987.183270651934 51781.900965413515 41454.545837567755 40928.239312220096 35848.532698582363 35440.865004858395 30791.277052962716 29812.952883424063 29469.531885290577 28775.128741051245 28174.186301896552 23850.061164575374 22965.080297110417 23790.747538472464 22895.226413487762 21367.439902147336 21202.04986280181 18985.461852868713
threshold=0.075032528489828124 0.034343592822551734 0.025993866845965389 0.0026009574066847567 0.10298529267311098 9.9999996826552254e-21 0.011910394299775364 0.096435423940420165 0.049069995060563094 0.041761903092265136 0.23082498461008075 0.038831274956464774 0.0742471218109131 0.043583508580923087 0.23787607997655871 0.032953098416328437 0.037536373361945159 0.016346356831490997 0.10246375575661661 0.01535606198012829 0.066092018038034453 0.04735341668128968 0.075399424880743041 0.05428238399326802 0.015019323676824571 0.16661375015974048 0.01042004255577922 0.0043742363341152677 0.022137502208352092 0.039789041504263885
decision_type=2 10 10 10 10 10 10 10 10 10 10 10 10 8 10 8 10 10 10 8 10 8 8 10 10 8 10 8 8 10
left_child=1 2 10 7 6 8 15 -2 28 20 -1 12 13 18 29 17 -12 -3 -5 -17 -8 -15 -6 -11 -23 -26 -19 -14 -4 -7
right_child=3 4 5 11 22 14 9 -9 -10 23 16 -13 27 21 -16 19 -18 26 -20 -21 -22 24 -24 -25 25 -27 -28 -29 -30 -31
leaf_value=-0.058718816601982228 -0.063273110895074397 -0.067735107245543755 -0.06353973663834124 -0.081530982354424991 0.046627439541887895 -0.062113141239176578 -0.068492481191643792 0.044402122121524279 -0.067806741662451708 -0.085073734225340286 -0.065540423131010314 0.05014894189840638 -0.20650025969306746 -0.086999700530759824 0.040374132895907064 -0.072258235130283663 0.060540668374666477 0.04620635060284925 0.048159051345504494 0.038602124793057156 0.051091940831148243 -0.088642638350205388 -0.10627109627979987 0.054481398208922865 0.033336384196612209 -0.14662159991221951 -0.078651116190407044 0.049475066268030131 0.059708665846794511 0.023448386257542433
leaf_count=119902 5228 2608 420 2708 931 7222 8190 246 1161 376 1068 3866 77 648 326 639 91 208 44 1292 25 442 246 59 1187 158 448 762 336 220
internal_value=0 -0.66902601111431981 -0.9778045027601735 0.8034207067064042 0.20180315428471451 -0.037289699536792321 -0.12147728651050747 -0.60665255058827194 0.70295823230138477 -0.82755801639891358 -1.1378338059119093 0.87894886741544598 0.56833028312915412 -0.037465730368384478 -0.70787194748305049 0.3076387260097394 0.21236326613947179 -0.48773781100068025 -1.1621374729552891 0.64076426661512009 -1.1905355996815428 0.32668048243528791 0.85558561008450507 0.54864215013540618 0.47245600318955694 0.58709508239949504 0.40877222999641316 0.96764893729470802 1.0466013021527905 -1.0504259519282442
internal_count=161134 145768 130746 15366 15022 9685 13845 5474 1917 8650 121061 9892 6026 5187 7768 5195 1159 3264 2752 1931 8215 2435 1177 435 1787 1345 656 839 756 7442
shrinkage=0.05


Tree=26
num_leaves=31
num_cat=0
split_feature=28 38 21 8 10 19 17 30 19 48 38 21 32 43 13 18 2 12 48 23 27 39 19 24 46 19 52 30 39 48
split_gain=1492921.1854124134 137703.22941229551 122249.3585684828 101568.02891340329 87771.953268394573 76822.60921729845 83273.295199681248 62289.912902555778 62213.737606420073 48768.617561649531 43184.673031156766 39782.3672786143 38066.396506586687 34479.05016753004 33130.425469100599 32487.071274214424 27730.719363683165 27605.471492769197 26919.82995230821 37787.240787762945 36689.407010510848 34508.26683877976 30143.295213253983 57758.670758979672 26768.379121651124 26199.802379967485 24676.368353474209 23055.610581542027 22426.412153631682 20717.325293218182
threshold=0.035081598907709129 0.039251409471035011 0.042512927204370506 0.048026967793703086 0.1519507318735123 0.090830314904451384 9.9999996826552254e-21 0.2191467955708504 0.032880524173378951 0.031535627320408828 0.033768046647310264 9.9999996826552254e-21 0.024071102030575279 9.9999996826552254e-21 0.014735628850758077 0.0087620397098362463 0.096981156617403044 0.12950759381055835 0.075422056019306197 0.048020506277680404 0.10252134501934053 0.033877333626151092 0.10650012269616128 0.087648492306470885 0.15578874945640567 0.04727186635136605 0.032957825809717185 0.60936662554740917 0.1052888259291649 0.0018116257269866767
decision_type=10 10 10 10 10 10 8 10 10 10 8 8 8 8 8 10 10 10 8 8 2 8 10 10 10 10 8 8 10 8
left_child=1 4 3 5 7 6 -2 9 24 17 -5 25 -7 -11 -10 -12 -13 28 19 20 22 -21 23 -4 -6 29 -14 -27 -1 -8
right_child=2 -3 18 10 8 12 11 -9 14 13 15 16 26 -15 -16 -17 -18 -19 -20 21 -22 -23 -24 -25 -26 27 -28 -29 -30 -31
leaf_value=-0.056461727919390109 0.05867238167332587 0.04021117015956463 -0.081522877181795073 -0.10002183276895647 -0.059900997396376159 -0.10338632062164088 0.030173146714365825 0.025891569270134231 0.047058609949796604 0.033182091066400451 -0.15613546081680552 -0.073054417801679136 -0.12215858015420922 -0.061027143737606628 -0.066902348744866086 0.04375426730068678 0.042635953789404983 0.049501085707806002 0.054086995760844359 -0.085925989237761791 -0.11578962383719074 0.048289956154599738 0.04653007516007153 0.049000996150587471 0.053258330554142447 -0.084310293606737308 0.039533204381623381 0.03117652173975885 0.020670511095847777 -0.071435372172827
leaf_count=126031 27 849 1914 522 5488 489 186 976 789 984 177 8620 240 1915 876 1888 55 72 1147 472 524 1267 244 111 46 507 1097 694 346 2581
internal_value=0 -0.8446588916596558 0.7051355354841502 0.32908204732738866 -0.91772404942416541 -0.095187932293689312 -0.51485329613920727 -1.0094303647230805 -0.043258681864148309 -1.0506023713685186 0.78171165622719618 -0.80860206372045562 0.57534648063322946 -0.0029915686876118039 0.65164823651988646 0.84236924743525998 -1.2942148255129564 -1.0988627770407504 0.94372825518340642 0.70974092741556172 0.09802620104740184 0.90947770033428177 0.29769139799109517 -0.37968521822631407 -0.90504741830821867 -0.23582532334120729 0.71239385926656806 0.31466355365283444 -1.1131942485263771 -0.96107867073818654
internal_count=161134 138372 22762 17083 137523 14496 12670 130324 7199 129348 2587 12643 1826 2899 1665 2065 8675 126449 5679 4532 2793 1739 2269 2025 5534 3968 1337 1201 126377 2767
shrinkage=0.05


Tree=27
num_leaves=31
num_cat=0
split_feature=8 48 9 29 8 49 19 49 19 41 51 39 15 45 17 52 30 30 31 10 1 37 47 62 5 6 30 8 13 21
split_gain=1216692.086037091 390069.55557820352 177083.64873598656 80595.05046756193 67237.659223881288 59973.487561762508 45007.978599256719 53593.077501861619 49550.319450017589 38499.014108685777 37467.713891790394 35060.469149792916 34704.269604664398 32135.361013548019 26960.322400416364 26946.619913879011 26386.188019160996 22967.368629564571 22566.282938821474 21347.730034111708 21953.305662730625 21258.91285688983 19242.725849177703 18889.475182885653 17987.525865444302 43438.325885680402 17793.475260574462 17662.680795621171 15425.242920380842 40996.377252377686
threshold=0.030242477543652061 0.05270852334797383 0.063274078071117415 0.076277118176221861 0.045909587293863303 9.9999996826552254e-21 0.043533343821763999 0.1868899688124657 0.045248737558722503 0.12308096513152124 0.0046697852667421111 0.1052888259291649 0.041818173602223403 0.026746012270450596 0.029258300550282005 0.019155916757881645 0.41104821860790258 0.22156449407339099 0.13976425677537921 0.088117800652980818 0.041096612811088569 0.026854572817683223 0.03535782732069493 0.056691538542509086 0.21003296226263049 0.19058340042829516 0.42096169292926794 0.027100735343992714 0.01730215456336737 0.10261450707912446
decision_type=10 10 10 10 10 10 10 8 10 10 10 10 8 10 8 8 10 10 10 10 10 8 10 8 8 10 10 10 8 10
left_child=1 2 6 4 5 12 9 8 22 16 15 -10 19 14 17 -3 18 -4 -1 20 -2 -6 -8 -5 28 -26 -18 -16 29 -23
right_child=3 10 13 23 21 -7 7 -9 11 -11 -12 -13 -14 -15 27 -17 26 -19 -20 -21 -22 24 -24 -25 25 -27 -28 -29 -30 -31
leaf_value=-0.056521888559454947 -0.067120285825659307 -0.081173439921966267 -0.066656782442828105 -0.097756055545589027 -0.081504251766709682 -0.077865907413669833 -0.058744853794839895 0.036635428783882366 -0.059964871089811356 0.025610292227223622 -0.097891005497237116 0.059852034969003869 -0.081205765588274095 -0.097621508846989211 0.036312801600670019 0.041875775266863403 0.064321697180639889 0.056248907367009618 0.036631883600642859 0.050435741488037117 0.030397283787806748 -0.091390756658110694 0.046898179647809332 0.049416364035446698 -0.10486042962616114 0.054500963828249864 -0.069451176765339864 -0.10342197006531915 0.043698226095864989 0.048797140616741431
leaf_count=124876 1241 490 1621 191 406 3040 781 508 14494 429 494 27 955 549 1348 1959 26 21 168 292 331 749 400 2843 670 25 336 200 1585 79
internal_value=0 -0.63209944379444838 -0.84824240074608592 0.79484343725464313 0.38717967977430323 -0.33402753514734157 -0.97907268676156201 -0.49818107999751104 -0.76349780792893818 -1.0684994614921453 0.70167359249236783 -1.0570377484294695 0.19213999947866228 0.31421584847220918 0.43457907180445327 0.77633673525874269 -1.0960985110103576 -0.6517381806044783 -1.1161785023345667 0.4854145054928316 -0.24182551416389891 0.66654115680505832 0.48683807889681885 0.97958679176964192 0.70502262028957052 -0.27132986680866844 0.41894772765169763 0.65646672285178276 0.78289478200784457 0.0098549334157596279
internal_count=161134 148727 145784 12407 9373 5859 142045 16210 15702 125835 2943 14521 2819 3739 3190 2449 125406 1642 125044 1864 1572 3514 1181 3034 3108 695 362 1548 2413 828
shrinkage=0.05


Tree=28
num_leaves=31
num_cat=0
split_feature=28 29 29 28 10 48 38 19 13 48 41 2 38 23 48 22 24 33 49 8 30 30 5 25 48 48 43 46 37 47
split_gain=1308108.7439574432 132000.55382298317 117322.30353886308 92757.061272563456 74841.811181276556 63824.738021650519 49488.453495186521 41564.682861532485 40247.152568859972 39114.569823871687 37398.135532477521 35045.712932023875 33425.140827605508 33375.775770228473 37897.929117191088 56988.434843665666 34122.619024316431 31872.345971713192 29197.027435211101 77316.45899234536 29466.688108343544 25756.714527142467 24221.33708671901 23327.099257746435 23142.21856151137 41863.192191330738 22811.475518168925 21781.518356265857 21666.894285214265 20104.727863278767
threshold=0.032508837059140212 0.076277118176221861 0.043613672256469734 0.051805201917886741 0.14275483042001727 0.047254675999283798 0.039251409471035011 0.10650012269616128 0.066073242574930205 0.0027884154114872222 0.12308096513152124 0.078626982867717757 0.047376479953527458 0.0614386834204197 0.05270852334797383 0.024382182396948341 0.10554636269807817 0.0067236626055091628 9.9999996826552254e-21 0.046922374516725547 0.22517592459917071 0.41104821860790258 0.14283224195241931 0.01337531302124262 0.031535627320408828 0.031903561204671867 0.081175237894058241 0.074549514800310149 0.1034551002085209 0.051682429388165481
decision_type=10 10 10 10 8 8 10 10 8 10 10 8 8 10 8 10 10 10 8 10 10 10 8 8 10 10 10 8 8 10
left_child=2 3 6 5 7 9 10 11 -7 23 21 -4 -6 14 15 16 -3 27 -5 20 -20 24 28 -2 -1 -26 -11 -17 -21 -13
right_child=1 13 4 18 12 8 -8 -9 -10 26 -12 29 -14 -15 -16 17 -18 -19 19 22 -22 -23 -24 -25 25 -27 -28 -29 -30 -31
leaf_value=-0.056419641559357428 0.045799774369526577 -0.092755417033702325 -0.061361832688849927 0.041460629822012332 -0.069652117767967092 0.031673713981751048 0.0301152773052373 0.032380842897232025 -0.094505578479703783 -0.062984869335908564 0.026646528037171543 -0.061069478287977208 0.045677371400333282 0.052721145959562059 0.044943198640392056 0.035829172179611186 0.049542150578035321 -0.12146846865543813 -0.084615140570400954 -0.1047020980924197 0.051183846228523726 0.0226975206999015 -0.12771403219774061 -0.070646666135538452 0.077960711718653875 -0.060023624802334752 0.038071617460447515 -0.098584903446582703 0.043909057215813348 0.056842105788052648
leaf_count=118782 253 1812 10408 1894 757 1284 516 421 616 11187 389 752 782 1194 1348 1370 29 310 2680 234 21 342 190 671 80 1841 129 308 488 46
internal_value=0 0.65289615314567451 -0.85474084170353981 0.22672874583645514 -0.12360970294150081 -0.32878545494377415 -1.0124438821950745 -0.63683335623512094 0.39328934745479172 -0.81119072903928902 -1.0490605630372996 -0.92996408264718455 0.68413305172451677 0.8866941221347906 0.65409403701084645 0.22212478994549456 -1.1879068465044027 0.53388202817245767 0.58250539979851834 0.1688446670328306 -1.2371251800799254 -1.0779450307276219 0.68334727622715807 0.34272919277951985 -1.098863878423193 -0.11048431056440189 -1.1197833336910636 0.63519271179370251 0.77895541987824013 0.38165758844529096
internal_count=161134 26018 135116 19647 13166 14140 121950 11627 1900 12240 121434 11206 1539 6371 5177 3829 1841 1988 5507 3613 2701 121045 912 924 120703 1921 11316 1678 722 798
shrinkage=0.05


Tree=29
num_leaves=31
num_cat=0
split_feature=28 9 21 9 48 47 47 22 2 21 48 17 8 18 31 4 48 13 48 9 38 40 48 57 3 18 47 18 19 38
split_gain=1225110.3185038306 142388.0450170422 125476.06284915155 118268.79289907949 74273.514037030502 77410.079374501031 50980.077666970959 67251.345498043913 47474.720475587957 41409.497468486428 39010.810591835885 34302.543060569777 31461.722930380991 41600.365490764758 30271.145338369926 30134.099288964426 29496.308943305979 32503.663024772941 27544.61404252355 75102.152059069194 24499.057825054042 22913.421144326352 20941.751445897662 20494.629183354933 19481.466852705187 19283.727081374003 18305.849486074527 18143.29130321374 17781.711689804168 17331.473094440968
threshold=0.032508837059140212 0.037041034549474723 0.042512927204370506 0.08559072390198709 0.047254675999283798 0.033622853457927711 0.065379984676837935 0.054112898185849197 0.058975517749786384 0.091739770025014891 0.0082872807979583758 0.01535606198012829 0.033718420192599304 0.031839843839406974 0.040238389745354659 9.9999996826552254e-21 0.027630875818431381 9.9999996826552254e-21 0.075422056019306197 0.017614169046282772 0.058654725551605232 0.21860017627477649 0.031903561204671867 0.032051241025328643 0.018862986937165264 0.0082003683783113974 0.16090796887874606 0.022701976820826534 0.02554684225469828 0.03561042062938214
decision_type=10 10 10 10 10 10 10 8 10 10 10 10 10 10 10 10 10 8 8 10 10 10 10 8 8 10 10 10 10 8
left_child=1 9 3 4 5 12 -6 14 10 16 11 21 -2 -14 -8 28 20 22 19 -4 -1 -3 -18 -21 -15 -5 -25 -13 -9 -27
right_child=2 8 18 25 6 -7 7 15 -10 -11 -12 27 13 24 -16 -17 17 -19 -20 23 -22 -23 -24 26 -26 29 -28 -29 -30 -31
leaf_value=-0.055657173012651273 -0.044074292893448663 -0.064724427664220457 -0.067610625762128979 -0.19957030287942409 0.049408062567167954 -0.067803455376142407 -0.09477679665054406 -0.10516313028521357 0.046738175314066481 0.014345514977995192 -0.062042294705018888 0.03111757754770841 -0.090876157142000619 -0.084800556705554364 0.045028068721532852 -0.13846638193845415 0.055836993335118879 -0.059228060327143311 0.052196507140584908 -0.10288185381049818 0.050335169548141212 0.052835731621863363 -0.061055315485484124 0.041293468846898065 0.039257070084443742 -0.026467980550105536 -0.15635900992584878 -0.080914845969896884 0.043122459916057163 0.047487253161177662
leaf_count=120562 3306 2921 2116 76 512 9926 2291 189 374 1167 4475 1513 760 353 39 229 282 2713 1178 254 49 33 607 2464 725 307 104 420 336 853
